Node,emb_0,emb_1,emb_2,emb_3,emb_4,emb_5,emb_6,emb_7,emb_8,emb_9,emb_10,emb_11,emb_12,emb_13,emb_14,emb_15,emb_16,emb_17,emb_18,emb_19,emb_20,emb_21,emb_22,emb_23,emb_24,emb_25,emb_26,emb_27,emb_28,emb_29,emb_30,emb_31,emb_32,emb_33,emb_34,emb_35,emb_36,emb_37,emb_38,emb_39,emb_40,emb_41,emb_42,emb_43,emb_44,emb_45,emb_46,emb_47,emb_48,emb_49,emb_50,emb_51,emb_52,emb_53,emb_54,emb_55,emb_56,emb_57,emb_58,emb_59,emb_60,emb_61,emb_62,emb_63
alexandrium,-0.19404903054237366,-0.1924392431974411,0.21698659658432007,0.05689847841858864,0.15178976953029633,-0.10323843359947205,-0.035499464720487595,0.19348394870758057,-0.23698443174362183,0.08544876426458359,-0.04500925540924072,0.2885209023952484,-0.007368527818471193,0.03837744891643524,-0.19571398198604584,-0.030375979840755463,0.13440914452075958,0.32294386625289917,-0.05014374107122421,0.043520405888557434,0.13250869512557983,-0.21329204738140106,-0.16846106946468353,-0.007957362569868565,0.2930411994457245,0.03473217785358429,-0.05930141732096672,0.03340764716267586,-0.023411348462104797,-0.0566876120865345,-0.1671627163887024,-0.10209891945123672,-0.05624017119407654,0.08088179677724838,0.2783614993095398,-0.07004906237125397,0.10610563308000565,0.11828447878360748,-0.07958368957042694,-0.1480710208415985,-0.20250935852527618,0.2010210156440735,0.11259797215461731,0.09130225330591202,-0.23002047836780548,0.24768489599227905,0.07010186463594437,0.20750518143177032,-0.08364874124526978,-0.1650412678718567,0.3400644063949585,-0.029352521523833275,-0.11302506923675537,0.010051362216472626,-0.10372715443372726,-0.0964406207203865,0.209881991147995,-0.06666012108325958,-0.09841910004615784,-0.07885324954986572,-0.10633852332830429,0.23509269952774048,0.12856875360012054,0.20188196003437042
dinoflagellates,-0.06855113059282303,-0.08932729810476303,0.23661749064922333,-0.11402500420808792,-0.027429018169641495,-0.07812197506427765,0.03941595181822777,0.2535076141357422,-0.18656538426876068,0.006214871071279049,6.445797043852508e-05,0.13399066030979156,-0.14946480095386505,0.03164650872349739,-0.035025764256715775,-0.23463909327983856,0.1074533611536026,0.3590511381626129,-0.19566267728805542,0.03499911352992058,0.1370377540588379,0.03522561490535736,-0.234230637550354,-0.05568578094244003,0.34464624524116516,0.13944238424301147,0.06608075648546219,0.041640765964984894,0.06545104831457138,-0.13029101490974426,0.11079742014408112,-0.1580427587032318,-0.03569813445210457,-0.06711792200803757,0.27692341804504395,0.15030115842819214,0.17000800371170044,-0.0034580782521516085,-0.015614575706422329,-0.034116338938474655,-0.07767505943775177,-0.07376359403133392,0.40984588861465454,0.08145630359649658,0.08234866708517075,0.31742599606513977,-0.1956627070903778,0.15480542182922363,0.02119872160255909,-0.031197847798466682,0.284696102142334,-0.1264866143465042,-0.145320862531662,0.002838300308212638,-0.09334532171487808,-0.017281677573919296,0.20400503277778625,0.057765305042266846,0.002011846285313368,-0.1356048434972763,-0.2731056809425354,0.03356873244047165,0.0971415713429451,0.06423604488372803
paralytic shellfish toxins,-0.02990044467151165,-0.27362459897994995,0.41914987564086914,0.04590843990445137,-0.07903002202510834,-0.18567074835300446,0.23892904818058014,-0.08506379276514053,-0.09945166856050491,0.1104101911187172,0.3458433449268341,-0.061628226190805435,0.24252234399318695,-0.04220513999462128,-0.19249296188354492,-0.0882311686873436,0.18476375937461853,0.3172970712184906,0.010011819191277027,0.054921336472034454,0.12801112234592438,-0.08816176652908325,-0.1658916026353836,-0.19055862724781036,0.16673626005649567,-0.05374492332339287,-0.008911783806979656,0.03727417439222336,-0.09004418551921844,0.026007765904068947,0.0028204850386828184,-0.15519976615905762,-0.08714144676923752,0.12994661927223206,0.034904856234788895,0.1439642608165741,0.22933810949325562,-0.07250655442476273,-0.12385312467813492,0.09854255616664886,-0.1752699315547943,0.09627962857484818,0.205915629863739,-0.011731062084436417,-0.1350787729024887,0.21347905695438385,-0.09014330804347992,-0.11912550032138824,-0.30020350217819214,-0.3438337445259094,0.13053931295871735,-0.18662846088409424,0.03931254521012306,-0.23556384444236755,-0.07351907342672348,0.09822510927915573,0.04456602409482002,0.012746723368763924,-0.04024442285299301,-0.16142427921295166,-0.21576015651226044,-0.07874703407287598,0.3300434350967407,0.2443396896123886
saxitoxin,-0.07842040807008743,-0.17934226989746094,0.38602444529533386,-0.19720341265201569,-0.016363106667995453,-0.09429990500211716,-0.018564090132713318,0.028262406587600708,-0.02279718965291977,0.0959850326180458,0.1392054557800293,0.11736208945512772,-0.14836430549621582,-0.017843646928668022,-0.22513540089130402,-0.16298356652259827,0.05852912738919258,0.3753490447998047,-0.05176520347595215,0.18655844032764435,0.1828189343214035,0.06840714067220688,-0.19315257668495178,0.07485239207744598,0.12287480384111404,0.0888354554772377,0.061935219913721085,-0.12078776955604553,-0.0637005865573883,-0.05750945210456848,0.15685686469078064,-0.08245907723903656,0.06708630174398422,-0.1444232314825058,0.1143345832824707,0.30260929465293884,0.15545055270195007,-0.06348161399364471,-0.09515868872404099,0.013430747203528881,-0.22021958231925964,-0.05008332431316376,0.2832793891429901,0.09557682275772095,-0.054651085287332535,0.3500096797943115,-0.06272382289171219,-0.0714045912027359,0.08728594332933426,0.0529530867934227,0.3151514530181885,-0.17461560666561127,-0.07748061418533325,-0.08317692577838898,-0.027392327785491943,-0.08147106319665909,0.20410124957561493,-0.0989309623837471,-0.23156996071338654,-0.21222059428691864,-0.1788763701915741,0.07240723818540573,0.0028114968445152044,-0.1589377522468567
toxin profile,-0.04725464805960655,-0.4284123480319977,0.12050777673721313,0.04613994061946869,0.07243276387453079,-0.10740754753351212,0.17610464990139008,0.028347322717308998,-0.11888553947210312,0.2283318042755127,-0.01905648224055767,-0.060157325118780136,0.18034282326698303,0.025842241942882538,-0.28872576355934143,-0.0018607018282637,-0.06660208106040955,0.4436461925506592,0.1400788128376007,0.07569263875484467,0.07164891064167023,0.045210715383291245,-0.2794182300567627,-0.2583504617214203,0.07480605691671371,0.03874579444527626,0.04436618834733963,-0.09692546725273132,-0.2169869989156723,-0.08886592090129852,-0.16564826667308807,-0.025867771357297897,-0.16086065769195557,0.08122077584266663,0.039058949798345566,0.2641527056694031,0.09157067537307739,0.10900386422872543,-0.39775896072387695,0.05688930302858353,-0.19176167249679565,-0.03709468990564346,-0.17597386240959167,0.13409076631069183,0.07737674564123154,0.04022621363401413,-0.22371046245098114,-0.08838226646184921,-0.2355685979127884,-0.27299076318740845,0.21672295033931732,0.19238410890102386,-0.029031382873654366,-0.13185319304466248,0.07072029262781143,0.033007197082042694,0.20417532324790955,-0.1332526057958603,-0.016858570277690887,-0.09350613504648209,-0.14585746824741364,0.0090230293571949,0.2853562831878662,-0.18047720193862915
toxin production,-0.10467212647199631,-0.36213427782058716,0.06651194393634796,-0.11292129755020142,0.2837117314338684,0.020984100177884102,0.06122041866183281,0.05643780529499054,0.08331721276044846,0.07146615535020828,0.22731368243694305,-0.010945942252874374,-0.3417488932609558,-0.11147063225507736,-0.13946761190891266,-0.27205103635787964,-0.0386967658996582,0.12164423614740372,0.01352249551564455,0.21808849275112152,0.26411885023117065,-0.208872988820076,-0.30146482586860657,-0.1458810269832611,0.39472249150276184,-0.004136612638831139,0.046084754168987274,0.22838212549686432,-0.18869386613368988,-0.00428783567622304,-0.15520572662353516,0.01807217486202717,0.4359467327594757,0.10166575759649277,0.09393780678510666,-0.04494258016347885,0.2969476282596588,0.23233284056186676,0.06741687655448914,-0.007463161367923021,-0.049471188336610794,0.21852494776248932,0.10995855927467346,0.058766838163137436,0.011944296769797802,0.1429804116487503,-0.3737812936306,0.03872823715209961,0.21926364302635193,-0.2188955694437027,0.2409287989139557,-0.11031096428632736,-0.1462613195180893,-0.05459054186940193,-0.3636413812637329,0.09405657649040222,-0.08025690913200378,-0.15336190164089203,-0.29916197061538696,-0.03043915145099163,-0.039153702557086945,0.1021946370601654,0.1365422159433365,0.29767289757728577
gymnodinium catenatum,0.052698682993650436,-0.48635536432266235,0.2372041940689087,-0.09814482182264328,-0.054888781160116196,-0.1827106773853302,-0.19476318359375,-0.06623139977455139,-0.22304067015647888,-0.20616790652275085,-0.1255313903093338,-0.10568434745073318,0.017736801877617836,-0.10115136206150055,-0.192671537399292,-0.2896724045276642,-0.041143983602523804,0.4571971893310547,-0.13683994114398956,-0.09868000447750092,0.06866486370563507,0.2149779349565506,0.07476912438869476,0.10089210420846939,0.21432766318321228,-0.08819226920604706,0.0694439560174942,0.050578560680150986,0.10182494670152664,-0.06598890572786331,0.17931774258613586,-0.1283707171678543,0.018236134201288223,0.39479270577430725,-0.0781683474779129,0.10127289593219757,0.2589452862739563,-0.07596927881240845,-0.26618483662605286,0.19747255742549896,0.030071860179305077,-0.136068195104599,0.14387667179107666,0.052334100008010864,0.24893932044506073,-0.2470811903476715,-0.2327127307653427,-0.2698099613189697,0.0010400143219158053,-0.26314017176628113,0.2742021083831787,0.059210967272520065,-0.11153527349233627,-0.068051278591156,-0.037391018122434616,0.29251670837402344,0.09968987852334976,0.035570498555898666,0.14168672263622284,-0.6479736566543579,-0.25729724764823914,0.02380668930709362,0.32948440313339233,0.06403211504220963
paralytic shellfish poisoning,-0.15801621973514557,-0.2910178303718567,0.2578257918357849,0.04161464795470238,-0.003476419486105442,-0.16573466360569,-0.015208984725177288,-0.08131803572177887,-0.12312518805265427,0.17195884883403778,0.07922393828630447,0.09323898702859879,-0.11201976239681244,-0.1331380307674408,-0.10069312900304794,-0.22021235525608063,0.12393487244844437,0.09009170532226562,-0.1359107345342636,0.20135857164859772,0.2773623466491699,-0.3446778357028961,-0.262020468711853,0.1256149560213089,0.36878904700279236,0.07004532217979431,0.28182101249694824,-0.08971937000751495,-0.12464538216590881,-0.035452019423246384,-0.054921362549066544,-0.16410179436206818,-0.15750643610954285,-0.02594001591205597,0.006265018600970507,0.3340597152709961,0.10431837290525436,0.03500797227025032,-0.2254873514175415,-0.048139721155166626,-0.13251131772994995,0.08117862790822983,0.21807695925235748,-0.1837015300989151,-0.08923839032649994,0.4445689916610718,0.04702458530664444,-0.055844563990831375,-0.3336694538593292,-0.01611204259097576,0.09175007045269012,0.20962733030319214,-0.061801351606845856,0.032519541680812836,0.05417013168334961,-0.012841210700571537,0.1464492678642273,0.01395822037011385,0.1066310927271843,-0.3273336589336395,-0.24181853234767914,0.19165746867656708,0.20528024435043335,-0.016452793031930923
alexandrium tamarense,-0.025453897193074226,-0.123759925365448,0.06062181666493416,-0.08687061816453934,0.16376879811286926,-0.16893388330936432,0.11426795274019241,0.06126220151782036,-0.39803367853164673,0.28653955459594727,0.05972661077976227,-0.040132295340299606,-0.055193208158016205,-0.21589575707912445,-0.4176349639892578,0.2349768579006195,-0.04683755710721016,0.40994343161582947,0.26153436303138733,0.2279835045337677,0.5212531685829163,-0.24625973403453827,-0.3145228922367096,-0.41533607244491577,0.12318632006645203,-0.08580091595649719,0.01777159608900547,0.008206812664866447,-0.06270533055067062,-0.11541447043418884,0.03159189224243164,0.005688806995749474,0.16945131123065948,0.07834146916866302,0.10868509858846664,-0.08318449556827545,0.28473716974258423,0.38645967841148376,-0.03513707220554352,-0.09739606082439423,0.07339444011449814,0.1843966692686081,-0.05673781409859657,-0.08266521245241165,-0.13353660702705383,0.19227205216884613,0.32593318819999695,0.1571829468011856,-0.38936230540275574,-0.27185875177383423,0.21728232502937317,-0.04059182107448578,-0.16025912761688232,-0.007759710308164358,-0.04252799600362778,9.46113868849352e-05,-0.15473021566867828,-0.019243597984313965,0.2795797288417816,0.08047482371330261,-0.2770531475543976,0.006712455302476883,0.04649471491575241,-0.10258730500936508
alexandrium catenella,-0.10170229524374008,-0.27064067125320435,0.0961877778172493,0.04760080575942993,-0.13164371252059937,-0.20742227137088776,-0.2754640579223633,0.17399026453495026,-0.16098745167255402,0.18217912316322327,0.005256364122033119,0.1704237163066864,0.03917605057358742,-0.2357281744480133,0.12452302128076553,0.04645445942878723,-0.14135663211345673,0.3762210011482239,-0.08394994586706161,-0.015924163162708282,0.28671795129776,0.11568773537874222,-0.2727694809436798,0.06536119431257248,0.24379360675811768,-0.2250690907239914,-0.3833739161491394,-0.05534301698207855,0.00460714939981699,0.01252808142453432,-0.30930477380752563,0.13337717950344086,-0.13398578763008118,-0.14856624603271484,0.1140933707356453,0.045740533620119095,-0.13833877444267273,0.2447502315044403,-0.30075928568840027,0.04906586557626724,-0.31593942642211914,0.3245571553707123,0.28820034861564636,0.38128241896629333,-0.048746295273303986,0.15020471811294556,-0.027914604172110558,0.19070293009281158,-0.1377209722995758,-0.3213178813457489,0.3061414957046509,-0.18398675322532654,0.16083668172359467,0.12667123973369598,-0.23966027796268463,-0.13536576926708221,-0.008283537812530994,-0.10427693277597427,0.0504193939268589,-0.11838535964488983,0.10779018700122833,0.11657068133354187,-0.11247987300157547,-0.08039356768131256
saxitoxin biosynthesis,-0.09367769956588745,0.006268305238336325,0.4629060924053192,-0.27674055099487305,0.07520519196987152,-0.12966443598270416,-0.32478877902030945,0.41078782081604004,-0.16966184973716736,-0.02111087180674076,-0.3375706374645233,0.1511857956647873,-0.36011767387390137,-0.3457074463367462,0.019327258691191673,-0.2642340660095215,0.05215522646903992,0.2221788465976715,0.07583994418382645,-0.08648968487977982,0.06845405697822571,-0.10122749954462051,-0.08307638019323349,0.1115717887878418,0.09196136891841888,-0.2679770290851593,0.14293400943279266,0.10510865598917007,-0.08153217285871506,-0.4493061602115631,-0.2561241686344147,-0.19149403274059296,0.052479349076747894,-0.01488135103136301,0.10269146412611008,0.02875683829188347,0.3850155472755432,-0.23721449077129364,0.08523108065128326,0.01574375480413437,-0.1573161780834198,0.0013059527846053243,0.2138194590806961,0.2516452670097351,-0.07650916278362274,0.12439996004104614,0.03289182484149933,0.03859347477555275,-0.012778612785041332,0.016317181289196014,0.42511337995529175,0.056639932096004486,0.14037777483463287,0.1826796978712082,-0.24561472237110138,-0.3769884407520294,-0.02505049668252468,-0.0651060938835144,0.17547722160816193,-0.28394967317581177,-0.015067015774548054,0.08729340136051178,-0.10370989888906479,-0.03726888447999954
gymnodinium,0.16729412972927094,-0.43414998054504395,0.31006523966789246,-0.08510532230138779,-0.014067312702536583,-0.2614856958389282,-0.16196025907993317,0.013915127143263817,-0.2978369891643524,-0.10153552144765854,-0.0765257403254509,-0.07700007408857346,0.05036088079214096,0.02672504261136055,-0.22837261855602264,-0.16786181926727295,-0.14151988923549652,0.5561286807060242,0.05574556067585945,0.00978784542530775,0.09524774551391602,0.23980791866779327,0.07069540023803711,0.048979733139276505,0.25694796442985535,0.04751932621002197,-0.017693735659122467,0.05929750204086304,0.06639997661113739,-0.09992927312850952,0.10525492578744888,-0.13182877004146576,-0.08909104019403458,0.16002506017684937,-0.14794550836086273,0.241053968667984,0.18452872335910797,-0.058674152940511703,-0.2776476740837097,0.2672675848007202,-0.1620240956544876,-0.1086350753903389,0.06938713788986206,0.08935610204935074,0.32516273856163025,-0.06930027902126312,-0.2413840889930725,-0.3286409378051758,-0.005961318966001272,-0.016886359080672264,0.08256625384092331,0.10772482305765152,-0.0452943816781044,-0.04120875149965286,-0.011372656561434269,0.24722227454185486,0.0923842191696167,0.044498197734355927,0.04471590742468834,-0.5016192197799683,-0.18059270083904266,-0.008669918403029442,0.3331966698169708,0.05176326259970665
biosynthesis,-0.13399507105350494,0.04057346284389496,0.5449031591415405,-0.2997337579727173,0.06746258586645126,-0.1643824726343155,-0.2710995078086853,0.17781931161880493,-0.07089877128601074,-0.07137409597635269,-0.07181177288293839,0.044170912355184555,-0.37925371527671814,-0.17539699375629425,0.031377773731946945,-0.14515447616577148,0.16132457554340363,0.1487271636724472,0.20107248425483704,0.07240739464759827,0.100799061357975,0.27426230907440186,-0.2367660403251648,-0.10339713841676712,0.16624365746974945,-0.2987154722213745,-0.08557146042585373,0.22213053703308105,0.029937855899333954,-0.2571660876274109,-0.08438117057085037,-0.14243385195732117,0.20537562668323517,-0.09601573646068573,0.24774502217769623,0.04887300357222557,0.36888423562049866,-0.278938353061676,0.030276840552687645,0.02113082818686962,-0.10547652840614319,0.09598570317029953,0.31877055764198303,0.28433534502983093,0.027777446433901787,0.11235365271568298,-0.06757261604070663,0.04387442767620087,-0.028410544618964195,-0.12511876225471497,0.3530121445655823,0.12130246311426163,0.2516371011734009,0.3336857855319977,-0.15547522902488708,-0.3317357003688812,0.031055700033903122,-0.09212728589773178,-0.12394200265407562,-0.2718966603279114,0.03959423303604126,0.20104829967021942,-0.07833238691091537,-0.16082334518432617
alexandrium minutum,-0.3516935706138611,-0.11794162541627884,0.4011828899383545,-0.19140781462192535,0.36918023228645325,0.05859597399830818,-0.09635504335165024,-0.10546506941318512,0.13346052169799805,0.2564283013343811,-0.017949597910046577,-0.044284045696258545,0.18874678015708923,0.009944887831807137,-0.1306503862142563,-0.08917846530675888,-0.3332705497741699,-0.020626399666070938,-0.11667048931121826,0.009148058481514454,0.06259123235940933,0.04730650782585144,-0.37794265151023865,0.07268831133842468,0.16143298149108887,0.0677262619137764,0.17277668416500092,-0.026335831731557846,-0.1447792798280716,0.37544602155685425,-0.180889293551445,-0.17876827716827393,-0.19509543478488922,0.1909559965133667,0.09638138115406036,0.21250376105308533,0.27484869956970215,-0.041886042803525925,-0.022425584495067596,-0.09785781055688858,0.0517447330057621,0.2592546045780182,0.17099587619304657,0.38332897424697876,-0.405690461397171,0.36499089002609253,0.2847912907600403,-0.14761792123317719,-0.0589466467499733,-0.1560986042022705,0.3290838897228241,0.2746744155883789,0.13114243745803833,-0.04134147986769676,-0.22766810655593872,-0.059515487402677536,-0.02697676606476307,0.18213652074337006,-0.10173043608665466,-0.20739933848381042,-0.29987430572509766,0.06014450639486313,0.0951012372970581,0.12974944710731506
toxin content,-0.06140321493148804,0.12992820143699646,0.2799438536167145,-0.16990455985069275,-0.12171973288059235,-0.12200102210044861,0.1307569146156311,-0.0345192551612854,-0.35325679183006287,0.6134388446807861,-0.14561358094215393,-0.0669417753815651,0.003736373269930482,-0.20083855092525482,-0.03255763649940491,0.0546407513320446,-0.010607687756419182,0.5869127511978149,-0.0067117237485945225,0.2782689034938812,-0.05884058400988579,0.18365678191184998,-0.08452261984348297,-0.16356128454208374,0.16374161839485168,0.07197245210409164,0.10967894643545151,-0.2612611651420593,-0.3028644323348999,0.1899968683719635,-0.2871377468109131,-0.19401539862155914,0.3881956934928894,0.014315325766801834,0.29184576869010925,0.04457848146557808,0.3101523816585541,0.05794692412018776,-0.04077669978141785,0.014870638027787209,-0.3429146111011505,0.14520996809005737,-0.18182122707366943,0.2050812989473343,0.1660909652709961,0.24781149625778198,-0.20007605850696564,-0.05198521167039871,-0.08533788472414017,-0.502755880355835,-0.16817781329154968,-0.11836567521095276,-0.16512267291545868,-0.08811266720294952,0.1577785462141037,0.10101241618394852,-0.1465197503566742,-0.36753347516059875,-0.2856040894985199,0.09593310952186584,-0.045180726796388626,0.16161637008190155,-0.023964693769812584,0.1187238022685051
toxin composition,-0.09348321706056595,-0.295931339263916,0.02463690936565399,0.3028610944747925,0.1179058775305748,-0.09626562893390656,0.12815295159816742,0.03792548179626465,-0.2000819593667984,-0.024068109691143036,-0.10579671710729599,-0.11778149008750916,0.15620338916778564,-0.20148907601833344,-0.09307132661342621,0.20656368136405945,-0.2842673361301422,0.45016175508499146,0.1217033714056015,-0.03749516233801842,0.013811004348099232,0.0286074411123991,-0.31480520963668823,-0.19951942563056946,0.06717275828123093,0.0007517579942941666,-0.2236095368862152,-0.11556893587112427,-0.2977810800075531,-0.013591388240456581,0.007430061232298613,-0.20051035284996033,0.18342077732086182,-0.10223961621522903,-0.20390403270721436,0.31692421436309814,0.20272178947925568,0.16066230833530426,-0.31727859377861023,-0.16220256686210632,-0.29755303263664246,0.06859441846609116,-0.18972548842430115,0.19299791753292084,0.07403040677309036,-0.030265778303146362,-0.28615880012512207,0.16218459606170654,-0.1860211044549942,-0.41199323534965515,0.16555649042129517,0.3677360713481903,-0.39520278573036194,-0.16076132655143738,-0.2140447050333023,-0.2837507426738739,0.1253724992275238,-0.1789216548204422,-0.3870396018028259,-0.00823231041431427,-0.06919782608747482,-0.08553918451070786,0.18685711920261383,-0.029631271958351135
alexandrium pacificum,-0.12071472406387329,-0.300096720457077,0.44372081756591797,-0.0711480900645256,0.034287229180336,-0.43496692180633545,-0.2425091415643692,0.07904161512851715,-0.0019920305348932743,-0.047660328447818756,0.06062590330839157,-0.0019274145597591996,-0.14747774600982666,-0.2972949147224426,-0.428554892539978,0.14561811089515686,0.15452566742897034,0.45812517404556274,-0.19976365566253662,-0.0002349618007428944,0.18755623698234558,-0.14563511312007904,0.023472020402550697,-0.32001394033432007,-0.12919260561466217,-0.15807895362377167,-0.046461157500743866,-0.24728277325630188,0.1192702129483223,-0.2995355725288391,0.11137936264276505,-0.06348051875829697,0.12871940433979034,-0.22443197667598724,0.0035707144998013973,-0.02209756150841713,0.40839657187461853,0.048209913074970245,0.0594792366027832,-0.0011760826455429196,0.1710394024848938,0.3446809649467468,0.030486343428492546,0.02454957738518715,-0.11064966022968292,0.3055199384689331,0.05981680750846863,-0.06940243393182755,-0.03958673030138016,-0.014357396401464939,0.043306026607751846,-0.05468059703707695,0.11906465888023376,0.0794496014714241,-0.35601526498794556,-0.2790246903896332,0.030691711232066154,-0.1498865932226181,-0.16042979061603546,-0.12441006302833557,0.2953042984008789,-0.1694348305463791,0.02370908483862877,0.21245113015174866
sxta,-0.01198478601872921,-0.11999309062957764,0.3911139965057373,0.03915315121412277,0.43393510580062866,-0.22448590397834778,-0.22028848528862,0.18659713864326477,0.007126839365810156,0.026660561561584473,-0.05874951183795929,-0.01580755226314068,-0.29507914185523987,-0.2371511608362198,-0.4033207893371582,-0.07367610186338425,-0.08395567536354065,0.3223738968372345,-0.21983040869235992,0.22634993493556976,0.06801099330186844,0.11865915358066559,-0.005634288769215345,0.08386684954166412,0.24767035245895386,-0.07325224578380585,0.1080230176448822,-0.09472708404064178,0.12754902243614197,-0.1250080019235611,0.15003465116024017,-0.16038599610328674,0.10607076436281204,0.09055604785680771,0.224886953830719,0.19026045501232147,0.031319666653871536,-0.4829363524913788,0.15438230335712433,0.01902097649872303,-0.13539297878742218,-0.22397126257419586,0.40960514545440674,0.19490431249141693,-0.12234565615653992,0.3130882978439331,0.30175817012786865,0.1974809765815735,-0.08597154170274734,-0.10382826626300812,0.21923570334911346,0.07436098158359528,-0.0065532345324754715,0.21016496419906616,-0.45053234696388245,-0.15756934881210327,-0.0356953926384449,-0.15744134783744812,-0.0050187180750072,0.0009733685292303562,0.12772908806800842,0.19495177268981934,0.16076189279556274,0.23041751980781555
temperature,-0.24412795901298523,-0.539767861366272,0.23732051253318787,-0.23094598948955536,-0.04984481632709503,0.14429871737957,-0.15491579473018646,-0.19250620901584625,-0.29155027866363525,0.4227372407913208,-0.22917184233665466,0.08286849409341812,-0.04816213250160217,-0.1346416473388672,-0.196382075548172,-0.4113561511039734,0.03786442056298256,0.3772151470184326,0.14351223409175873,0.31911638379096985,0.22141322493553162,0.11451511085033417,0.0775921493768692,-0.23915116488933563,0.010535124689340591,0.10243694484233856,0.01939687505364418,-0.16522236168384552,-0.063102126121521,0.34710049629211426,-0.23547083139419556,0.03466905280947685,-0.33810731768608093,-0.0791449099779129,0.046261049807071686,-0.14358213543891907,0.2178029865026474,0.14425665140151978,-0.16773556172847748,-0.31528547406196594,-0.17784786224365234,0.10342489928007126,0.07458189874887466,0.021750634536147118,0.05226755887269974,0.2564997375011444,-0.14803281426429749,-0.09278958290815353,0.0624053068459034,-0.3695085346698761,0.2658393085002899,-0.01452257763594389,-0.17772942781448364,-0.0933564156293869,0.19115275144577026,0.16087894141674042,-0.04574090987443924,-0.18399985134601593,-0.17216090857982635,0.07191315293312073,0.025656364858150482,0.05354919657111168,-0.2682047486305237,0.1345343440771103
cyanobacteria,-0.19912871718406677,0.21244680881500244,0.16608926653862,-0.29679664969444275,-0.18613523244857788,0.09189964085817337,-0.08541359752416611,-0.2804613411426544,0.02482702024281025,-0.048667121678590775,0.3094024360179901,0.14420874416828156,-0.4895109534263611,-0.12080664187669754,-0.41646862030029297,-0.0005289606633596122,0.34644556045532227,0.26223039627075195,0.002559005981311202,0.027347130700945854,0.07713568210601807,0.14037680625915527,-0.412718802690506,-0.2285725474357605,0.1508069783449173,0.1548549383878708,-0.2174375206232071,-0.21391691267490387,0.17119069397449493,0.015285525470972061,-0.06515317410230637,-0.008687286637723446,0.1385524570941925,-0.047436900436878204,-0.15640829503536224,0.1689118891954422,0.34106865525245667,-0.3707488179206848,-0.03281357139348984,-0.12099217623472214,-0.1982484757900238,-0.020524099469184875,0.3277730643749237,0.21625106036663055,-0.04519454389810562,0.4435044825077057,0.17961522936820984,-0.19807879626750946,0.08583488315343857,0.02953321859240532,0.3719736635684967,0.1856629103422165,0.16445274651050568,0.30175086855888367,-0.6039392352104187,-0.1457999348640442,0.3350105881690979,-0.003235412761569023,0.06630804389715195,-0.06265761703252792,-0.2055281698703766,0.35342732071876526,-0.014634368009865284,-0.49830883741378784
sxt genes,-0.025106940418481827,0.19531604647636414,0.5111120343208313,0.027729840949177742,0.05866675451397896,-0.05941661074757576,-0.3768772482872009,0.2004939615726471,-0.1614171862602234,0.11262576282024384,0.02847948670387268,-0.1439732164144516,-0.270307332277298,-0.27901002764701843,-0.29043036699295044,-0.28772997856140137,-0.21886493265628815,0.10386128723621368,0.05034082755446434,0.024435168132185936,0.13957929611206055,-0.18570511043071747,-0.01590806059539318,0.1561158150434494,0.5586931109428406,0.03535298630595207,-0.10052548348903656,0.05376987159252167,-0.10659057646989822,-0.04888250306248665,0.47380703687667847,0.05128917098045349,0.015781840309500694,-0.007729094009846449,0.14501692354679108,0.08820310235023499,0.5257214903831482,-0.13005809485912323,-0.18353872001171112,0.32221153378486633,-0.1872810572385788,-0.16429373621940613,0.1612640917301178,0.03787659481167793,0.21822834014892578,0.3322720229625702,0.09226147830486298,-0.08853328973054886,0.22251713275909424,0.011140749789774418,0.020387904718518257,-0.17742523550987244,-0.014525128528475761,0.16145242750644684,-0.5731854438781738,0.018113136291503906,0.1941567212343216,-0.12950827181339264,-0.00647397805005312,0.06714814901351929,0.03215319663286209,0.20365028083324432,-0.18090103566646576,0.07420122623443604
nitrogen,-0.1121644601225853,-0.18293684720993042,0.007553780917078257,0.043623872101306915,0.15348617732524872,-0.16690894961357117,0.4226992428302765,-0.21373873949050903,-0.15436355769634247,0.3107883930206299,-0.13807843625545502,0.48959195613861084,-0.2517041563987732,-0.3601562976837158,-0.06160982325673103,-0.23251275718212128,-0.11875997483730316,0.18078313767910004,0.02628372423350811,-0.02527313306927681,0.062141332775354385,-0.25579485297203064,-0.511573076248169,-0.13149236142635345,0.35875651240348816,0.3343369960784912,-0.0332939513027668,-0.12139052152633667,-0.2637632191181183,0.024708691984415054,-0.11107664555311203,-0.07022657245397568,-0.2608868181705475,0.2047867476940155,0.2447137087583542,-0.2697925865650177,0.3207915127277374,0.02588246762752533,0.028687236830592155,0.05456191301345825,0.01393840741366148,0.26491162180900574,-0.12102873623371124,0.10583974421024323,0.018559884279966354,-0.11396139115095139,-0.27707982063293457,0.16721655428409576,0.26089149713516235,-0.1730315238237381,0.3324478566646576,0.3114902079105377,-0.1284945011138916,0.06386613100767136,-0.17583157122135162,-0.007323413155972958,0.061759766191244125,-0.2559838891029358,-0.274855375289917,-0.11266929656267166,-0.21921496093273163,0.15109550952911377,0.026768088340759277,0.4007665514945984
alexandrium fundyense,-0.18815939128398895,-0.015321485698223114,0.013709614053368568,-0.08336474746465683,0.38546791672706604,-0.00136873300652951,-0.1792895346879959,0.27127376198768616,-0.07808519154787064,0.1574261635541916,-0.32833147048950195,0.23159782588481903,-0.06468693166971207,0.034510936588048935,-0.036303866654634476,0.2865874469280243,-0.16831515729427338,0.287224143743515,0.21712170541286469,0.29426154494285583,0.43145838379859924,-0.128562793135643,-0.36533138155937195,-0.14198178052902222,0.15140624344348907,0.23464344441890717,-0.2797117829322815,-0.6638826727867126,-0.06073448807001114,0.020060032606124878,-0.2890544533729553,0.07610783725976944,0.13757358491420746,0.024053793400526047,0.18336376547813416,-0.033501144498586655,0.027933305129408836,-0.18776150047779083,0.21598027646541595,0.23378205299377441,-0.06535676121711731,0.07822881639003754,0.019983388483524323,0.11766146123409271,-0.05623074993491173,0.10345517843961716,0.163736954331398,-0.5033255815505981,-0.14154599606990814,-0.23268863558769226,0.07703003287315369,0.045919086784124374,-0.24604432284832,0.09325917810201645,-0.37799394130706787,0.03128800168633461,0.47359544038772583,-0.13250912725925446,-0.22744235396385193,-0.4642854332923889,0.07013499736785889,0.04037362337112427,0.2043646275997162,0.22140653431415558
toxic dinoflagellate,0.028255870565772057,-0.2735302150249481,0.21071188151836395,0.16366200149059296,0.167460098862648,-0.10990294814109802,0.08373312652111053,-0.06337720155715942,-0.26820236444473267,0.06463753432035446,-0.06314894556999207,0.21579499542713165,-0.1219562441110611,-0.19559969007968903,-0.1468251496553421,-0.20479772984981537,0.2229110300540924,0.2726972997188568,-0.028321193531155586,0.24455372989177704,0.12310599535703659,-0.05363176390528679,-0.0628056526184082,-0.19440779089927673,0.26834312081336975,-0.40650302171707153,-0.017541779205203056,0.03996014967560768,-0.1187116727232933,0.4130249619483948,-0.024808254092931747,0.2605592906475067,-0.10526945441961288,-0.23655761778354645,0.058429356664419174,0.19584979116916656,0.004026650916785002,0.3817407190799713,0.11689525097608566,-0.25355246663093567,-0.19884715974330902,-0.10754093527793884,0.15780337154865265,0.3243071138858795,-0.07926183193922043,0.17875702679157257,0.23997199535369873,-0.09627504646778107,0.16672220826148987,-0.7536047101020813,0.2797324061393738,0.170835480093956,-0.0444047674536705,0.1408732384443283,-0.021667910739779472,-0.012542134150862694,0.34485042095184326,0.3683197796344757,-0.24884605407714844,0.22349587082862854,-0.24863241612911224,-0.1440993994474411,-0.06088891252875328,-0.018428171053528786
gonyautoxins,0.060892436653375626,0.026955490931868553,0.1977735012769699,-0.04221026971936226,0.1141277328133583,-0.0664619728922844,0.12087105959653854,-0.04831516742706299,-0.3420937955379486,0.03828265517950058,0.04645874723792076,0.0988769456744194,0.09342441707849503,-0.06273169815540314,-0.06681941449642181,-0.1549377739429474,-0.22097668051719666,0.5788645148277283,0.15588782727718353,0.08464071154594421,0.025721734389662743,-0.054716747254133224,-0.07696963101625443,-0.3035166263580322,0.22293610870838165,0.1773967742919922,0.0017072291811928153,-0.190931037068367,-0.1835138499736786,0.06795788556337357,-0.12103026360273361,0.010451113805174828,-0.07623287290334702,-0.03918405994772911,0.14951416850090027,0.3553910553455353,0.06184259057044983,0.1776401400566101,-0.21225252747535706,-0.1926509588956833,-0.08606269955635071,0.11131303757429123,0.05478459596633911,0.3760644793510437,0.054729532450437546,0.00039271669811569154,-0.19970495998859406,0.06464938819408417,-0.2854554057121277,-0.534493088722229,0.10752904415130615,0.07106730341911316,-0.23951701819896698,0.002259098459035158,0.19055628776550293,0.024722225964069366,0.3704405725002289,-0.1328427642583847,0.008755818009376526,-0.12960782647132874,0.09877882152795792,-0.04704994335770607,0.13592995703220367,-0.17202690243721008
toxic dinoflagellate alexandrium,-0.0811084508895874,-0.14536726474761963,0.2716570496559143,0.04746182635426521,0.4226851165294647,-0.3789645731449127,-0.07521311193704605,0.11104080080986023,-0.2013876736164093,0.028991105034947395,0.18625156581401825,0.4161665737628937,-0.01722371205687523,-0.1477605104446411,0.02201201021671295,-0.30580323934555054,-0.04593785107135773,0.5523993968963623,0.008974690921604633,0.3067745864391327,0.25444069504737854,-0.059377070516347885,-0.00646591279655695,-0.08787108957767487,-0.0001553907641209662,-0.2867818772792816,-0.03709495812654495,-0.07176944613456726,-0.03918888419866562,0.33218914270401,-0.10288625210523605,-0.008278794586658478,-0.23793227970600128,-0.17191514372825623,-0.058279115706682205,-0.011212952435016632,0.031724244356155396,0.5221207141876221,-0.08583274483680725,-0.2568295896053314,0.0774611383676529,0.05462903529405594,0.21955756843090057,0.27479761838912964,-0.2766144573688507,0.09566744416952133,-0.0828593373298645,0.00632042670622468,0.03844929859042168,-0.551202654838562,0.018394099548459053,0.3256901800632477,0.043944135308265686,-0.04603080078959465,0.042673926800489426,0.09318377077579498,0.5187857151031494,0.1113484799861908,0.1035124659538269,0.09200409054756165,-0.06850708276033401,0.3364960551261902,-0.14753882586956024,0.02501792088150978
pyrodinium bahamense,0.02678650990128517,-0.35864555835723877,0.5177491307258606,-0.2690975069999695,-0.3505977392196655,0.06235567480325699,-0.2111949622631073,0.12882979214191437,-0.3629172742366791,0.030681472271680832,-0.16093336045742035,-0.013203092850744724,-0.3395034670829773,0.16092421114444733,-0.06912201642990112,-0.37361547350883484,-0.028856372460722923,0.3545302450656891,0.18882489204406738,0.2645154893398285,0.20984533429145813,0.19800257682800293,-0.252270370721817,0.3223741054534912,0.060709718614816666,-0.1780763417482376,0.07721327990293503,0.2218148112297058,0.011578035540878773,0.07572761178016663,-0.050922393798828125,-0.20084673166275024,-0.05175935849547386,-0.19098779559135437,-0.3174547553062439,0.36612623929977417,0.22760756313800812,0.15010449290275574,0.007529758382588625,-0.06242988258600235,-0.03438554331660271,-0.3244965672492981,-0.16638509929180145,0.29308679699897766,0.1184706836938858,0.23373165726661682,-0.00031559166382066905,-0.1174108237028122,0.29343080520629883,-0.06132151558995247,0.14695237576961517,-0.12713296711444855,-0.3689285218715668,0.027411388233304024,-0.6443232297897339,0.20707134902477264,-0.013503092341125011,0.07289494574069977,0.07485770434141159,-0.023968931287527084,0.0495833158493042,0.07829391211271286,0.047115471214056015,0.7465299963951111
pyrodinium,-0.17304721474647522,-0.2851749658584595,0.21090292930603027,-0.4061495363712311,-0.05199999734759331,0.10983683913946152,-0.10433651506900787,0.08638002723455429,-0.36149683594703674,0.036502085626125336,-0.12346755713224411,-0.07485605776309967,-0.4123855531215668,0.18253165483474731,-0.18251606822013855,-0.14119333028793335,-0.2782056927680969,0.5067450404167175,-0.21255022287368774,0.3313866853713989,0.21013030409812927,0.24113339185714722,-0.3149411380290985,0.34732040762901306,-0.10465449839830399,-0.2665892541408539,0.17797978222370148,0.2506985664367676,0.15272556245326996,0.18920820951461792,-0.20921090245246887,-0.2335224151611328,-0.04188494756817818,0.0274165291339159,-0.11468258500099182,0.21595582365989685,-0.08379830420017242,-0.060536544770002365,0.1640455573797226,-0.02267001010477543,-0.13795243203639984,-0.5553345084190369,-0.01606900990009308,0.21768398582935333,0.11173044890165329,0.4829505383968353,0.24826109409332275,0.14741598069667816,0.1727169156074524,-0.2804155647754669,0.10653971135616302,0.06340480595827103,-0.2286984771490097,0.02094348706305027,-0.6650087833404541,0.22616419196128845,0.029313769191503525,0.20851486921310425,-0.27869996428489685,-0.17556267976760864,0.26510217785835266,0.06747372448444366,0.2066270411014557,0.5064210891723633
producing dinoflagellates,0.018137702718377113,0.07126282900571823,0.3097737431526184,-0.011934611015021801,-0.05537128075957298,0.2796584963798523,-0.11683211475610733,0.38203856348991394,-0.14244017004966736,0.0314292348921299,-0.14974428713321686,-0.1963224709033966,-0.187563955783844,0.07169627398252487,-0.29970595240592957,-0.2304021418094635,-0.13976721465587616,0.32741016149520874,-0.15010924637317657,0.10636619478464127,-0.057440876960754395,-0.47829896211624146,-0.3854605555534363,0.1709306538105011,0.2542722523212433,-0.0014762477949261665,0.1475592851638794,-0.14885693788528442,-0.06821303814649582,-0.15151280164718628,0.01376510038971901,0.35635414719581604,0.08174295723438263,-0.17396387457847595,0.2276637852191925,-0.0885959267616272,0.19196011126041412,0.09755323082208633,-0.009968949481844902,-0.10075251758098602,-0.10519418120384216,-0.2339254468679428,-0.019358284771442413,0.4531558156013489,0.08364026993513107,-0.12682954967021942,-0.1284281462430954,0.1673436313867569,-0.1755090355873108,-0.15097308158874512,0.15649956464767456,-0.1925915628671646,-0.08567668497562408,-0.01926853507757187,-0.4640258848667145,-0.06152498722076416,0.1742476224899292,-0.3322686553001404,-0.10163920372724533,-0.09801200777292252,-0.01585225574672222,0.11529024690389633,0.3614146411418915,0.011753471568226814
alexandrium spp,-0.18865935504436493,0.01582084782421589,0.04324532672762871,-0.18159696459770203,0.015550843439996243,-0.0880003422498703,-0.0984836220741272,0.03360328450798988,-0.18874631822109222,0.12492665648460388,-0.1978529989719391,-0.03490447998046875,0.019576145336031914,-0.13876239955425262,-0.10435385257005692,-0.15095654129981995,-0.34668466448783875,0.3483092188835144,-0.14266164600849152,0.29405471682548523,-0.03254886716604233,-0.0817955955862999,-0.24663551151752472,-0.10439726710319519,0.17671716213226318,-0.06645870208740234,0.029692474752664566,-0.062238581478595734,-0.09329455345869064,-0.01087634451687336,0.00406841654330492,-0.10073310881853104,-0.2897380292415619,0.10260314494371414,0.06063670665025711,0.14502514898777008,-0.04044831171631813,0.012594382278621197,0.4392814040184021,-0.050400473177433014,0.1121143326163292,0.10762722045183182,0.2809024155139923,0.2820449471473694,0.12074556201696396,0.3369671106338501,0.04695684835314751,-0.06770339608192444,-0.08146563172340393,-0.256109356880188,0.0920427069067955,-0.04941938817501068,0.4677256643772125,-0.30036842823028564,-0.15866343677043915,-0.13014130294322968,0.27504491806030273,-0.20405109226703644,-0.13008081912994385,0.044617097824811935,-0.23609034717082977,0.3843742609024048,0.1242513358592987,0.27805835008621216
genus alexandrium,-0.19208572804927826,0.016058888286352158,0.4119279682636261,0.15255247056484222,0.2446710169315338,0.3916322886943817,-0.03754235804080963,0.10802039504051208,0.0468885563313961,0.20483316481113434,-0.13512346148490906,0.1737498939037323,0.0005914074135944247,0.2524004578590393,-0.5249729156494141,-0.20823192596435547,0.13544200360774994,0.6882848739624023,-0.19189570844173431,-0.466610312461853,0.05132715404033661,0.09383653104305267,0.15113455057144165,0.02526916190981865,0.1849781721830368,-0.10408633202314377,-0.15240412950515747,0.22988583147525787,-0.27946415543556213,-0.36287903785705566,-0.048144787549972534,0.06886186450719833,-0.05471162497997284,-0.08257758617401123,0.11233637481927872,0.0002910340263042599,-0.06794491410255432,0.2276163101196289,-0.07909155637025833,0.19894231855869293,-0.22397734224796295,-0.017485830932855606,-0.07316731661558151,0.006159740034490824,0.07092008739709854,0.39957964420318604,0.011850777082145214,0.3631467819213867,-0.4659358561038971,-0.16325432062149048,0.19899877905845642,-0.2085542529821396,-0.07576384395360947,-0.0021665836684405804,-0.20465441048145294,0.12465842068195343,0.2560387849807739,0.04281022772192955,-0.12429018318653107,0.010829383507370949,-0.20257152616977692,0.3265339434146881,0.09897393733263016,0.01351943425834179
stx biosynthesis genes,-0.30600622296333313,-0.07293064892292023,0.28654980659484863,0.24321460723876953,0.07030310481786728,-0.26121124625205994,-0.7154985070228577,0.3442995846271515,0.045203741639852524,0.04787240922451019,-0.03271272033452988,-0.02990441583096981,-0.24540570378303528,-0.22428414225578308,-0.19192783534526825,-0.09620271623134613,-0.21620860695838928,0.4092682898044586,0.13823950290679932,-0.050789106637239456,0.008396361954510212,0.05202324315905571,-0.18239659070968628,0.14445771276950836,0.11308717727661133,-0.20232920348644257,-0.3889084458351135,-0.0909985825419426,0.09359846264123917,-0.3299621641635895,-0.4615972638130188,-0.160384863615036,0.16943900287151337,-0.1930154263973236,0.2520657777786255,-0.13983450829982758,0.302475243806839,-0.0877121090888977,-0.05154193565249443,0.10845045000314713,-0.0847288966178894,0.09988710284233093,0.1447022259235382,0.13934455811977386,-0.263310968875885,0.4473702609539032,-0.13839228451251984,0.1014445498585701,0.030688440427184105,-0.21949248015880585,0.050638843327760696,0.050912048667669296,0.26961225271224976,0.38984474539756775,0.05375194922089577,0.0443141907453537,0.466010183095932,0.3034842908382416,-0.08128270506858826,-0.14143167436122894,0.200945645570755,0.10127653181552887,0.0049186162650585175,0.42380285263061523
sxtg,-0.09441837668418884,0.010511337779462337,0.34695887565612793,-0.07547403872013092,0.04367606341838837,0.05191798880696297,-0.30138710141181946,0.22161395847797394,0.12858298420906067,-0.032108791172504425,-0.009199189953505993,-0.04206237941980362,-0.13280551135540009,-0.2453555315732956,-0.34402844309806824,-0.12747715413570404,-0.08964268118143082,0.1946018785238266,0.037223633378744125,0.14509932696819305,0.0012065904447808862,-0.3167247176170349,0.10525922477245331,0.1570901721715927,0.4601602554321289,0.0783880427479744,-0.01657022163271904,-0.060222215950489044,0.0118009764701128,0.02697765827178955,0.09913225471973419,0.2334517538547516,0.25927481055259705,0.23593904078006744,0.20126308500766754,-0.0017568804323673248,0.5030636191368103,-0.18291021883487701,-0.36027270555496216,-0.09408660233020782,-0.09782183915376663,-0.2788923680782318,0.22850768268108368,0.044731877744197845,0.07002919167280197,0.15776051580905914,-0.012516654096543789,0.16660526394844055,0.10638120770454407,-0.04046827554702759,0.2449633777141571,0.16883647441864014,0.05964627116918564,0.10142005234956741,-0.5897061824798584,-0.22980394959449768,0.04788415506482124,-0.1294533759355545,0.15781748294830322,-0.15572665631771088,-0.18479281663894653,0.36890286207199097,-0.10072662681341171,0.008073455654084682
dinoflagellate gymnodinium,0.158066987991333,-0.43091291189193726,0.14223439991474152,-0.14272120594978333,-0.06001739948987961,-0.2640398144721985,-0.14518581330776215,-0.27734923362731934,-0.11873407661914825,-0.10362548381090164,-0.2300398200750351,-0.38119804859161377,-0.2134152203798294,-0.2805425524711609,-0.15420950949192047,-0.2237263321876526,-0.33229848742485046,0.5833002328872681,-0.15546919405460358,0.058725614100694656,-0.10338366776704788,0.0454954169690609,0.011602766811847687,-0.1540897637605667,0.3663722276687622,0.04229395091533661,-0.23925195634365082,-0.03426075726747513,-0.2025984674692154,-0.26463380455970764,0.08979204297065735,-0.3448809087276459,-0.1408233344554901,0.26192355155944824,0.07174993306398392,0.37290748953819275,-0.14483514428138733,0.053178079426288605,-0.19286055862903595,-0.03328723832964897,-0.012684643268585205,-0.21196721494197845,0.03331870213150978,-0.043738771229982376,0.05159898102283478,-0.20490501821041107,-0.2906573712825775,-0.25188639760017395,-0.13218954205513,-0.2985011339187622,-0.0484950989484787,0.2703503966331482,-0.10465932637453079,-0.06676270067691803,-0.04725828021764755,0.19818729162216187,0.3292699158191681,0.08261403441429138,0.0605388842523098,-0.4459330439567566,-0.18443681299686432,0.06688197702169418,0.21679852902889252,-0.21022199094295502
gene expression,-0.38706278800964355,0.041837695986032486,0.42636746168136597,0.2062157690525055,0.304972380399704,-0.32777416706085205,-0.13858678936958313,0.0263130571693182,-0.015371241606771946,0.23526349663734436,0.043732576072216034,-0.10188101977109909,-0.14871996641159058,-0.14178723096847534,-0.2956962287425995,-0.32369670271873474,-0.16255022585391998,0.12037593126296997,-0.11083174496889114,0.19411568343639374,-0.1620769053697586,0.14429958164691925,-0.31516480445861816,-0.0012495382688939571,0.3780950605869293,-0.23698633909225464,-0.3262149393558502,0.24028782546520233,0.11655177921056747,-0.016977334395051003,-0.32982203364372253,0.1166568472981453,0.08896538615226746,-0.15694956481456757,0.4381314516067505,0.06797593086957932,0.08615898340940475,-0.18398204445838928,-0.36010444164276123,-0.09105998277664185,-0.05420883372426033,0.23287566006183624,-0.08506838977336884,0.223397359251976,-0.05780695378780365,0.28194621205329895,-0.02403855137526989,-0.1298375427722931,0.03124360367655754,-0.07716245204210281,0.16061259806156158,0.2588905692100525,0.21328747272491455,0.5155848264694214,-0.10075339674949646,-0.19286207854747772,-0.004871523939073086,-0.13343150913715363,0.2464062124490738,-0.15901783108711243,-0.2707132399082184,-0.10124137997627258,-0.014608080498874187,0.36069339513778687
dinoflagellate gymnodinium catenatum,0.08626068383455276,-0.3202466666698456,0.10508318990468979,-0.07134278863668442,-0.26564764976501465,-0.2713295519351959,-0.2352810800075531,-0.39890074729919434,-0.2808312177658081,-0.11826474219560623,-0.3063030540943146,-0.4329664707183838,-0.15655459463596344,-0.27183789014816284,-0.07901280373334885,-0.2736765146255493,-0.39310985803604126,0.6227461695671082,-0.12300091236829758,0.09110994637012482,0.06407538056373596,-0.010346761904656887,0.1143094152212143,-0.3009135127067566,0.4050525426864624,4.208661994198337e-05,-0.12213308364152908,0.08564607799053192,-0.2077048122882843,-0.3866851329803467,0.09051749855279922,-0.18761827051639557,-0.13795767724514008,0.03238571807742119,-0.0893598273396492,0.3135722875595093,-0.021140169352293015,0.1265750676393509,-0.23196591436862946,-0.09129181504249573,-0.09347105771303177,-0.0641719326376915,0.07156051695346832,-0.02136397175490856,0.04721728712320328,-0.0670664981007576,-0.347682386636734,-0.33179208636283875,-0.15576836466789246,-0.2011011391878128,-0.035647012293338776,0.11240940541028976,-0.15530765056610107,-0.08442569524049759,-0.055582404136657715,0.15239275991916656,0.2855576276779175,0.06775733083486557,0.051117897033691406,-0.365488737821579,-0.2743434011936188,-0.31490951776504517,0.10928583890199661,-0.23967622220516205
toxic alexandrium,-0.24483230710029602,-0.1200031042098999,0.4366489350795746,0.1196317970752716,-0.10362677276134491,0.2931336462497711,-0.07844408601522446,-0.10045408457517624,-0.12508878111839294,-0.036116719245910645,-0.11067300289869308,0.4832054674625397,0.4521027207374573,-0.18022792041301727,-0.4018985629081726,0.06891759485006332,-0.2485458105802536,0.14581090211868286,-0.2884320318698883,0.16204768419265747,-0.15129093825817108,-0.2879980504512787,-0.26320746541023254,-0.3346651792526245,0.3982839286327362,-0.20924727618694305,0.027064457535743713,0.13960586488246918,0.015142264775931835,-0.29767268896102905,-0.3736983835697174,-0.3717181086540222,-0.07133028656244278,0.08067269623279572,-0.20187851786613464,0.18707385659217834,-0.03333155810832977,0.13446614146232605,0.235213041305542,0.2670746147632599,0.28712621331214905,-0.12485712766647339,0.3259851038455963,-0.02505197934806347,0.1267130970954895,0.5159643292427063,-0.21461354196071625,0.095829077064991,-0.2963061034679413,-0.10487017035484314,0.21895471215248108,-0.0581398569047451,0.0035480200313031673,-0.3499322831630707,-0.24640102684497833,-0.07378100603818893,0.29535019397735596,0.14912468194961548,-0.13921181857585907,0.015696395188570023,0.12470991909503937,0.5161975622177124,-0.08391096442937851,0.2963184416294098
phosphorus,-0.2884559631347656,-0.08825323730707169,0.07220098376274109,0.0009021761361509562,0.258961021900177,-0.36305585503578186,0.4833163619041443,0.1619921326637268,-0.005881058517843485,0.23921173810958862,-0.04458783194422722,0.08654972165822983,-0.2890476882457733,-0.10633479803800583,-0.1845240443944931,-0.04038659483194351,-0.3138572573661804,0.40761807560920715,-0.030817098915576935,-0.11302481591701508,-0.04300454631447792,-0.17346948385238647,-0.4210624396800995,-0.33915629982948303,0.19867172837257385,-0.045418135821819305,-0.17595118284225464,0.13790398836135864,-0.30051326751708984,0.2245364785194397,-0.1432645320892334,-0.11439929902553558,-0.033311545848846436,0.2159537971019745,0.1378462314605713,-0.18664810061454773,0.17997513711452484,0.21208901703357697,0.1869095116853714,0.24989134073257446,0.0008899449021555483,0.12754057347774506,0.03619660064578056,0.1827072948217392,0.005228796973824501,0.03631711006164551,-0.15626740455627441,-0.11191577464342117,0.3813651204109192,-0.143559992313385,0.19159650802612305,0.36305126547813416,-0.3945583701133728,0.015613775700330734,-0.2350841760635376,0.09352653473615646,0.1372346580028534,-0.47765958309173584,-0.30059367418289185,-0.1601538509130478,-0.10911812633275986,0.04805374890565872,0.001716791419312358,0.0612880140542984
salinity,-0.3400770127773285,-0.30922555923461914,0.005092706996947527,-0.2223263680934906,-0.09098342806100845,0.11028540879487991,-0.0654723048210144,-0.18337717652320862,-0.4399995505809784,0.2829171121120453,-0.015865005552768707,0.10978977382183075,0.04793358966708183,0.06040357053279877,-0.3432699739933014,-0.3226466774940491,0.29278939962387085,0.37294477224349976,0.21005336940288544,0.04373673349618912,0.18957407772541046,0.09490804374217987,-0.15906402468681335,-0.01681569591164589,0.006687523331493139,0.008627026341855526,0.0026664850302040577,0.11319365352392197,-0.1987522840499878,0.10101888328790665,0.0967567041516304,-0.13900527358055115,-0.146109938621521,-0.009454939514398575,0.018123164772987366,-0.11883325129747391,0.0115404287353158,0.1166570857167244,-0.004725223407149315,0.0011607897467911243,0.022171396762132645,0.09599073976278305,-0.24620558321475983,0.26578187942504883,0.22156915068626404,0.2313583493232727,-0.21163618564605713,0.01100799161940813,0.12416791170835495,-0.72422856092453,0.2815818190574646,-0.03417043387889862,0.0671248733997345,-0.3271731436252594,-0.11052604764699936,-0.04364863038063049,0.308043897151947,-0.3283698856830597,-0.27887600660324097,-0.07210174202919006,-0.041049711406230927,-0.06508538126945496,-0.30949780344963074,0.15404611825942993
toxic dinoflagellates,-0.016807448118925095,-0.3167593479156494,0.6255799531936646,-0.3168226182460785,0.013409431092441082,-0.06710411608219147,-0.008274548687040806,0.2855563461780548,-0.13097532093524933,0.26136451959609985,0.02705089934170246,0.29524898529052734,0.14205080270767212,0.1594361811876297,0.05985124409198761,-0.2746741473674774,0.2216338962316513,0.32034340500831604,-0.6291666626930237,-0.06495985388755798,0.3647790849208832,-0.2668896019458771,-0.1925187110900879,-0.11498899757862091,0.26209181547164917,-0.012820693664252758,-0.3228192925453186,-0.09954705089330673,-0.06381846219301224,-0.001487701665610075,0.11627127975225449,0.03272053971886635,-0.08067921549081802,-0.32485252618789673,-0.11505267769098282,-0.10408385843038559,-0.03318142518401146,-0.19348236918449402,0.024292007088661194,0.2111356258392334,0.18954060971736908,0.09234163910150528,0.11600950360298157,-0.12631899118423462,-0.015636930242180824,0.22143153846263885,-0.15499179065227509,0.15060144662857056,0.07834713160991669,-0.367287814617157,0.0432143397629261,0.23233050107955933,0.0754271149635315,0.2046411633491516,-0.22632618248462677,-0.24851849675178528,0.21035484969615936,0.10291002690792084,0.09013184159994125,-0.019488444551825523,-0.15755631029605865,-0.44351500272750854,-0.004645948763936758,0.08259209990501404
toxin-producing,-0.11659173667430878,0.020740320906043053,0.5255871415138245,-0.05296894907951355,-0.23656244575977325,0.6065834164619446,0.21377889811992645,-0.14150497317314148,-0.27371132373809814,-0.05052567645907402,-0.03702063858509064,0.18152621388435364,-0.2662729322910309,-0.07052769511938095,-0.1004580706357956,-0.06717094779014587,0.15196511149406433,0.426539808511734,-0.3494533598423004,-0.0021904977038502693,0.19047778844833374,-0.23569561541080475,-0.10975274443626404,-0.33095911145210266,0.36041826009750366,-0.2001437097787857,-0.09348377585411072,-0.2459506094455719,0.23678813874721527,-0.2636795938014984,-0.030124427750706673,0.10579879581928253,-0.024619974195957184,-0.12223903089761734,0.39348071813583374,0.28092703223228455,0.09585551172494888,0.30857837200164795,-0.04652285575866699,0.1130811870098114,-0.37857747077941895,0.02717810682952404,-0.2556402385234833,0.22869102656841278,-0.019119437783956528,-0.022228505462408066,0.010297024622559547,-0.20358304679393768,-0.13151812553405762,-0.09756406396627426,0.24563656747341156,0.475647509098053,0.13262726366519928,-0.09479061514139175,0.12753412127494812,-0.14392206072807312,-0.03671744465827942,-0.010434004478156567,-0.29487770795822144,-0.11634043604135513,-0.22643183171749115,0.15637579560279846,-0.1867317110300064,0.3585634231567383
dinoflagellate alexandrium catenella,-0.2644088864326477,-0.3855980932712555,0.012673836201429367,0.35988950729370117,0.10185422748327255,-0.08207506686449051,-0.2778695523738861,0.08853469789028168,0.042860861867666245,-0.12008874118328094,0.06858084350824356,0.2056393176317215,-0.010697891004383564,-0.5209597945213318,-0.26254603266716003,-0.08062386512756348,0.03631230443716049,0.6604740023612976,-0.07229065895080566,0.029452884569764137,0.057519905269145966,-0.21798798441886902,-0.5452617406845093,0.10257118195295334,0.17491164803504944,-0.08175144344568253,-0.12778376042842865,-0.022365154698491096,-0.08222120255231857,-0.006953326053917408,-0.27683722972869873,-0.06903910636901855,-0.0782819613814354,-0.11438935250043869,0.173458069562912,-0.026377007365226746,-0.13172906637191772,0.1614772379398346,-0.24936626851558685,-0.06944972276687622,-0.4813537001609802,-0.07341843098402023,0.34753796458244324,0.30195188522338867,-0.09373247623443604,0.019716111943125725,0.005845646373927593,0.15302492678165436,0.06302346289157867,-0.18216510117053986,0.10583064705133438,0.2586621642112732,0.22082670032978058,-0.05797990784049034,-0.01803586818277836,-0.12456460297107697,0.08372574299573898,0.26014038920402527,0.0826885998249054,-0.18302541971206665,0.3057096004486084,0.0074487593956291676,-0.2379465252161026,-0.017081093043088913
dcstx,-0.19208920001983643,-0.2527051270008087,0.05222995579242706,0.17095544934272766,-0.043075043708086014,-0.3183385729789734,0.17825697362422943,-0.21465221047401428,0.09647083282470703,-0.3380986154079437,-0.13787460327148438,-0.23730981349945068,0.3306506276130676,-0.07624202966690063,0.09844524413347244,-0.2512412667274475,0.006371813360601664,0.599733293056488,0.10248399525880814,0.07347062230110168,0.28439515829086304,0.05518465116620064,-0.11886923015117645,-0.10504558682441711,0.4030698835849762,-0.1610027402639389,0.2550630569458008,-0.3631615936756134,-0.0034677775111049414,-0.16047559678554535,-0.10552871972322464,-0.06328240036964417,-0.14565110206604004,-0.12088742107152939,0.24428147077560425,0.4176555573940277,0.0013695064699277282,-0.016128433868288994,-0.3120935559272766,0.03852347657084465,-0.09149820357561111,-0.03867262229323387,0.1726737767457962,-0.020047573372721672,0.26587316393852234,0.14972785115242004,-0.2471536099910736,-0.2228183001279831,0.04617805406451225,-0.6399052143096924,0.1656792312860489,0.018845830112695694,-0.06109454855322838,-0.16605356335639954,-0.16234064102172852,0.15168635547161102,-0.1476670503616333,0.4483796954154968,0.22168178856372833,-0.3356398940086365,0.005510509479790926,0.04657818749547005,0.0417451411485672,-0.3373751640319824
gene transfer,-0.3098423480987549,-0.31544312834739685,0.14913813769817352,-0.6469021439552307,-0.06393343210220337,-0.32207295298576355,-0.14862693846225739,0.15191057324409485,0.2271588146686554,-0.08714007586240768,-0.31531259417533875,0.06596080958843231,-0.37873417139053345,-0.11060785502195358,-0.22984448075294495,-0.17598994076251984,0.1832466721534729,0.29294276237487793,0.2020210176706314,-0.13633017241954803,-0.16090376675128937,0.15379215776920319,-0.04356124624609947,-0.1802041381597519,0.4822537302970886,0.128134623169899,0.11935769766569138,0.13536012172698975,-0.2026795595884323,0.10784590244293213,-0.22714291512966156,-0.043917465955019,0.2687554657459259,-0.12807978689670563,-0.07241744548082352,-0.03666677325963974,0.638278067111969,-0.0721568837761879,0.028400644659996033,0.35661494731903076,-0.2882482409477234,-0.022440342232584953,0.279009610414505,0.4889044761657715,0.05789226293563843,0.11319281160831451,0.0732269361615181,-0.04521294683218002,-0.20894557237625122,0.3102249205112457,-0.09356959164142609,0.3149309456348419,-0.11088915914297104,-0.009155383333563805,-0.33709093928337097,-0.40599754452705383,0.24150635302066803,0.7016962766647339,0.1802596002817154,-0.14090755581855774,0.055662039667367935,0.356733500957489,0.1167411208152771,-0.02906343713402748
horizontal gene transfer,-0.1168777272105217,-0.14757481217384338,0.4192221462726593,-0.4508243501186371,-0.08966640383005142,-0.15283045172691345,-0.2947871685028076,0.06467482447624207,0.2092319130897522,0.15128165483474731,0.00994251761585474,-0.0924677848815918,-0.41383472084999084,-0.21896976232528687,-0.16221357882022858,-0.17061303555965424,0.26280537247657776,0.20965631306171417,0.3876645565032959,-0.3508797585964203,-0.05070335790514946,0.18541638553142548,-0.07131949812173843,-0.0641191229224205,0.4295203387737274,0.07308123260736465,-0.10730006545782089,-0.19041241705417633,0.08041602373123169,-0.034219905734062195,-0.3252633512020111,-0.14580488204956055,-0.108132503926754,-0.04807169735431671,0.11648604273796082,-0.24155351519584656,0.7473974227905273,0.06796370446681976,0.11238862574100494,0.3558740019798279,0.02604270726442337,-0.30750423669815063,0.2659291923046112,0.5341026782989502,0.18060077726840973,0.11318006366491318,-0.060535646975040436,0.16232924163341522,-0.21522441506385803,0.2083168774843216,-0.03926819935441017,0.24133914709091187,-0.14615219831466675,-0.2986523509025574,-0.32908421754837036,-0.3328593671321869,0.32712048292160034,0.607128381729126,0.1767532229423523,-0.12741714715957642,0.00682191364467144,0.3114455044269562,0.2351953536272049,-0.2602204978466034
alexandrium ostenfeldii,-0.24108269810676575,-0.15500690042972565,0.4924491345882416,0.06267835199832916,0.12603293359279633,0.507158637046814,-0.20412583649158478,0.3365681767463684,-0.06286471337080002,0.1328148990869522,0.06094159558415413,-0.151040717959404,-0.09075244516134262,0.39681440591812134,-0.11936891078948975,-0.2496899515390396,0.06212276592850685,0.5415555834770203,-0.24966304004192352,-0.1381751149892807,-0.029179155826568604,-0.2586641013622284,-0.11610974371433258,-0.19773529469966888,0.40568122267723083,0.30556726455688477,0.28301432728767395,0.06869407743215561,0.0992821529507637,0.17982476949691772,0.029287269338965416,-0.059036098420619965,-0.15664421021938324,0.07748883217573166,0.16313353180885315,0.1650265008211136,0.07664009183645248,0.07245054095983505,0.20900242030620575,-0.09899944067001343,0.14027316868305206,0.47019556164741516,-0.2464386224746704,0.27979135513305664,-0.078928641974926,0.07415015250444412,0.1129506379365921,-0.47040751576423645,-0.12153097242116928,-0.3256145715713501,0.26203471422195435,0.1325283795595169,0.25960585474967957,-0.24186758697032928,0.06727442890405655,-0.10799593478441238,0.09858271479606628,0.008943389169871807,0.15544648468494415,0.11073191463947296,-0.5031998753547668,0.42262911796569824,0.1961909830570221,0.14465540647506714
producing dinoflagellate,-0.1593250185251236,-0.24483495950698853,-0.09737057983875275,0.24281513690948486,0.15841083228588104,-0.005748079624027014,-0.05997059866786003,-0.10781053453683853,-0.16038471460342407,-0.11143118143081665,0.020395176485180855,-0.0353093259036541,-0.24805422127246857,0.2222590446472168,-0.041016146540641785,0.06773607432842255,0.0642436072230339,0.31089842319488525,-0.08059652894735336,0.08508467674255371,-0.07944498211145401,0.11318963021039963,-0.25168198347091675,-0.11626753956079483,0.198308065533638,-0.3229067027568817,-0.20324264466762543,-0.45163190364837646,-0.2206231951713562,-0.017795955762267113,0.08652539551258087,0.17991341650485992,-0.2211415022611618,-0.23835887014865875,0.30311840772628784,0.3184036612510681,0.5575381517410278,0.17401282489299774,0.3659052550792694,0.18581143021583557,-0.416164755821228,0.0020627162884920835,0.2453673779964447,0.01741243153810501,-0.4944353997707367,0.30930787324905396,-0.08356678485870361,-0.14481522142887115,0.10500329732894897,-0.15682190656661987,0.23680873215198517,0.1360863447189331,0.07197124511003494,-0.2186249941587448,-0.14400780200958252,-0.22879013419151306,-0.21138624846935272,-0.09722607582807541,0.4082277715206146,-0.6580195426940918,-0.16449478268623352,0.3901880383491516,-0.12337999045848846,0.4301016628742218
toxic cyanobacteria,0.11842603236436844,0.04387645423412323,0.3653148412704468,-0.08526980876922607,0.09914514422416687,0.3871351182460785,0.01797003671526909,0.2493680715560913,0.010298619978129864,0.1716737151145935,-0.1323017030954361,0.13961367309093475,-0.1554507315158844,-0.22318552434444427,-0.42558667063713074,0.08046882599592209,-0.252562940120697,-0.21973970532417297,-0.25926369428634644,0.26155221462249756,-0.008589892648160458,-0.18433640897274017,0.051448557525873184,-0.012940233573317528,0.6600770354270935,-0.009417305700480938,-0.2322303205728531,-0.009322334080934525,0.03234708681702614,0.18136657774448395,0.38494613766670227,-0.1919790506362915,0.1407468169927597,0.043728508055210114,0.14937831461429596,0.15814872086048126,0.6715115308761597,-0.0670022964477539,-0.2657557725906372,-0.012045750394463539,-0.3678152859210968,-0.11796123534440994,0.32955634593963623,-0.09460364282131195,0.33504316210746765,0.4253641664981842,0.00990989338606596,0.01933923363685608,0.21417570114135742,-0.36108675599098206,0.2142009288072586,0.2562469244003296,0.18130318820476532,0.15755833685398102,-0.766351044178009,0.0828055813908577,0.052066512405872345,0.025483764708042145,0.4439316689968109,-0.041897743940353394,0.04341339319944382,0.0342303104698658,0.014348532073199749,0.039993319660425186
biosynthesis genes,-0.1723453849554062,-0.12141939252614975,0.13984018564224243,0.14197538793087006,-0.23477578163146973,-0.22371746599674225,-0.6044516563415527,0.536662220954895,-0.011097535490989685,0.07669161260128021,-0.014168848283588886,-0.15710581839084625,0.020655913278460503,-0.38072770833969116,-0.30670365691185,-0.23339930176734924,-0.15813539922237396,0.3146568238735199,0.2955048978328705,-0.0221067126840353,-0.05140385031700134,-0.0372149758040905,-0.05895371362566948,0.2308942675590515,0.20503784716129303,-0.08666204661130905,-0.451884001493454,0.1935252994298935,0.11945074796676636,-0.06775689870119095,-0.42256230115890503,-0.30457764863967896,0.11666969954967499,-0.30403655767440796,0.2756944000720978,-0.07725924998521805,0.3048669397830963,-0.19439597427845,-0.0006841179565526545,0.05893387272953987,-0.24039915204048157,0.08180239051580429,0.26539844274520874,0.3818624019622803,-0.31050997972488403,0.37290316820144653,-0.015664760023355484,0.04909778758883476,0.21041777729988098,-0.2444610297679901,0.19085067510604858,0.028457434847950935,0.08156474679708481,0.3017726242542267,-0.018734335899353027,-0.12039224803447723,0.09671525657176971,0.3167479634284973,-0.18076369166374207,-0.2659820318222046,-0.12966099381446838,-0.10321977734565735,-0.10129325091838837,0.29683682322502136
evolution,-0.007123221643269062,-0.12951070070266724,0.6526989936828613,-0.6136378645896912,0.18568208813667297,-0.12100132554769516,-0.21492671966552734,0.04816710576415062,0.048645611852407455,0.22156673669815063,-0.06853277236223221,0.12831200659275055,-0.15819917619228363,0.22848166525363922,-0.5585345029830933,-0.22838428616523743,-0.2738880217075348,0.337920606136322,0.27494874596595764,-0.08030112832784653,-0.010344035923480988,0.33467891812324524,-0.3729235827922821,0.04480970650911331,0.010202405042946339,0.19733832776546478,0.23313559591770172,-0.0861794576048851,0.2146763801574707,0.01253268588334322,-0.2261621206998825,-0.14273858070373535,0.4841594696044922,-0.30659112334251404,-0.1471680998802185,-0.019954588264226913,0.3315082788467407,0.23434007167816162,0.1738356053829193,-0.08522351831197739,-0.2590392231941223,-0.40316054224967957,0.26095670461654663,0.22279711067676544,0.24769817292690277,-0.09543129801750183,-0.16784976422786713,0.0887131541967392,0.026419486850500107,0.14237457513809204,0.05639113858342171,0.06328995525836945,0.32968634366989136,0.19035492837429047,-0.37420159578323364,-0.16893382370471954,0.07304219156503677,0.35480985045433044,0.34769079089164734,-0.17585599422454834,-0.18997137248516083,0.21765266358852386,0.1194741502404213,-0.138493150472641
dinoflagellate alexandrium minutum,-0.29353511333465576,-0.17623664438724518,0.08509346097707748,-0.13258729875087738,0.3837994337081909,0.21825723350048065,-0.20456483960151672,-0.11492817848920822,0.026755936443805695,0.2745260000228882,-0.3984352648258209,-0.31651756167411804,0.08086071908473969,-0.2544001042842865,-0.12332002818584442,-0.14749550819396973,-0.009505878202617168,0.17842695116996765,-0.07508204132318497,0.11626164615154266,0.26791316270828247,-0.014328678138554096,-0.2558577060699463,-0.034354597330093384,0.21707163751125336,-0.10791520774364471,-0.24010667204856873,0.05552290752530098,-0.0993608832359314,0.038807161152362823,-0.2187262624502182,0.1463971585035324,-0.08870002627372742,-0.14120808243751526,0.13269758224487305,-0.07668568193912506,0.1924520581960678,0.02007937803864479,-0.16713859140872955,-0.14859873056411743,0.09663408994674683,0.1304623931646347,0.2580241560935974,0.4751817286014557,-0.3843625783920288,0.17557969689369202,-0.27088767290115356,0.18557614088058472,0.25200414657592773,-0.23000945150852203,0.3603441119194031,0.4500569999217987,0.4230591058731079,0.024337397888302803,-0.1458493322134018,0.4582360088825226,0.02506641112267971,-0.3188481628894806,-0.1251940131187439,0.07136460393667221,-0.2726356089115143,-0.0059010800905525684,-0.03455981984734535,0.1094103753566742
neostx,-0.28008002042770386,-0.2624625265598297,-0.11101227253675461,0.0985032394528389,0.11030247807502747,0.039778247475624084,-0.020378947257995605,-0.03984345495700836,-0.22873371839523315,0.025085555389523506,-0.12806153297424316,0.02145511656999588,-0.017392603680491447,-0.2519316077232361,-0.16450734436511993,-0.059765320271253586,0.024080850183963776,0.5814436674118042,-0.12115980684757233,-0.09790371358394623,0.12101051211357117,0.20185796916484833,-0.15664462745189667,0.04499105364084244,0.31224700808525085,-0.15373194217681885,-0.11557977646589279,-0.014230038039386272,-0.08515500277280807,-0.00982195045799017,-0.09857611358165741,0.06906796246767044,-0.0333980917930603,0.049040284007787704,-0.04081185162067413,-0.1389792114496231,-0.2955019772052765,0.3534434735774994,-0.3261801600456238,-0.12320456653833389,-0.3576565086841583,0.3677860498428345,-0.08713864535093307,0.22068333625793457,0.1339266151189804,0.20316116511821747,-0.09883012622594833,0.01119898445904255,-0.39362648129463196,-0.6518087387084961,-0.08092281967401505,0.11558787524700165,-0.11638442426919937,-0.09981157630681992,-0.11839338392019272,-0.2910642921924591,0.18449927866458893,0.010779346339404583,0.027536706998944283,0.00921537447720766,-0.04074668511748314,0.13429278135299683,-0.24516433477401733,-0.069321408867836
nutrient limitation,0.11743777990341187,-0.17621959745883942,0.19017302989959717,0.13372711837291718,0.056313756853342056,-0.03201966732740402,0.24844703078269958,0.2828846573829651,-0.024927599355578423,0.3029269278049469,-0.2753925323486328,-0.062322236597537994,0.12163550406694412,-0.16606616973876953,0.008922080509364605,0.14052680134773254,-0.18131496012210846,0.5853004455566406,0.15721264481544495,-0.07792799919843674,-0.04501478746533394,-0.15507496893405914,-0.6136797070503235,-0.4428420066833496,0.14542855322360992,0.01521962322294712,-0.07731525599956512,-0.21130169928073883,-0.6406387090682983,0.1155732199549675,0.08268410712480545,0.13007010519504547,0.1921430081129074,0.19935445487499237,0.017090193927288055,-0.11481454223394394,-0.27676570415496826,0.01594332791864872,0.22269290685653687,-0.1614590734243393,-0.2465415596961975,0.01613304577767849,0.05582404136657715,0.3942736089229584,0.09027179330587387,0.0009782909182831645,-0.34590134024620056,-0.11780917644500732,-0.025898361578583717,0.072983019053936,0.1082570031285286,0.2796332538127899,-0.40320679545402527,0.1719180792570114,-0.23183371126651764,-0.0002675544819794595,0.2304360568523407,-0.42387109994888306,-0.1396075189113617,-0.21779729425907135,-0.28069475293159485,0.1080564334988594,0.2225140631198883,0.2501397728919983
genes involved,-0.06356098502874374,-0.06875002384185791,0.423292875289917,-0.09641089290380478,0.06087792292237282,-0.19537945091724396,-0.02368975430727005,0.06049809604883194,-0.1145767867565155,0.032894596457481384,0.38680920004844666,-0.1738271415233612,-0.0336870476603508,-0.07760936766862869,-0.23506608605384827,-0.1256079524755478,-0.1671949177980423,0.000583017070312053,0.07451971620321274,0.09286385029554367,-0.24047277867794037,0.018004538491368294,-0.11467094719409943,-0.1663392037153244,0.3813088834285736,0.18100084364414215,0.03791277855634689,0.029132284224033356,0.2567242383956909,-0.07786901295185089,-0.06916803121566772,-0.159234419465065,0.11536799371242523,-0.29562824964523315,0.12743408977985382,-0.11588334292173386,0.3729104697704315,0.16187454760074615,-0.4105628430843353,-0.1271936446428299,0.17588090896606445,-0.18790163099765778,0.43145400285720825,0.059151921421289444,0.008072909899055958,0.403854638338089,-0.28250396251678467,-0.2301773875951767,0.12893861532211304,-0.12318205088376999,0.09166809916496277,0.21070018410682678,0.08586467802524567,0.39621618390083313,-0.5129364728927612,-0.5098430514335632,-0.1792476922273636,-0.11631975322961807,0.13264437019824982,-0.25603538751602173,-0.1370246261358261,0.3775675296783447,-0.11063006520271301,0.16847555339336395
biosynthesis gene,-0.21158869564533234,0.3322029411792755,0.19576384127140045,-0.42740297317504883,-0.16854719817638397,-0.13054625689983368,-0.5728713870048523,0.2947571873664856,0.13005393743515015,0.2259710729122162,-0.20505182445049286,0.2722809910774231,-0.21981985867023468,-0.20238319039344788,-0.27256035804748535,-0.4319497048854828,-0.05558086559176445,0.057336632162332535,0.027042724192142487,0.23165126144886017,0.028894992545247078,-0.15801860392093658,-0.35833999514579773,-0.29972440004348755,0.07879488170146942,-0.5176507234573364,-0.05048511177301407,0.10897191613912582,0.03310498967766762,-0.09076070785522461,-0.012808548286557198,0.308575302362442,-0.048664391040802,-0.057552117854356766,0.19002912938594818,0.23804201185703278,0.45627647638320923,-0.12318502366542816,-0.17702865600585938,0.30554139614105225,-0.2091703861951828,0.3652075231075287,0.05255301296710968,-0.011005348525941372,-0.12288298457860947,0.177999809384346,-0.10010993480682373,-0.07068046927452087,0.12552741169929504,-0.10109307616949081,0.1153649091720581,0.3983485698699951,0.0425259992480278,-0.0762096717953682,-0.2977527379989624,-0.020146304741501808,0.14311529695987701,0.025588367134332657,-0.008067951537668705,-0.18700441718101501,-0.30642178654670715,-0.031993843615055084,0.13080213963985443,0.0671992227435112
dinoflagellate alexandrium tamarense,0.06329371780157089,-0.05308612808585167,0.10240360349416733,-0.3351524770259857,-0.08574076741933823,-0.15590062737464905,0.16772885620594025,-0.08500939607620239,-0.2616056501865387,-0.11976272612810135,0.29556360840797424,0.027048548683524132,0.13817881047725677,-0.2741844058036804,-0.09699355810880661,0.16193515062332153,-0.08957833051681519,0.24923697113990784,0.06642551720142365,-0.02651706151664257,0.4338996112346649,-0.0855763629078865,-0.4423229694366455,-0.3348150849342346,0.665312647819519,-0.3951171934604645,-0.04722803458571434,-0.18032395839691162,0.0665438249707222,0.0729338675737381,-0.07645842432975769,0.20435798168182373,-0.15257979929447174,-0.026706980541348457,-0.20259042084217072,0.08316270262002945,0.12279094010591507,0.17343395948410034,0.16522465646266937,0.1507204920053482,0.20750941336154938,-0.15175367891788483,0.19801367819309235,0.5188756585121155,-0.15474742650985718,0.08704326301813126,-0.027467384934425354,0.4824267029762268,-0.2795110046863556,-0.5348643064498901,0.28768762946128845,0.28392165899276733,-0.2275487184524536,0.23272670805454254,0.24294361472129822,0.09416556358337402,0.1145208477973938,-0.26951465010643005,0.32793697714805603,0.05275333672761917,-0.2203696221113205,0.0723961740732193,-0.05325968563556671,0.24386823177337646
paralytic shellfish toxin profiles,-0.10543350875377655,-0.09799593687057495,0.2589268386363983,-0.14084985852241516,0.0923319086432457,0.031575802713632584,0.0815361887216568,-0.0098729208111763,-0.2421088069677353,0.1470768004655838,0.061119724065065384,-0.3050695061683655,-0.028850628063082695,0.030943116173148155,-0.3501060903072357,-0.026341944932937622,0.043573345988988876,0.5608289241790771,0.15647447109222412,-0.002719258889555931,0.33513641357421875,0.4365009069442749,-0.05654720962047577,0.03388192877173424,0.04089861363172531,-0.07406970113515854,0.09643620252609253,-0.2680979371070862,-0.4380698800086975,-0.22668904066085815,-0.07453663647174835,-0.007950972765684128,-0.4370001554489136,0.45997121930122375,-0.3645051419734955,-0.31555140018463135,-0.002164043253287673,0.28411954641342163,-0.6269674301147461,0.48323139548301697,0.03039141185581684,0.3141426742076874,0.16484862565994263,0.33123159408569336,0.09384845197200775,-0.06540650129318237,-0.057938460260629654,-0.2178724706172943,-0.30513209104537964,-0.5589176416397095,0.04988620802760124,-0.005303379148244858,-0.03005988895893097,-0.25371700525283813,-0.11865382641553879,-0.20280613005161285,-0.03154554218053818,-0.06751032918691635,-0.2346639186143875,0.015639465302228928,-0.20311546325683594,-0.07406434416770935,0.022260958328843117,0.06341522186994553
shellfish toxin profiles,0.27770867943763733,-0.287688672542572,0.14570048451423645,-0.03718740493059158,0.19320082664489746,0.1081015020608902,0.2285539209842682,0.012277131900191307,-0.2643166184425354,0.3100045919418335,-0.22680775821208954,-0.24447618424892426,0.18917347490787506,0.03201691433787346,-0.5982429385185242,-0.07317382842302322,0.12441278994083405,0.5640411972999573,-0.14122170209884644,-0.09953614324331284,0.07003786414861679,0.4081556797027588,-0.13295166194438934,0.04115249961614609,0.1615985631942749,0.10440369695425034,0.14849330484867096,-0.15871144831180573,-0.15939588844776154,-0.22316919267177582,-0.19363217055797577,0.04809892550110817,-0.41391411423683167,0.41222697496414185,-0.38917234539985657,-0.22162722051143646,0.15331879258155823,0.2486526370048523,-0.38251030445098877,0.22168993949890137,-0.3732568919658661,0.165681853890419,0.1604684293270111,0.0136307617649436,0.1286388337612152,0.0037403348833322525,-0.2723916172981262,0.021100325509905815,-0.24403676390647888,-0.74724280834198,-0.009863177314400673,-0.01784786768257618,0.031911831349134445,0.08919117599725723,-0.013141192495822906,-0.32319721579551697,-0.13114897906780243,0.09191756695508957,-0.17952199280261993,0.11240669339895248,-0.17305529117584229,0.024412646889686584,-0.13879582285881042,0.03465701639652252
toxin contents,-0.18471172451972961,-0.08233620226383209,0.10851918160915375,-0.2152760624885559,0.05059833824634552,0.07047376781702042,-0.04168200492858887,0.0903625562787056,-0.2824053168296814,-0.02524520643055439,-0.1317274123430252,0.04187353327870369,-0.02349046804010868,-0.040474772453308105,-0.13085059821605682,0.2893933057785034,0.04762910306453705,0.39728933572769165,0.06773658841848373,0.011092276312410831,0.17688770592212677,0.26972299814224243,-0.04916258156299591,-0.08514996618032455,0.19970646500587463,0.15415143966674805,-0.1319068968296051,-0.15635475516319275,-0.48725342750549316,-0.11452245712280273,0.024444695562124252,-0.008514003828167915,0.04010523855686188,0.2944223880767822,-0.06605181097984314,-0.17410722374916077,0.071815624833107,0.3245392143726349,-0.06269676983356476,0.09080542623996735,-0.046068016439676285,0.4482177197933197,-0.03870043903589249,0.2500647008419037,0.32049688696861267,0.1408100575208664,-0.110532745718956,0.22392870485782623,-0.2597964406013489,-0.6402724981307983,0.26087668538093567,0.12169406563043594,-0.17941679060459137,0.011000702157616615,-0.11533461511135101,-0.2770848870277405,-0.08948996663093567,-0.049471139907836914,-0.007396548520773649,0.11669787764549255,-0.3248481750488281,-0.12469588965177536,-0.06377728283405304,0.459319144487381
freshwater cyanobacteria,-0.046707239001989365,-0.09366090595722198,0.27352577447891235,-0.05600419268012047,-0.05067361891269684,0.3377097249031067,0.049420665949583054,-0.10118686407804489,-0.3170328736305237,0.16007468104362488,0.18237356841564178,0.11396315693855286,-0.4192192554473877,-0.3680197596549988,-0.04695515334606171,0.2813320755958557,-0.06624459475278854,0.24368543922901154,0.07603418081998825,0.21382689476013184,-0.07563117146492004,0.22310076653957367,-0.5626797676086426,-0.04896201565861702,0.11556866765022278,0.18846653401851654,-0.03345857188105583,0.5532553195953369,0.4319922924041748,-0.18122266232967377,0.2698569893836975,-0.28797686100006104,0.1080990880727768,-0.0923919603228569,0.03455369919538498,-0.052387721836566925,0.424191415309906,-0.14845770597457886,0.10706907510757446,0.20027007162570953,-0.14125332236289978,0.2713299095630646,0.21348875761032104,0.2164101004600525,0.041306208819150925,0.3561800420284271,0.16305215656757355,0.0281298216432333,0.05298503860831261,-0.3850552439689636,-0.04346732050180435,0.10012410581111908,0.10820811241865158,-0.02834981679916382,-0.46516793966293335,0.17371264100074768,0.32601892948150635,0.020668869838118553,0.17365925014019012,-0.178049698472023,-0.01565403863787651,0.058028217405080795,-0.1067328229546547,-0.2210647016763687
environmental conditions,-0.4975878596305847,-0.09208409488201141,0.16009099781513214,-0.04615379497408867,0.26807817816734314,-0.09243012219667435,0.13909782469272614,0.10222698003053665,-0.4348938465118408,0.22092899680137634,-0.08513879776000977,0.05610954761505127,0.007558528799563646,0.0015647190157324076,-0.11390954256057739,-0.15182285010814667,-0.11019434034824371,0.2640678286552429,0.1523512303829193,0.12207166850566864,0.07838194817304611,0.2808086574077606,-0.13709001243114471,-0.15249091386795044,0.3033268451690674,0.08105836063623428,-0.0036839439999312162,-0.14247971773147583,0.04546622186899185,0.03930387645959854,0.04976372420787811,0.00016957035404630005,-0.03387744352221489,-0.11552025377750397,-0.3499149978160858,0.3006586730480194,0.19376981258392334,0.14085786044597626,-0.03320715203881264,-0.31326577067375183,0.15942054986953735,0.2612132132053375,0.13087277114391327,0.06037021800875664,-0.14099937677383423,0.060708627104759216,-0.2326604127883911,0.29574984312057495,0.16684192419052124,-0.21544121205806732,0.11334050446748734,0.019048543646931648,0.10777842998504639,-0.14138245582580566,-0.3812568783760071,0.02857898361980915,0.11620171368122101,0.07919412851333618,-0.34056752920150757,-0.2617928981781006,-0.3158790171146393,0.2717021107673645,-0.31471890211105347,0.05869331955909729
marine dinoflagellate alexandrium,0.1361597627401352,-0.20268571376800537,0.15781882405281067,-0.22835129499435425,-0.08394868671894073,0.06703118979930878,-0.3123897314071655,-0.1125316396355629,-0.1026621088385582,0.293443888425827,0.15952710807323456,0.009547878056764603,0.06602703034877777,-0.20670296251773834,-0.2401554137468338,-0.02102801948785782,-0.23090460896492004,0.3575338125228882,-0.1899777501821518,-0.11581498384475708,0.3472095727920532,0.09860043227672577,-0.20831754803657532,-0.04624118283390999,0.30589672923088074,-0.33249905705451965,0.01752728968858719,0.1276237964630127,0.09288562089204788,-0.19059789180755615,0.050796691328287125,-0.04576209560036659,-0.004732391331344843,0.20277926325798035,0.0619719959795475,-0.17814278602600098,0.1842903345823288,0.019020428881049156,0.07591908425092697,-0.02302681840956211,0.013768293894827366,-0.0016379806911572814,0.006394663359969854,0.1318492591381073,0.025920497253537178,0.26001492142677307,-0.3042055368423462,0.2434251755475998,-0.09357238560914993,-0.20850400626659393,-0.08021892607212067,0.4048296809196472,-0.09010028094053268,0.22372287511825562,-0.2004844844341278,-0.16634072363376617,0.23373724520206451,-0.47348564863204956,-0.1900942325592041,0.05312057584524155,-0.09158366918563843,-0.051619838923215866,-0.07818606495857239,0.3788512647151947
cellular toxin,-0.38081249594688416,-0.3168554902076721,0.3412945866584778,0.2668505609035492,0.37065085768699646,0.07023981958627701,0.19183692336082458,0.060697201639413834,0.027351902797818184,0.1396663337945938,-0.28574129939079285,0.1348273605108261,-0.29237574338912964,-0.12486209720373154,-0.18083597719669342,-0.06074027717113495,-0.2994074821472168,0.2782862186431885,0.12171025574207306,0.008806906640529633,0.26021242141723633,0.0806502178311348,-0.2868060767650604,-0.32057470083236694,0.4130527079105377,-0.17555111646652222,0.01675562560558319,-0.10090073943138123,0.2530999183654785,0.2173108160495758,-0.11324383318424225,0.04085647314786911,-0.07153413444757462,0.20080946385860443,0.13225065171718597,0.17084138095378876,0.4384782314300537,0.10624440759420395,0.21749313175678253,0.048865459859371185,0.032455429434776306,-0.012053536251187325,-0.07359323650598526,0.2053455114364624,0.39806291460990906,0.05968308821320534,-0.20769236981868744,0.28232964873313904,0.23616266250610352,-0.46129369735717773,-0.2974434494972229,0.1339799165725708,-0.22298838198184967,0.012989325448870659,0.01747218891978264,0.09749853610992432,-0.06230820715427399,-0.3980309069156647,-0.28815412521362305,0.03324956074357033,-0.4219079315662384,0.020976442843675613,-0.345479816198349,-0.1666404902935028
core genes,-0.17424476146697998,-0.23579829931259155,0.440938800573349,-0.3387986719608307,-0.1527574360370636,-0.3304709196090698,-0.24880702793598175,0.472503662109375,-0.1897992491722107,-0.26893675327301025,-0.36284318566322327,-0.3770367503166199,0.2508336007595062,-0.5252050757408142,-0.4253378212451935,0.12655572593212128,0.21681751310825348,-0.12539997696876526,-0.3074396550655365,0.17796410620212555,-0.020209942013025284,-0.01008465513586998,-0.34421947598457336,-0.155910924077034,0.15910200774669647,-0.3167654275894165,-0.015239258296787739,-0.13480666279792786,0.07589416950941086,-0.1815604269504547,0.16135352849960327,-0.08517879247665405,0.0025599063374102116,0.03503023087978363,0.39176878333091736,0.08863046020269394,0.5909671783447266,-0.3522968590259552,0.13651055097579956,0.23170438408851624,0.007908979430794716,0.20197583734989166,0.2218281775712967,0.11750271171331406,-0.22039289772510529,-0.07435432076454163,-0.11723928153514862,-0.23504555225372314,-0.20825819671154022,-0.26599764823913574,0.289399653673172,-0.27248793840408325,0.06720492243766785,0.18697240948677063,-0.27516379952430725,-0.3121563792228699,0.21550898253917694,-0.022179048508405685,0.05016328766942024,0.06388969719409943,0.210036963224411,0.1751418262720108,-0.2014407068490982,0.26365745067596436
gene copy number,-0.06252346932888031,-0.09233646094799042,0.02021257020533085,0.024202700704336166,0.497130423784256,-0.11619961261749268,0.05226443335413933,-0.047439094632864,0.04353422299027443,0.32124564051628113,-0.5003715753555298,-0.14971448481082916,-0.01833915151655674,-0.4205716848373413,-0.29325833916664124,-0.08822280913591385,0.13931289315223694,0.658855140209198,-0.14702463150024414,0.4176913797855377,-0.19364182651042938,0.05081145837903023,0.056093160063028336,0.140181764960289,0.27542251348495483,-0.42519673705101013,-0.2943742275238037,0.07118754088878632,0.41727063059806824,-0.04576600342988968,-0.24925270676612854,-0.001503357314504683,0.0560595840215683,-0.06335463374853134,0.12968076765537262,0.2251466065645218,-0.16230802237987518,-0.11100153625011444,0.2912040054798126,0.3682626187801361,0.2975267171859741,-0.09423808753490448,0.07927659153938293,0.19314652681350708,0.4141879379749298,0.44373849034309387,0.22035500407218933,-0.1662060171365738,-0.11584072560071945,0.027088604867458344,0.6525004506111145,0.017459940165281296,0.05419124662876129,-0.3072996139526367,-0.30568385124206543,-0.1921977400779724,0.029012367129325867,0.16333232820034027,-0.3385145366191864,0.23370763659477234,-0.41372257471084595,0.15018746256828308,0.3872738778591156,0.39943769574165344
pst biosynthesis,-0.19650384783744812,0.18215477466583252,0.4114273488521576,0.001844496000558138,-0.31129419803619385,-0.2258652150630951,-0.002724177436903119,0.23839490115642548,-0.06323190033435822,-0.023153040558099747,-0.12332960218191147,-0.27939602732658386,-0.049495287239551544,-0.3637981712818146,-0.18311633169651031,0.004342502914369106,-0.17017947137355804,0.358646035194397,-0.30823057889938354,-0.08732268214225769,-0.1189572662115097,0.23128938674926758,-0.36454492807388306,0.13167095184326172,0.1768529713153839,0.17915798723697662,0.0884074717760086,0.36585989594459534,0.37209922075271606,-0.23554570972919464,-0.3822411000728607,0.028655482456088066,0.38177016377449036,0.16244138777256012,0.2933647334575653,-0.2620718777179718,0.4057401716709137,0.2843758165836334,-0.06250433623790741,-0.03415068984031677,0.07891871780157089,0.12146846204996109,0.197188600897789,0.17430850863456726,-0.1147725060582161,0.5358693599700928,-0.4378799796104431,-0.18693190813064575,-0.11291905492544174,-0.20516949892044067,0.1373261958360672,0.41333702206611633,0.03995116427540779,0.10734489560127258,-0.041889872401952744,0.18797124922275543,-0.21686652302742004,-0.044955190271139145,-0.04882637783885002,0.0905020534992218,-0.15660329163074493,-0.28502121567726135,0.21235956251621246,0.2763487994670868
pst-producing,0.18300317227840424,-0.27079781889915466,0.46626630425453186,-0.06752151995897293,0.2677857279777527,-0.217108815908432,0.12778477370738983,0.21404658257961273,-0.22903934121131897,-0.5881817936897278,0.10489043593406677,-0.059235088527202606,-0.0025987927801907063,-0.40264037251472473,-0.5058977007865906,0.026865703985095024,-0.05916537716984749,0.4573623538017273,-0.20836307108402252,-0.19708065688610077,0.21301859617233276,0.3938726484775543,-0.012861707247793674,-0.311348021030426,0.20425094664096832,-0.1386301964521408,0.07720336318016052,-0.11779630929231644,0.013179573230445385,-0.009884695522487164,0.0031393009703606367,0.08665695786476135,-0.3795952796936035,-0.06979702413082123,0.1594865620136261,0.1386537104845047,0.36598867177963257,-0.40186458826065063,0.02054450288414955,0.20468589663505554,-0.05600197613239288,0.24340148270130157,-0.21609269082546234,0.27091658115386963,-0.29140955209732056,0.3116757273674011,-0.16763082146644592,-0.23278702795505524,0.10448365658521652,-0.07051819562911987,0.16564609110355377,-0.1349698007106781,0.1001962274312973,-0.1446434110403061,-0.15588261187076569,-0.17873325943946838,-0.3129653334617615,-0.05172868072986603,0.04986361041665077,-0.19552575051784515,0.3589579164981842,-0.13794434070587158,0.268775075674057,-0.0350138358771801
sulfocarbamoyl toxins,0.013814674690365791,-0.1960589438676834,0.2061075121164322,0.24808365106582642,-0.07026030123233795,-0.2689649164676666,-0.12609250843524933,0.02103072963654995,-0.0892781913280487,-0.10970194637775421,0.1568772792816162,-0.31288349628448486,0.38470515608787537,-0.19120128452777863,0.17545172572135925,-0.33357933163642883,-0.25626683235168457,0.5557136535644531,-0.12154511362314224,0.27330151200294495,0.2897001802921295,0.31541764736175537,0.0676470473408699,-0.37892425060272217,0.1755952388048172,-0.04330218955874443,-0.056271158158779144,0.05580919608473778,-0.2637624740600586,-0.063052698969841,0.09895685315132141,-0.0845780298113823,0.1826607584953308,0.18849532306194305,-0.1722365766763687,-0.1411123126745224,0.3969739079475403,0.240627259016037,-0.010381286032497883,0.15114235877990723,-0.2403365969657898,-0.39620649814605713,-0.2951887249946594,-0.023560501635074615,0.034463271498680115,0.11034288257360458,-0.16238810122013092,0.05141989514231682,-0.03834812343120575,-0.42864176630973816,0.0973755493760109,0.20220321416854858,-0.015534233301877975,-0.22408759593963623,-0.11353767663240433,-0.2519160509109497,0.12448451668024063,-0.005016503389924765,0.17649875581264496,-0.28603342175483704,-0.4106748700141907,0.013030610978603363,0.5803140997886658,-0.4097845256328583
saxitoxin biosynthesis gene,-0.29018041491508484,-0.12653377652168274,0.35188132524490356,-0.5027024745941162,-0.1999482661485672,-0.04964611679315567,-0.5540373921394348,0.4659786820411682,-0.07612887769937515,-0.22802959382534027,0.09002523124217987,0.42951124906539917,-0.39675548672676086,-0.42957374453544617,-0.02425825223326683,-0.30922529101371765,0.16465811431407928,0.3400649428367615,0.35183513164520264,0.44059357047080994,-0.22724659740924835,-0.4111815392971039,-0.011041676625609398,-0.16400665044784546,0.29312294721603394,0.04320753365755081,-0.20808109641075134,0.11272101104259491,0.05556229129433632,-0.17368221282958984,-0.42541423439979553,0.32330766320228577,-0.07642592489719391,-0.18598902225494385,0.23993559181690216,0.08318972587585449,0.13836359977722168,-0.3539895713329315,-0.22945694625377655,0.0014674218837171793,-0.08672209829092026,0.28221166133880615,-0.062179069966077805,-0.27533242106437683,-0.19199392199516296,-0.12780557572841644,0.23686018586158752,0.08066027611494064,-0.3542529344558716,-0.3328405022621155,-0.03016303852200508,0.3312850892543793,-0.029610149562358856,0.03577901050448418,-0.5396019220352173,-0.0016116207698360085,0.10659991949796677,-0.15173514187335968,0.04558519273996353,-0.14608465135097504,-0.061494406312704086,0.5008265972137451,0.016844941303133965,0.069645956158638
sxt gene,-0.21333156526088715,-0.058287546038627625,0.5217779874801636,-0.3174210786819458,0.2813655436038971,-0.12536415457725525,-0.20253226161003113,-0.4559696912765503,-0.14423951506614685,0.17188118398189545,-0.06877126544713974,0.14716964960098267,0.2925836443901062,-0.5488424301147461,-0.42485740780830383,-0.04061667248606682,-0.032203737646341324,0.13610811531543732,-0.4950193464756012,-0.12906375527381897,0.0590316504240036,-0.24622367322444916,0.0101166982203722,0.02082691714167595,-0.3677479326725006,-0.03546467423439026,-0.16870978474617004,0.043082352727651596,0.15503938496112823,0.029377445578575134,-0.2322348654270172,0.055736083537340164,-0.15274806320667267,-0.03905245289206505,0.16744226217269897,0.48334112763404846,0.3035680055618286,-0.304627388715744,0.23229080438613892,-0.15066158771514893,0.1545870304107666,0.30577799677848816,0.19041487574577332,0.5243334174156189,0.16837528347969055,0.30208757519721985,-0.22617897391319275,-0.07507139444351196,-0.11969832330942154,-0.06191801279783249,0.19779297709465027,-0.3312922716140747,-0.02014809660613537,0.3118537962436676,-0.46246930956840515,-0.05080145224928856,-0.1453014761209488,0.09015675634145737,0.11655808240175247,-0.16244708001613617,-0.06100577116012573,0.6426668763160706,0.29472583532333374,0.18714947998523712
phylogeny,0.1702391803264618,0.05520907789468765,0.30750635266304016,-0.23148393630981445,-0.1724575012922287,-0.07226286828517914,-0.3981837332248688,0.4953882396221161,-0.30252668261528015,0.1684110164642334,0.024673841893672943,-0.25325942039489746,-0.2924259305000305,0.3847098648548126,-0.5488899946212769,0.19052952527999878,0.03261812403798103,0.3798021376132965,-0.07761687785387039,0.05784051865339279,0.24969032406806946,-0.3282143473625183,0.01576213166117668,-0.42892125248908997,-0.059102341532707214,0.22197690606117249,0.29634740948677063,-0.27062490582466125,-0.08431166410446167,0.058512743562459946,-0.3144996464252472,-0.0870850458741188,-0.023069100454449654,-0.04595965892076492,0.33066046237945557,0.25885680317878723,0.004797531757503748,0.163932204246521,0.15002255141735077,0.2480228990316391,-0.30520302057266235,0.1680227667093277,-0.07936851680278778,0.09861478954553604,0.35736536979675293,0.011643581092357635,0.053367070853710175,0.16536495089530945,-0.23876544833183289,-0.0170018021017313,0.4118053913116455,0.5223434567451477,0.09691684693098068,-0.06250113248825073,-0.2876471281051636,-0.10397591441869736,0.05433744937181473,0.39294886589050293,0.09983180463314056,-0.11424592137336731,-0.14607085287570953,0.15785202383995056,-0.08464593440294266,-0.003560027340427041
stx-producing,0.1483563482761383,0.18572676181793213,0.6674466133117676,0.04926256090402603,0.053217943757772446,0.17023645341396332,-0.2537229359149933,-0.17619732022285461,0.03999391198158264,0.08107117563486099,-0.27666759490966797,0.056303683668375015,-0.007548493333160877,-0.030317388474941254,-0.5468795895576477,-0.07267601042985916,-0.13708803057670593,0.0683845803141594,-0.13378891348838806,0.2714520990848541,0.20234698057174683,-0.07107137888669968,-0.48693907260894775,0.2136705368757248,-0.10201866179704666,0.06913876533508301,0.06303562223911285,0.41388100385665894,-0.06275927275419235,-0.21773919463157654,0.5226315855979919,0.11625520139932632,0.08023989200592041,-0.18499594926834106,0.15590530633926392,0.17291758954524994,0.2413516491651535,0.2385786920785904,-0.13495707511901855,-0.13077594339847565,-0.17985756695270538,-0.030233114957809448,0.5319565534591675,0.40574386715888977,0.056685756891965866,0.1243450790643692,-0.15272079408168793,-0.28237947821617126,0.08330729603767395,-0.1838231235742569,0.23550991714000702,0.1902385801076889,-0.2925235331058502,0.0803418681025505,-0.3936390280723572,-0.038721274584531784,0.16658370196819305,-0.14553998410701752,0.1335432529449463,-0.035151634365320206,0.40417978167533875,0.10862060636281967,-0.06042391061782837,0.21600431203842163
sxtb,0.17521362006664276,0.03304813802242279,0.21185660362243652,-0.20583529770374298,0.08075006306171417,0.2267833948135376,-0.11772610247135162,0.22589415311813354,0.23456944525241852,0.2462056428194046,-0.03516073897480965,-0.05525817722082138,-0.19452832639217377,0.16134746372699738,-0.32819920778274536,-0.0013646933948621154,-0.2093326300382614,0.3522277772426605,-0.12860359251499176,0.1846216917037964,0.08577251434326172,-0.09392966330051422,0.04417165368795395,0.03654777631163597,0.41178199648857117,-0.257190078496933,-0.2891424298286438,-0.0023419943172484636,-0.16224099695682526,0.09117817133665085,0.5118845105171204,-0.014011302031576633,0.09140542149543762,-0.05605987459421158,0.27035796642303467,0.09204944223165512,0.6088961958885193,-0.3149101436138153,-0.18898218870162964,-0.21783240139484406,-0.23560121655464172,-0.10020498186349869,0.19516026973724365,0.057085905224084854,0.4180529713630676,0.4694053828716278,-0.020878206938505173,-0.10015135258436203,0.32960715889930725,-0.08289177715778351,0.3238050639629364,0.2639051377773285,0.35672158002853394,0.27042752504348755,-0.7731536030769348,0.03797253966331482,0.029101654887199402,-0.12619410455226898,0.3486994504928589,0.14224982261657715,0.15395556390285492,0.35747087001800537,0.08318550139665604,0.12418388575315475
poisoning toxins,-0.1500822901725769,-0.07558868825435638,0.7142645120620728,-0.04642925038933754,0.2533698081970215,0.39772024750709534,-0.25054383277893066,-0.1377711296081543,-0.03597782179713249,0.007634434383362532,-0.28632667660713196,-0.32882383465766907,0.10829917341470718,-0.21640314161777496,-0.005297217518091202,0.1365748792886734,0.348315566778183,0.7198415994644165,-0.06747753173112869,-0.228236123919487,0.1481858789920807,-0.22306817770004272,-0.1765584945678711,0.11981842666864395,0.5306224822998047,0.2485712766647339,0.11757627874612808,0.2618582844734192,-0.2746616303920746,0.20416858792304993,-0.11162535846233368,-0.10481839627027512,-0.2779768109321594,0.040270864963531494,0.11533565819263458,0.3182375133037567,0.27006587386131287,0.07089615613222122,-0.1232132762670517,-0.10175445675849915,0.49734094738960266,0.2789820432662964,0.029047183692455292,0.05268912762403488,-0.05521778389811516,0.23755000531673431,0.3217100501060486,-0.5030648708343506,0.3233444392681122,-0.11617066711187363,-0.0859484151005745,0.0862976685166359,0.18259263038635254,-0.007669411599636078,0.06138518452644348,-0.2508816719055176,0.008368966169655323,0.058903779834508896,-0.05514412000775337,-0.05460461229085922,-0.10204719007015228,0.24789327383041382,0.23715536296367645,0.07144336402416229
shellfish poisoning toxins,-0.005014488939195871,-0.2780795693397522,0.6597948670387268,-0.17143765091896057,0.11341230571269989,0.14902544021606445,-0.30869758129119873,-0.005290240049362183,0.32645881175994873,-0.008285118266940117,-0.13318301737308502,-0.24958433210849762,0.21042516827583313,-0.22109314799308777,-0.25791269540786743,0.009290773421525955,0.19760705530643463,0.24350135028362274,-0.03435031324625015,0.08482755720615387,-0.09402768313884735,-0.3016568422317505,-0.4255891442298889,0.15367962419986725,0.3908769190311432,0.015183662995696068,0.1958356648683548,0.12717802822589874,-0.09638112783432007,0.3258783221244812,-0.09830573946237564,-0.1148260161280632,-0.4836037755012512,0.015221101231873035,-0.07058177888393402,0.19972474873065948,0.05582772567868233,0.011238668113946915,-0.000727533595636487,-0.024020301178097725,0.32550331950187683,0.07673677057027817,-0.00421628262847662,0.25297820568084717,0.09354355186223984,0.3063644468784332,0.1001143604516983,-0.4172130227088928,0.3326057195663452,-0.39427450299263,0.09429161250591278,0.0497954897582531,0.2849820852279663,-0.13724353909492493,0.2080240547657013,-0.4087981581687927,-0.16003824770450592,-0.15936730802059174,0.12516523897647858,-0.30357858538627625,-0.5428736805915833,0.09015662223100662,0.4284956157207489,-0.008763010613620281
