Node,emb_0,emb_1,emb_2,emb_3,emb_4,emb_5,emb_6,emb_7,emb_8,emb_9,emb_10,emb_11,emb_12,emb_13,emb_14,emb_15,emb_16,emb_17,emb_18,emb_19,emb_20,emb_21,emb_22,emb_23,emb_24,emb_25,emb_26,emb_27,emb_28,emb_29,emb_30,emb_31,emb_32,emb_33,emb_34,emb_35,emb_36,emb_37,emb_38,emb_39,emb_40,emb_41,emb_42,emb_43,emb_44,emb_45,emb_46,emb_47,emb_48,emb_49,emb_50,emb_51,emb_52,emb_53,emb_54,emb_55,emb_56,emb_57,emb_58,emb_59,emb_60,emb_61,emb_62,emb_63
alexandrium,-0.10651592910289764,-0.18153254687786102,0.32961133122444153,-0.09201286733150482,0.04171048849821091,0.06138642132282257,0.04778672382235527,-0.061080168932676315,-0.09635894000530243,-0.025538139045238495,-0.11986733227968216,0.15063953399658203,0.19273380935192108,0.03297115117311478,-0.07929648458957672,-0.25942203402519226,0.1273038387298584,0.12162235379219055,-0.19219402968883514,0.16321417689323425,0.07658502459526062,0.11116490513086319,-0.011743547394871712,-0.0944930762052536,0.20926646888256073,-0.0849684402346611,0.023825442418456078,0.11340446770191193,0.07169773429632187,0.07840421050786972,-0.3770695924758911,-0.13850714266300201,-0.011365837417542934,-0.1752432882785797,0.13544027507305145,-0.3240010440349579,0.26111605763435364,0.033351361751556396,0.11950527131557465,0.0733589380979538,-0.016494397073984146,-0.044246379286050797,0.24980519711971283,0.06657380610704422,-0.04397517442703247,0.15340927243232727,-0.09367305785417557,-0.019470643252134323,-0.09695670008659363,-0.12490902096033096,0.18715505301952362,0.009843399748206139,0.16080915927886963,-0.2527042627334595,-0.22675181925296783,-0.09178934246301651,0.10661494731903076,-0.2143372744321823,-0.24555620551109314,-0.06196606904268265,0.00143623526673764,-0.0672769546508789,0.09998567402362823,0.24928370118141174
dinoflagellates,-0.01724531129002571,-0.3514414429664612,0.3040575683116913,-0.07457369565963745,-0.06728900969028473,-0.0008983195875771344,0.054891783744096756,-0.057438358664512634,-0.23755842447280884,-0.08471101522445679,-0.12095339596271515,0.11954541504383087,-0.033144280314445496,-0.03902192786335945,-0.15532900393009186,0.0835324302315712,0.0904548391699791,-0.051567669957876205,-0.10411856323480606,0.06908366084098816,0.08237985521554947,-0.06047676131129265,-0.07629755139350891,-0.06657836586236954,0.1455013006925583,0.034814998507499695,-0.24931447207927704,0.020001592114567757,0.0010625967988744378,0.06994146853685379,-0.15302234888076782,-0.1047358363866806,-0.24839740991592407,-0.09949768334627151,0.12142649292945862,-0.1606852263212204,0.3453900218009949,-0.0962633267045021,0.08732843399047852,0.1559995412826538,-0.25639650225639343,-0.15612775087356567,0.1884056031703949,0.20347504317760468,0.11685673147439957,0.16824719309806824,-0.0683295950293541,-0.06563708931207657,-0.18935884535312653,-0.03656516969203949,0.06499526649713516,0.10357645899057388,0.017406567931175232,-0.27963393926620483,-0.3055255115032196,-0.2378438264131546,0.18819738924503326,-0.11965567618608475,0.006847864016890526,-0.0472387932240963,-0.12651480734348297,0.26628270745277405,-0.037116724997758865,0.11223678290843964
paralytic shellfish toxins,0.12315021455287933,-0.3047395646572113,0.06575093418359756,-0.12190621346235275,-0.11855772137641907,0.06749578565359116,0.056237075477838516,-0.00295627280138433,0.029819607734680176,-0.08377543091773987,-0.10727689415216446,0.061937298625707626,0.14900581538677216,-0.2079993486404419,-0.1579747498035431,0.08095931261777878,0.12722820043563843,0.30793988704681396,-0.11633023619651794,0.46597638726234436,0.09854041039943695,-0.2203550785779953,-0.17075155675411224,0.1505722850561142,0.24153383076190948,-0.19552132487297058,0.03098822571337223,0.29473477602005005,-0.2095828354358673,0.20682044327259064,-0.17841683328151703,-0.09393788874149323,-0.09493917226791382,-0.19977718591690063,-0.17282822728157043,-0.2123318910598755,0.07978447526693344,-0.03724580630660057,-0.10571165382862091,-0.04143689572811127,-0.24324221909046173,-0.2093043029308319,0.1287892460823059,0.10157657414674759,-0.0449846014380455,0.2823246121406555,-0.15030667185783386,-0.044674597680568695,-0.0670735239982605,-0.1584286391735077,0.00560529762879014,-0.0012775770155712962,0.23285441100597382,-0.36350017786026,-0.04246512055397034,-0.09289029985666275,-0.04211929440498352,-0.029062451794743538,-0.10227276384830475,-0.061083536595106125,-0.0890505462884903,0.0894453227519989,0.1421433687210083,0.14566408097743988
saxitoxin,-0.20032410323619843,-0.2048553079366684,0.38316771388053894,-0.12542252242565155,-0.2149471640586853,0.009921165183186531,0.054822783917188644,-0.019224246963858604,-0.23902392387390137,-0.0523417629301548,-0.09308651089668274,-0.04992733895778656,0.07282088696956635,0.021837959066033363,-0.20583456754684448,0.15718023478984833,0.10748842358589172,0.17815718054771423,-0.13549044728279114,0.051671721041202545,0.06762906908988953,-0.1352570354938507,0.005230238661170006,-0.07802446186542511,0.11936982721090317,-0.0730251595377922,-0.12090514600276947,-0.05519193410873413,-0.132713183760643,-0.1423933506011963,-0.02907320111989975,-0.09234379976987839,-0.2555617690086365,-0.12872834503650665,0.08054202049970627,-0.08379238098859787,0.34244436025619507,-0.269585520029068,0.06220322474837303,0.0012310665333643556,-0.10302422195672989,-0.10133964568376541,0.11940670758485794,-0.04071681573987007,0.14773070812225342,0.18762612342834473,-0.019217053428292274,-0.26066291332244873,-0.2799648642539978,-0.14681732654571533,0.016066664829850197,0.0239737406373024,0.04161316156387329,-0.3773970305919647,-0.08559272438287735,-0.25235670804977417,0.16579873859882355,-0.037789225578308105,0.014145770110189915,-0.07636761665344238,-0.11423276364803314,0.22876591980457306,0.08719281852245331,0.1124686747789383
toxin profile,0.19598619639873505,-0.30075404047966003,-0.00661444989964366,-0.17938397824764252,0.04570756480097771,-0.014859931543469429,-0.09778618067502975,0.06868452578783035,0.30108779668807983,-0.013016742654144764,-0.1115490272641182,0.18642978370189667,0.2919420897960663,-0.06991904973983765,-0.1409776359796524,-0.10536199808120728,-0.1534355878829956,0.38592860102653503,-0.19719497859477997,0.20397910475730896,0.07082811743021011,0.08946017920970917,-0.1218952164053917,-0.2179565280675888,0.04523909091949463,-0.2170029878616333,0.028196584433317184,0.16082367300987244,-0.021795378997921944,0.29250994324684143,-0.10582562536001205,0.023728860542178154,-0.06364405155181885,0.0985104888677597,-0.2409408688545227,-0.01746300794184208,0.29290738701820374,0.11329571157693863,0.1665651649236679,0.05927861109375954,-0.061940938234329224,-0.18450945615768433,0.06685907393693924,0.05522887408733368,0.17055316269397736,0.3424111604690552,-0.23807093501091003,-0.027740664780139923,-0.08722878247499466,-0.37985414266586304,0.0517054907977581,0.1295662373304367,0.07898273319005966,-0.33398985862731934,0.025863680988550186,0.13398738205432892,0.01143884751945734,-0.07854893058538437,0.30560731887817383,-0.2316599190235138,-0.0018711367156356573,0.043264634907245636,0.2712487280368805,0.2808308005332947
toxin production,-0.3813132643699646,-0.2521989643573761,0.257931649684906,0.20735225081443787,0.05648233741521835,-0.021646054461598396,0.0038504633121192455,-0.2528526484966278,-0.15387995541095734,-0.19363313913345337,0.016375677660107613,-0.007395490538328886,-0.23921579122543335,-0.10269595682621002,0.03216142579913139,-0.26043701171875,-0.2927660644054413,0.07304080575704575,-0.07151181250810623,0.32306134700775146,0.11504852771759033,-0.11790143698453903,-0.06742476671934128,-0.14147169888019562,0.08816695958375931,0.11130514740943909,-0.16547246277332306,0.1672162264585495,-0.13779452443122864,-0.06112072616815567,-0.36210307478904724,-0.15137837827205658,-0.0664733424782753,0.005139465443789959,0.19752056896686554,-0.24067410826683044,0.3534161448478699,0.1642179787158966,0.07137861102819443,-0.08003367483615875,-0.03185237571597099,-0.052445124834775925,0.06112868711352348,0.054201144725084305,-0.09874453395605087,0.14723174273967743,-0.3616867959499359,-0.12085124850273132,0.010417954996228218,-0.2815159559249878,-0.121493861079216,0.1458822339773178,-0.09933469444513321,-0.24765998125076294,-0.20144955813884735,-0.05321564897894859,-0.055370185524225235,-0.21158680319786072,-0.020822128280997276,-0.184110626578331,-0.005847444292157888,0.07531506568193436,-0.1883557289838791,0.3743732273578644
gymnodinium catenatum,0.4657260775566101,-0.30181264877319336,0.2286829799413681,0.11023905873298645,0.05269080772995949,-0.13107512891292572,0.04776047542691231,0.18216656148433685,-0.19463683664798737,-0.1996370404958725,-0.1437382996082306,-0.012597981840372086,0.20475007593631744,-0.22460997104644775,0.005277569405734539,0.13547585904598236,-0.1390254646539688,0.189666748046875,-0.06661248952150345,0.12976279854774475,0.10994095355272293,0.015309822745621204,0.03192327171564102,0.190189391374588,0.1122613176703453,-0.2597024440765381,0.21821707487106323,-0.15813370048999786,-0.1351984441280365,0.09779766201972961,0.07062391936779022,-0.1185447946190834,-0.12669901549816132,0.24582359194755554,-0.3413310647010803,-0.08657584339380264,0.17583532631397247,0.17468780279159546,-0.11007536947727203,0.16185936331748962,-0.17664851248264313,-0.15194565057754517,0.22847141325473785,0.3416241705417633,0.20660172402858734,0.1844748556613922,0.11251029372215271,-0.2695912718772888,-0.04408882185816765,-0.24538536369800568,0.11166900396347046,-0.026196343824267387,0.07775087654590607,-0.23817893862724304,-0.2720162868499756,-0.048161666840314865,-0.2124900072813034,0.08660739660263062,0.4192979633808136,-0.3318440020084381,-0.24090243875980377,0.042390938848257065,0.19370198249816895,0.31805261969566345
paralytic shellfish poisoning,-0.0733570083975792,-0.5117928385734558,0.19821061193943024,-0.07978925853967667,0.037353191524744034,0.3361150920391083,-0.09962231665849686,-0.0805249884724617,-0.10444537550210953,0.03351670503616333,-0.08904610574245453,0.10515566170215607,0.024734608829021454,-0.1732170134782791,-0.1695937216281891,0.037038177251815796,0.2607799172401428,0.10895834863185883,-0.174045592546463,0.15366287529468536,0.23354865610599518,-0.1623266637325287,-0.1311296820640564,0.05613352358341217,0.4009314775466919,-0.18138228356838226,0.01144380122423172,-0.08044380694627762,-0.03798799589276314,0.05736323446035385,-0.1167449876666069,-0.2804518938064575,-0.2218378484249115,-0.02605130337178707,-0.044930797070264816,-0.06899610161781311,-0.025414999574422836,-0.25879788398742676,0.24353215098381042,0.04880097135901451,-0.222560852766037,-0.2539130449295044,0.18413721024990082,-0.05673087760806084,-0.12956951558589935,0.3150555491447449,-0.09442459046840668,-0.2044772207736969,-0.10022615641355515,-0.17242860794067383,-0.08685646206140518,0.14463216066360474,0.14782147109508514,-0.16596412658691406,-0.025466402992606163,-0.14553146064281464,0.18762677907943726,-0.031108861789107323,0.09229355305433273,-0.09491349756717682,-0.04958932101726532,0.2916330397129059,-0.023690080270171165,-0.10642722249031067
alexandrium tamarense,-0.01838775910437107,0.05586428567767143,0.2644787132740021,-0.034055497497320175,0.18922452628612518,0.08648653328418732,-0.03924206271767616,-0.13958315551280975,0.24931414425373077,0.13945382833480835,0.17625358700752258,-0.09840020537376404,0.20612671971321106,0.02613520808517933,0.1838921457529068,-0.2320990264415741,0.2736310064792633,0.16322578489780426,-0.17055922746658325,0.06702608615159988,-0.03416883200407028,0.2418341040611267,-0.4965994358062744,-0.412540078163147,0.37914010882377625,-0.23566848039627075,0.01035091932862997,0.2561272978782654,-0.15870672464370728,0.0018374314531683922,-0.1016293317079544,0.02531769685447216,-0.20844542980194092,-0.15755437314510345,-0.1072649285197258,-0.13747186958789825,0.015472723171114922,-0.04780544340610504,0.1312766820192337,0.193665012717247,0.11368808895349503,-0.08352644741535187,-0.004039086867123842,0.16220487654209137,-0.3273157477378845,0.2944391965866089,-0.24270834028720856,-0.0904260203242302,-0.06203946843743324,-0.3225423991680145,-0.07187522947788239,0.13866151869297028,0.1020868793129921,-0.22573314607143402,-0.10499640554189682,-0.3945595622062683,0.37227195501327515,-0.08699305355548859,-0.1234332025051117,-0.30273571610450745,-0.24676339328289032,0.2657729983329773,0.12889334559440613,0.127750426530838
alexandrium catenella,-0.006359711289405823,-0.09728080779314041,0.018747394904494286,0.00205613998696208,-0.06260974705219269,-0.08453153073787689,-0.10688559710979462,0.14701218903064728,-0.048374708741903305,0.11008927971124649,-0.3230421841144562,0.045609064400196075,0.10937674343585968,-0.0785030648112297,0.018773946911096573,-0.3099222183227539,0.09736164659261703,0.2436424195766449,0.33179953694343567,0.14596322178840637,0.04504954814910889,0.04734985530376434,-0.25037872791290283,0.10491090267896652,-0.1884739249944687,-0.26914986968040466,0.07987172901630402,0.01855207420885563,-0.13869915902614594,0.22113554179668427,-0.2019566148519516,-0.17680567502975464,0.044110335409641266,-0.34678927063941956,0.18563881516456604,-0.08773946017026901,0.37298649549484253,-0.1476825326681137,0.03792620450258255,0.30927518010139465,-0.3532535433769226,0.0034851310774683952,-0.09076322615146637,0.06273335963487625,-0.16095757484436035,0.3434557318687439,0.21929991245269775,0.19382159411907196,-0.23148785531520844,-0.2681090831756592,0.05358336493372917,-0.23049814999103546,0.08085411787033081,-0.23238389194011688,-0.3722020983695984,-0.1090327650308609,0.11239837110042572,-0.2484043836593628,-0.21388255059719086,0.0683760717511177,-0.18558616936206818,0.2672578990459442,0.3288745582103729,0.10362610965967178
saxitoxin biosynthesis,-0.25675272941589355,-0.005315569695085287,0.5784132480621338,-0.02954234927892685,-0.06185612082481384,-0.05165634676814079,-0.24156060814857483,0.09729830920696259,-0.1501058042049408,0.0701228603720665,-0.24934151768684387,-0.060963697731494904,0.011630657128989697,0.04912687465548515,-0.002596143167465925,-0.16257894039154053,0.16818206012248993,0.28474217653274536,-0.005298357456922531,-0.27650314569473267,0.14707691967487335,0.01827450469136238,0.044375695288181305,-0.3440089523792267,0.37057632207870483,-0.19659572839736938,-0.05209453031420708,-0.23767338693141937,0.17404958605766296,-0.04498482123017311,-0.19420132040977478,-0.2375120222568512,0.12401073426008224,-0.26872432231903076,0.1512746810913086,-0.019736193120479584,0.31295615434646606,0.07191423326730728,0.004498976748436689,0.135163813829422,-0.20309126377105713,-0.16745620965957642,0.32822349667549133,0.34392237663269043,0.28926223516464233,-0.035848796367645264,0.11485230177640915,-0.19361041486263275,-0.10882476717233658,-0.034126557409763336,0.21053364872932434,-0.12359242886304855,0.329414963722229,-0.037563253194093704,-0.3102336823940277,-0.16578514873981476,0.05857151001691818,-0.2357012778520584,0.18457013368606567,-0.10236005485057831,-0.31673160195350647,-0.16559810936450958,-0.06688407063484192,-0.0013128552818670869
gymnodinium,0.46769270300865173,-0.1461050659418106,0.25111833214759827,0.09448547661304474,-0.004726226907223463,-0.1618434637784958,0.08267640322446823,0.18687650561332703,-0.14368200302124023,-0.30126601457595825,-0.0883444994688034,0.04837276041507721,0.18817846477031708,-0.16372007131576538,-0.0642804354429245,0.1386178880929947,-0.04473057761788368,0.15373459458351135,-0.11500171571969986,0.18167875707149506,0.19877828657627106,-0.10389142483472824,0.008305085822939873,0.11766886711120605,0.1450100839138031,-0.20915581285953522,0.0623769573867321,-0.15289120376110077,0.03541369363665581,0.03592343255877495,0.04258459433913231,-0.040131766349077225,-0.26177388429641724,0.23013073205947876,-0.2586069107055664,-0.013454080559313297,0.27915313839912415,0.11879635602235794,-0.22791901230812073,0.11384741216897964,-0.04059946537017822,-0.20079255104064941,0.3080936670303345,0.3199473023414612,0.017481325194239616,0.28868773579597473,0.01590103842318058,-0.31267791986465454,-0.04011570289731026,-0.3297722637653351,0.160152405500412,0.07906933128833771,0.05247987434267998,-0.15157672762870789,-0.2152235209941864,0.03552696108818054,-0.22458209097385406,0.07328221946954727,0.44840189814567566,-0.27788591384887695,-0.23480428755283356,0.20330949127674103,0.1922064870595932,0.3261408507823944
biosynthesis,-0.24137356877326965,0.09532208740711212,0.3724115788936615,-0.1381690502166748,-0.24780432879924774,0.02740335837006569,-0.07921755313873291,-0.0019516514148563147,-0.21038803458213806,0.08760276436805725,-0.2113736867904663,-0.22758512198925018,0.03873477131128311,-0.15443813800811768,-0.14601993560791016,0.05124615505337715,0.22655434906482697,0.43243297934532166,0.15724292397499084,-0.3292298913002014,0.3216676414012909,0.09607192873954773,-0.02281869761645794,-0.2213195115327835,0.13045290112495422,-0.19717736542224884,0.0802738219499588,-0.04319550842046738,0.10067286342382431,-0.05287791043519974,-0.3207946717739105,-0.029631944373250008,0.06585852801799774,-0.3317703306674957,0.14980217814445496,-0.08790168911218643,0.45288270711898804,-0.08766942471265793,0.03445310518145561,-0.1957375407218933,-0.14829929172992706,-0.08654586970806122,0.2541823089122772,0.07337671518325806,0.18903930485248566,-0.002652987139299512,0.17660735547542572,-0.3447571396827698,-0.26453226804733276,0.1694348156452179,0.12143056094646454,-0.049280036240816116,0.0786740854382515,-0.1591077744960785,-0.38972780108451843,-0.3719429075717926,0.17697052657604218,-0.23878532648086548,0.2995419502258301,-0.23629476130008698,-0.12441447377204895,0.008035953156650066,-0.11166240274906158,-0.0014273733831942081
alexandrium minutum,-0.2743048667907715,-0.3819098472595215,0.24900709092617035,-0.021825741976499557,-0.08533793687820435,0.3166849911212921,-0.18979498744010925,0.17030297219753265,0.1934676617383957,-0.0742206871509552,-0.28994491696357727,-0.20524655282497406,-0.030521195381879807,-0.270236998796463,-0.12787404656410217,-0.04471875727176666,-0.18355245888233185,0.16450488567352295,-0.26490646600723267,0.22620783746242523,0.07148108631372452,-0.1551540493965149,0.14203156530857086,-0.010293988510966301,0.21553169190883636,-0.12341168522834778,0.11984491348266602,0.03217729553580284,0.03444020450115204,0.22266004979610443,-0.4233132600784302,-0.020634226500988007,-0.06942549347877502,-0.3532313406467438,0.18903909623622894,-0.10623370856046677,-0.050914227962493896,0.010943673551082611,0.3698746860027313,-0.1262955218553543,-0.42573070526123047,0.0653570145368576,0.2661204934120178,-0.145942822098732,-0.2991061806678772,0.1037386879324913,0.2010951191186905,-0.2117438167333603,0.1296839863061905,0.07940158993005753,-0.15856529772281647,0.06010875478386879,-0.031444475054740906,0.022812962532043457,-0.007966049015522003,0.11902114003896713,0.21622684597969055,-0.31380751729011536,-0.07304807007312775,-0.4685707688331604,-0.17593704164028168,0.04617299884557724,0.016030019149184227,0.4637298882007599
toxin content,-0.053532373160123825,-0.22780725359916687,0.22980116307735443,-0.25364476442337036,0.04927242174744606,-0.10220401734113693,-0.014748364686965942,-0.30721554160118103,0.024682562798261642,0.2884315550327301,-0.13325750827789307,-0.14631694555282593,0.20451053977012634,0.19151417911052704,0.029746372252702713,0.005922375246882439,-0.09160206466913223,0.47577226161956787,-0.07741504907608032,0.28212711215019226,0.06912889331579208,0.23038242757320404,-0.07619176805019379,0.08337411284446716,0.246902734041214,0.10223472118377686,-0.0084993876516819,0.045730412006378174,-0.22261889278888702,-0.009085199795663357,-0.02234080247581005,-0.07920193672180176,0.1715349704027176,-0.16917160153388977,0.1891951709985733,-0.18683168292045593,-0.02229267545044422,0.07261528074741364,-0.17750567197799683,0.0058743092231452465,-0.2720769941806793,0.04109331592917442,0.04167688265442848,-0.0692736953496933,0.1433725655078888,0.023063357919454575,-0.5185441374778748,-0.24754835665225983,-0.3896425664424896,-0.4305117726325989,-0.6319449543952942,0.08163656294345856,0.1755945235490799,-0.20381206274032593,-0.10925010591745377,-0.11347746104001999,-0.034098025411367416,-0.26313287019729614,0.13034842908382416,0.1979031264781952,-0.21011227369308472,-0.028053443878889084,0.04171597212553024,0.4583583474159241
toxin composition,0.017781555652618408,-0.4197397828102112,0.07291560620069504,0.17230571806430817,0.038950204849243164,0.041717298328876495,-0.1691908836364746,0.16466467082500458,-0.05951284244656563,0.08936513215303421,0.06964368373155594,0.07688438892364502,0.33815693855285645,-0.047248613089323044,0.08306603133678436,-0.23621366918087006,0.012985258363187313,0.3470097482204437,-0.0937679186463356,0.01614663191139698,0.2487492561340332,0.2500997483730316,-0.5044000148773193,0.09952829778194427,-0.03668367490172386,-0.12097083777189255,-0.2682400643825531,-0.10031269490718842,-0.12870191037654877,0.018361417576670647,-0.08067211508750916,-0.0026382282376289368,-0.027281129732728004,0.26030510663986206,0.15315888822078705,-0.19770441949367523,0.17792147397994995,0.17408959567546844,0.13166402280330658,0.04397858306765556,0.03899146988987923,0.13878940045833588,-0.21476387977600098,0.007852145470678806,0.05183931812644005,0.22723190486431122,-0.2486233413219452,0.06949350982904434,-0.2605900168418884,-0.4740186333656311,-0.22459347546100616,0.06359594315290451,-0.02773675136268139,-0.3630099892616272,-0.19704125821590424,0.004574387799948454,0.19280822575092316,-0.0703284963965416,0.3432838022708893,-0.033597107976675034,0.013329952023923397,0.01241304911673069,0.39775705337524414,0.37032392621040344
alexandrium pacificum,-0.05746215954422951,0.2940467596054077,0.40731433033943176,-0.10621239989995956,0.058271389454603195,-0.07023514062166214,-0.40869981050491333,0.07724643498659134,-0.07555346935987473,-0.10445096343755722,0.10525131970643997,-0.05116727948188782,0.12267269194126129,-0.09438544511795044,-0.2661447823047638,-0.20915958285331726,0.4099709987640381,0.4236968755722046,-0.1657753437757492,0.19060814380645752,0.12868435680866241,-0.23339222371578217,0.08485697954893112,-0.1029295101761818,0.1279534250497818,0.03015781380236149,0.13252755999565125,0.046187326312065125,0.1476675420999527,-0.2304125875234604,-0.2567897439002991,-0.3168763220310211,0.0698932409286499,-0.139509379863739,0.10310576856136322,-0.028828946873545647,0.3614517152309418,0.07923071086406708,-0.12467984110116959,-0.1986318677663803,-0.22399172186851501,-0.13120409846305847,-0.13372649252414703,0.39254230260849,-0.16471007466316223,0.19467638432979584,-0.060673076659440994,0.1746118664741516,0.230550155043602,-0.04033316299319267,-0.04189810901880264,-0.2176283895969391,-0.0033440813422203064,-0.31930333375930786,-0.2287241667509079,-0.3134213387966156,0.1818130910396576,-0.1285283863544464,0.01918623223900795,-0.20235086977481842,0.06950031220912933,0.2097521424293518,0.05950119346380234,0.10352709144353867
sxta,-0.24994462728500366,-0.3008851408958435,0.463948130607605,-0.0009591286070644855,0.20236451923847198,-0.05791888386011124,-0.22754569351673126,-0.14310459792613983,-0.20993569493293762,0.021185796707868576,-0.18304263055324554,-0.29784443974494934,0.17484930157661438,0.11154294013977051,-0.17783281207084656,-0.09702800959348679,0.18644267320632935,0.07936784625053406,0.13339757919311523,0.23551471531391144,0.13704192638397217,-0.011678938753902912,0.10748852044343948,0.060143664479255676,0.21457891166210175,-0.11614250391721725,0.0670606940984726,0.0102180615067482,0.15517722070217133,-0.066379114985466,-0.13410840928554535,0.08232869952917099,-0.02873622439801693,-0.3234224021434784,0.136788472533226,-0.003144890768453479,0.4052163064479828,-0.1603442281484604,-0.11377368122339249,0.054427620023489,-0.07477223873138428,-0.03427261859178543,0.23495478928089142,-0.15900875627994537,0.020648423582315445,0.0696205422282219,0.40494924783706665,-0.3217085301876068,0.06960511207580566,0.18459174036979675,0.1172100082039833,-0.18824726343154907,-0.07533483952283859,-0.35071614384651184,-0.4284796714782715,-0.18186119198799133,-0.0601741224527359,-0.2540590763092041,0.14448687434196472,-0.21023763716220856,-0.04157136380672455,0.15179505944252014,0.19145652651786804,0.16853229701519012
temperature,0.07289601862430573,-0.1298166811466217,0.28237491846084595,-0.15509846806526184,0.3595406711101532,-0.252531498670578,-0.03232932835817337,-0.18046005070209503,-0.19584332406520844,0.21804429590702057,-0.49552085995674133,0.1362949013710022,0.165015310049057,0.1288299709558487,0.015757445245981216,-0.14542119204998016,-0.18775789439678192,0.31254109740257263,0.022959910333156586,0.269828736782074,0.02618296630680561,-0.24032685160636902,0.08268152177333832,-0.35849499702453613,-0.05741832032799721,0.00586116686463356,-0.0528397336602211,0.11222629249095917,-0.2844078242778778,-0.019737204536795616,-0.10614520311355591,-0.2791730761528015,-0.28508394956588745,-0.0767226368188858,-0.12281811237335205,0.013016987591981888,0.30836495757102966,-0.010750618763267994,0.23913495242595673,0.0013238879619166255,-0.21760667860507965,0.048514772206544876,0.12710921466350555,0.09799423813819885,0.08743014931678772,-0.05056489631533623,0.010481206700205803,-0.2691572606563568,0.20922017097473145,-0.2922356426715851,-0.2620483338832855,0.14057298004627228,0.22526513040065765,-0.17402741312980652,0.10927560925483704,0.01821308396756649,0.18128211796283722,-0.18714739382266998,-0.20145544409751892,0.20567108690738678,0.16266536712646484,0.3245978355407715,0.22964824736118317,0.4538653492927551
cyanobacteria,-0.3933514654636383,-0.11404015123844147,0.309610515832901,0.17722536623477936,-0.21607469022274017,0.10887690633535385,-0.09746256470680237,-0.2802714705467224,-0.23624275624752045,0.09338497370481491,0.30467909574508667,-0.11789833754301071,-0.019403126090765,-0.1793728619813919,-0.3275592029094696,0.21751827001571655,0.4146100878715515,0.27705276012420654,0.03865348547697067,0.18532192707061768,-0.07054691761732101,-0.013020492158830166,-0.26829683780670166,-0.09937040507793427,0.10720208287239075,-0.20812419056892395,-0.2347898781299591,-0.16320472955703735,-0.14733855426311493,-0.1863780915737152,-0.07010966539382935,-0.030304396525025368,-0.24076220393180847,-0.04387883469462395,0.11675282567739487,-0.21392205357551575,0.28826454281806946,-0.2725996673107147,0.346973180770874,-0.42031052708625793,-0.3772702217102051,0.14693841338157654,0.39851224422454834,0.06528342515230179,0.2336093783378601,0.3777025043964386,0.13410137593746185,-0.36612749099731445,0.16928215324878693,-0.1296769082546234,0.061769191175699234,-0.3250673711299896,-0.153104767203331,-0.03242887184023857,-0.5995761752128601,-0.051521629095077515,-0.051952313631772995,-0.1969042271375656,0.13942575454711914,-0.11759741604328156,-0.09972631931304932,0.24659471213817596,-0.1381852775812149,-0.2050197422504425
sxt genes,-0.38376498222351074,-0.04705749824643135,0.29352521896362305,-0.10006827861070633,-0.05664099380373955,-0.014031355269253254,-0.1653195172548294,0.021709982305765152,-0.15455517172813416,0.0881713405251503,-0.40687239170074463,-0.06545989960432053,-0.14358378946781158,-0.17460709810256958,-0.03368651494383812,-0.19972966611385345,-0.29160168766975403,-0.00789167545735836,0.09763704240322113,-0.03795585036277771,-0.08896169066429138,-0.287677526473999,-0.20438934862613678,0.04893823340535164,0.3420408070087433,-0.2327345460653305,-0.2987969219684601,0.03700169175863266,0.0856119766831398,-0.30658385157585144,0.22817209362983704,-0.2165069580078125,-0.10032070428133011,0.05299050360918045,0.335775762796402,-0.10133274644613266,0.5330284833908081,-0.22670389711856842,-0.18458954989910126,0.21757467091083527,-0.23129558563232422,-0.2608148753643036,0.13083148002624512,0.21913988888263702,0.14135819673538208,0.12621410191059113,-0.024435317143797874,-0.20089839398860931,0.27782028913497925,0.11948364228010178,-0.10371273756027222,-0.12759369611740112,-0.15958358347415924,-0.19485226273536682,-0.4146236777305603,-0.2168838381767273,0.0954318717122078,-0.2895508110523224,0.2467537373304367,-0.3450903594493866,-0.24198442697525024,0.3346908390522003,0.07241730391979218,-0.0687386691570282
nitrogen,-0.2053781896829605,-0.1887371838092804,0.13076727092266083,0.013113196939229965,0.16494351625442505,-0.30582395195961,-0.05950957536697388,-0.15205365419387817,-0.18780240416526794,-0.11527536064386368,-0.1828310489654541,0.3653683066368103,-0.31600096821784973,0.09328440576791763,0.01683092676103115,-0.18208767473697662,-0.26830366253852844,0.283625066280365,-0.24948664009571075,0.2871825098991394,0.007676058914512396,0.3124963641166687,-0.19225682318210602,-0.16436907649040222,0.38221800327301025,0.04735369235277176,-0.07565352320671082,-0.11722942441701889,-0.24181817471981049,0.023728162050247192,-0.34811651706695557,-0.23001910746097565,0.05477459728717804,0.3227351903915405,0.2437817007303238,-0.27772191166877747,-0.030357133597135544,0.03145841881632805,0.33264485001564026,-0.11068359017372131,-0.09307398647069931,0.09275119751691818,0.048181623220443726,0.17072372138500214,0.04717481881380081,0.11778886616230011,-0.22984205186367035,-0.047935448586940765,-0.14289292693138123,-0.10576063394546509,0.10908840596675873,0.16373735666275024,0.024444006383419037,-0.21959775686264038,-0.18750593066215515,-0.11467922478914261,0.054685305804014206,-0.22370892763137817,-0.12698248028755188,-0.1320270150899887,-0.0009568723035044968,-0.4205305278301239,0.06341245025396347,0.6005897521972656
alexandrium fundyense,-0.1540832221508026,0.04582308232784271,0.3326873779296875,-0.18243172764778137,0.15169966220855713,0.05413311347365379,-0.1011551097035408,0.14863985776901245,-0.3637576997280121,0.004950452130287886,0.3246341645717621,-0.05777984485030174,0.44961610436439514,0.33454447984695435,0.09114541113376617,0.04733389988541603,0.0775398388504982,0.5214490294456482,-0.19419121742248535,0.3805123269557953,-0.07148654013872147,0.09463746100664139,0.21877844631671906,0.0671454593539238,-0.04810526594519615,-0.05482415482401848,-0.13054460287094116,-0.12986695766448975,-0.19167710840702057,-0.1959790289402008,-0.27635470032691956,-0.07722011208534241,0.20636454224586487,-0.02300078049302101,0.38851016759872437,-0.10996298491954803,0.1526469588279724,-0.3115330934524536,0.11756209284067154,0.1794729083776474,-0.025765186175704002,-0.15253029763698578,-0.10496439784765244,-0.10914985090494156,-0.204725444316864,-0.06278900802135468,-0.3970373570919037,-0.3006330132484436,-0.02891419269144535,-0.18671616911888123,0.1677720695734024,0.12766866385936737,-0.15484841167926788,-0.1852049082517624,-0.2839212715625763,0.03560399264097214,0.19559180736541748,-0.10094953328371048,0.06310117989778519,-0.5922096371650696,-0.2820776700973511,-0.24898315966129303,0.41079866886138916,0.09395501762628555
toxic dinoflagellate,0.14295779168605804,0.06912053376436234,0.19081079959869385,-0.052232496440410614,-0.08717194199562073,0.24799855053424835,0.19646534323692322,0.4181205630302429,-0.1520736962556839,0.41024917364120483,-0.2928829491138458,0.19832032918930054,-0.2784196734428406,-0.09559284895658493,-0.06567477434873581,0.06598757207393646,0.07454521954059601,0.2533033788204193,0.05982023477554321,0.4789253771305084,-0.06601317971944809,0.12281186878681183,-0.0053052701987326145,-0.22732870280742645,0.007905217818915844,-0.3311929702758789,-0.14540737867355347,0.017001593485474586,-0.07444310188293457,0.20075811445713043,-0.23571988940238953,-0.05751534923911095,-0.12283879518508911,0.004701194819062948,0.05708210915327072,-0.04588283970952034,0.36993345618247986,0.21561111509799957,0.3620622754096985,0.2152388095855713,0.003586404025554657,-0.025721438229084015,0.08500286936759949,0.0028508068062365055,0.0570838488638401,0.15307453274726868,-0.1241057813167572,-0.28159597516059875,0.043625593185424805,-0.1419270634651184,-0.20340949296951294,0.12314122170209885,0.16871508955955505,0.044366661459207535,-0.2713816463947296,-0.1963811218738556,0.12552043795585632,-0.21426935493946075,-0.39919421076774597,0.09194828569889069,-0.014493412338197231,0.3916909992694855,0.46571657061576843,0.4101158082485199
gonyautoxins,0.2684756815433502,-0.04672304540872574,0.10603781789541245,-0.1563766449689865,0.14476656913757324,0.013998880982398987,0.15171663463115692,0.21344006061553955,0.018246673047542572,0.2141934186220169,-0.16875913739204407,0.1639581173658371,0.19764547049999237,-0.03559791296720505,0.015971550717949867,-0.03465045243501663,-0.04673578962683678,0.18564659357070923,-0.08661974221467972,0.28271594643592834,0.037361107766628265,0.14595218002796173,-0.42353418469429016,-0.16757190227508545,-0.07700392603874207,-0.17766688764095306,0.060574937611818314,0.10315293073654175,0.04480645805597305,0.20168156921863556,-0.03678209334611893,-0.11533964425325394,-0.3272446095943451,-0.22746148705482483,0.14388234913349152,-0.14953243732452393,-0.018701953813433647,0.1552399843931198,0.001242645550519228,0.05012565106153488,-0.16440318524837494,0.0992928296327591,-0.1346251666545868,0.03138825297355652,0.14900846779346466,0.30975043773651123,-0.2848588824272156,-0.011282060295343399,-0.05943257361650467,-0.5062755942344666,-0.2170776128768921,0.18441374599933624,0.15923550724983215,-0.320906400680542,-0.2722020447254181,0.12561361491680145,0.1444273442029953,-0.30921995639801025,0.06469731032848358,-0.33487793803215027,0.12655840814113617,-0.07496728748083115,0.10399990528821945,0.27732428908348083
toxic dinoflagellate alexandrium,0.11295461654663086,-0.2403406947851181,0.08685354143381119,-0.3265308737754822,0.2690703868865967,0.3819805681705475,0.07046922296285629,0.44503253698349,0.059938181191682816,0.4356379210948944,-0.09572320431470871,0.39565545320510864,-0.1029798686504364,-0.13833385705947876,0.02522008679807186,-0.09183847159147263,0.08458402752876282,0.39026814699172974,0.0594916008412838,0.25411269068717957,0.24633213877677917,0.21237768232822418,-0.07694575935602188,-0.18670929968357086,0.201631098985672,-0.341293603181839,-0.11006501317024231,-0.24896638095378876,0.020121967419981956,0.3889148533344269,-0.20092269778251648,0.04435339942574501,-0.07474057376384735,-0.05330432578921318,-0.013860298320651054,-0.09366267919540405,0.3851005434989929,0.09470216929912567,0.1652340590953827,0.2197640836238861,0.0029974929057061672,0.1444673091173172,0.09244933724403381,0.10682753473520279,-0.10812929272651672,0.2462809681892395,-0.13183146715164185,0.05517187714576721,0.24504469335079193,-0.1504034399986267,-0.14196553826332092,0.20318378508090973,0.10934905707836151,0.09702398627996445,-0.3633537292480469,-0.1879791021347046,0.34656742215156555,-0.010367367416620255,-0.2575906813144684,0.008431184105575085,0.1585174798965454,0.29268407821655273,-0.10863970220088959,0.3996305763721466
pyrodinium bahamense,-0.03641051426529884,-0.23869732022285461,0.5822157859802246,-0.004247828386723995,0.22303687036037445,0.10174299031496048,0.40717875957489014,-0.10602248460054398,-0.1654432713985443,-0.5079343318939209,-0.412079781293869,-0.01145200990140438,0.14647425711154938,-0.08534755557775497,-0.17246942222118378,-0.044048115611076355,-0.12537671625614166,-0.05893449857831001,0.3999597728252411,-0.09238291531801224,0.04117891937494278,0.03545404225587845,0.421487420797348,0.036775946617126465,0.2367856800556183,-0.1510494202375412,0.006589700933545828,-0.1786056011915207,0.002646856475621462,-0.29732388257980347,-0.24797211587429047,0.049611806869506836,-0.10900893807411194,0.05118119344115257,-0.07613514363765717,-0.13298240303993225,0.4708574414253235,0.1602240353822708,-0.12050347030162811,-0.10288060456514359,-0.31691524386405945,-0.29870229959487915,-0.3039820194244385,0.20804932713508606,-0.11442027240991592,-0.036432117223739624,-0.16945135593414307,-0.3809574544429779,0.012994345277547836,-0.36793795228004456,-0.2254568338394165,0.09151457995176315,0.08201192319393158,-0.04249866306781769,-0.46898218989372253,0.2638791501522064,0.13500358164310455,0.05787067115306854,-0.19644507765769958,-0.3837331235408783,0.04121515899896622,0.459462970495224,0.1105729192495346,0.26157888770103455
pyrodinium,-0.40802425146102905,-0.33525046706199646,0.4410489797592163,0.11659213900566101,0.21719670295715332,0.00525771314278245,0.2513386905193329,0.07902250438928604,-0.17883040010929108,-0.46929386258125305,-0.7301232814788818,-0.05709478631615639,0.1662904918193817,0.1504172682762146,-0.08207531273365021,0.015730611979961395,0.2111843079328537,-0.03271261230111122,0.2572006583213806,0.11558601260185242,-0.06419098377227783,0.22345823049545288,0.3265383541584015,0.0577886663377285,0.28889909386634827,-0.05537727102637291,-0.012898576445877552,-0.21814318001270294,-0.013582218438386917,-0.156144380569458,-0.060805004090070724,0.4263863265514374,-0.16664031147956848,-0.10463251173496246,-0.32785823941230774,0.045909907668828964,0.17781834304332733,0.1129697859287262,0.12396827340126038,-0.07380292564630508,-0.07771012932062149,-0.2560339868068695,-0.2430688440799713,0.05476302653551102,0.09516406059265137,0.041927337646484375,-0.03688202053308487,-0.2576144337654114,-0.07086983323097229,-0.1289796233177185,-0.40924498438835144,-0.1073727235198021,-0.2216060310602188,-0.18369223177433014,-0.5231102108955383,0.03781838342547417,-0.013331223279237747,-0.03246486559510231,-0.108850859105587,-0.5428059697151184,-0.18053512275218964,0.5730655193328857,0.10957963764667511,0.36637040972709656
producing dinoflagellates,-0.054566606879234314,-0.5358261466026306,0.27560392022132874,-0.21818804740905762,-0.0612918883562088,-0.038919925689697266,0.23606270551681519,0.09386797994375229,-0.08695106953382492,0.1022464707493782,-0.008811818435788155,0.1353016048669815,-0.18257202208042145,0.19642013311386108,-0.1601470559835434,-0.2569665312767029,0.028476016595959663,0.19846750795841217,-0.28411346673965454,-0.021286064758896828,-0.03339610993862152,-0.1171918734908104,-0.09762844443321228,-0.09388124942779541,-0.021645713597536087,0.06514464318752289,-0.1501232534646988,-0.19824917614459991,-0.23827823996543884,-0.20318253338336945,0.18147675693035126,-0.07944031059741974,0.013303861021995544,-0.06983543187379837,0.16821542382240295,-0.056405533105134964,0.3999232351779938,0.06486087292432785,-0.25789695978164673,0.0669456347823143,-0.2217625379562378,-0.1956612914800644,-0.11552481353282928,-0.14682936668395996,-0.001537797972559929,-0.010609130375087261,-0.30888161063194275,-0.29075202345848083,0.17746879160404205,-0.12967835366725922,0.1847744584083557,-0.08986995369195938,-0.0053019155748188496,-0.3342076539993286,-0.48216962814331055,-0.13984696567058563,0.001956341089680791,-0.4528673589229584,0.061736851930618286,-0.35151156783103943,-0.07584530115127563,-0.2548103928565979,0.03148283436894417,0.037116359919309616
alexandrium spp,0.06780263781547546,-0.5272390842437744,0.2546934187412262,0.1109689474105835,-0.19282802939414978,0.09540530294179916,0.017041020095348358,-0.06889575719833374,0.1300974041223526,0.2928335666656494,-0.19727760553359985,-0.07213924080133438,-0.022649049758911133,-0.13050252199172974,-0.28633013367652893,-0.1380976289510727,0.1428806036710739,0.3517710864543915,0.19212764501571655,0.10671954602003098,-0.13266882300376892,0.08565787971019745,0.4085700809955597,-0.10717533528804779,0.1693093329668045,0.025993257761001587,0.08350225538015366,0.31553012132644653,-0.07346136122941971,0.023029401898384094,-0.3146923780441284,-0.03465330973267555,-0.20705245435237885,-0.03710441291332245,0.4022735357284546,0.06426684558391571,-0.028072280809283257,-0.12491156905889511,0.1787065714597702,0.09246484935283661,0.017729172483086586,-0.17656449973583221,-0.03486782684922218,0.1304212361574173,-0.058150943368673325,0.4008937478065491,-0.04202716052532196,0.02187117375433445,0.15812687575817108,0.007819335907697678,0.037471920251846313,0.14650073647499084,-0.18055389821529388,-0.44846779108047485,-0.08191286027431488,-0.18275319039821625,0.17002712190151215,-0.17988905310630798,-0.1016312837600708,-0.15016688406467438,-0.06832809001207352,0.04963067173957825,-0.07138022035360336,0.401254266500473
genus alexandrium,-0.26362887024879456,-0.344048410654068,0.04479449242353439,0.07120156288146973,0.3360893428325653,0.08354988694190979,0.26331308484077454,-0.06704609096050262,0.09653282910585403,-0.41822826862335205,-0.43766462802886963,0.12513339519500732,0.3534661829471588,0.06132019683718681,-0.07207029312849045,-0.3803876042366028,0.369619756937027,0.4394458830356598,-0.4299020767211914,-0.024001294746994972,0.012280304916203022,-0.12582232058048248,-0.00793635006994009,-0.11497997492551804,0.14845679700374603,-0.24587050080299377,0.012430627830326557,0.03684687986969948,0.05239573121070862,0.25990191102027893,0.09126855432987213,-0.15731140971183777,-0.16922228038311005,-0.28179988265037537,0.2115410715341568,-0.16171537339687347,0.3862663805484772,-0.04761088266968727,-0.390912801027298,0.32922622561454773,0.20058909058570862,0.08061231672763824,0.2510426640510559,0.03223427012562752,-0.08683837205171585,0.05694488435983658,-0.18373528122901917,-0.21878206729888916,0.11237180978059769,-0.13973864912986755,0.0033865144941955805,-0.03658677265048027,0.183312326669693,-0.027462823316454887,-0.2843391001224518,0.23205851018428802,0.018353896215558052,-0.42143598198890686,0.20866116881370544,0.36104875802993774,-0.18944504857063293,0.0635785162448883,0.15649935603141785,0.11660466343164444
stx biosynthesis genes,0.022780142724514008,0.08705383539199829,0.474098265171051,0.0977073609828949,0.10683461278676987,0.08171875029802322,-0.2432100623846054,0.33190906047821045,-0.39016076922416687,-0.025242144241929054,-0.45669928193092346,-0.3083733022212982,0.17517761886119843,0.058472756296396255,-0.15837770700454712,-0.4438932240009308,0.09313918650150299,0.2363077849149704,-0.2607695758342743,-0.296000599861145,0.47172608971595764,0.039487097412347794,0.20504042506217957,0.08503103256225586,0.015111781656742096,-0.4034441113471985,-0.3190498948097229,0.07598894834518433,-0.03857190161943436,-0.2513102889060974,-0.5131877660751343,0.024962492287158966,0.230413019657135,-0.3494647145271301,0.1723514050245285,-0.18506667017936707,0.5494828820228577,-0.24807427823543549,0.17648205161094666,0.08285976201295853,-0.31797581911087036,-0.25845396518707275,0.0281791053712368,0.15127567946910858,0.027996055781841278,0.3192947506904602,-0.3385583460330963,0.3279552459716797,0.0753316655755043,0.09123052656650543,0.18086035549640656,0.07325546443462372,0.022242499515414238,0.1593938171863556,-0.376910001039505,0.0201425738632679,-0.020563554018735886,-0.17862758040428162,0.03981829807162285,0.20124611258506775,-0.046883467584848404,0.10314159840345383,-0.016006724908947945,0.11874652653932571
sxtg,-0.17735636234283447,-0.2289162576198578,0.6971274614334106,-0.21276257932186127,-0.17181743681430817,-0.26832449436187744,-0.2129400074481964,-0.1257745772600174,-0.15777470171451569,0.07448280602693558,-0.19432753324508667,-0.21350625157356262,-0.0698087140917778,-0.3075070083141327,0.1746325045824051,-0.19182713329792023,-0.28421756625175476,0.14340128004550934,-0.12977908551692963,-0.07484635710716248,-0.08185336738824844,0.09690840542316437,0.00946887582540512,0.12370949238538742,0.08139366656541824,-0.32095518708229065,-0.1813420057296753,-0.08228348195552826,0.22884993255138397,0.08382398635149002,0.07744085043668747,-0.14724379777908325,-0.04180392622947693,-0.013098493218421936,0.27585968375205994,-0.1460416167974472,0.3728894591331482,-0.12402734905481339,-0.061772022396326065,0.2089841067790985,0.016530202701687813,0.04594555124640465,0.17628318071365356,0.026637407019734383,-0.16967397928237915,0.3684203028678894,0.001607379294000566,-0.4401051700115204,0.2714749872684479,0.09974103420972824,0.15137654542922974,-0.08649811148643494,-0.23827838897705078,-0.06300816684961319,-0.26773253083229065,-0.18935640156269073,-0.03948785737156868,-0.32606589794158936,0.157758891582489,-0.34692829847335815,-0.13382074236869812,0.13585251569747925,0.04190719500184059,-0.08657271414995193
dinoflagellate gymnodinium,0.6067167520523071,-0.2613762617111206,0.10630641132593155,0.16211792826652527,0.15926490724086761,-0.16973739862442017,-0.061713170260190964,-0.1293589323759079,-0.12813428044319153,-0.08458296954631805,-0.33848047256469727,-0.024296840652823448,-0.19106802344322205,-0.11146091669797897,-0.03920391947031021,0.2678926885128021,0.17585746943950653,0.23148007690906525,-0.16594748198986053,0.2621230483055115,0.28177839517593384,-0.04860060662031174,-0.30953678488731384,0.07866945117712021,-0.026495661586523056,-0.35548582673072815,-0.17625169456005096,-0.08214341104030609,-0.09312891215085983,-0.06342823803424835,0.06439751386642456,-0.12710796296596527,-0.03115391731262207,0.18763653934001923,-0.13975122570991516,-0.10812713950872421,0.08840777724981308,-0.01917644962668419,0.10034582763910294,0.4371505677700043,-0.07758694142103195,-0.08081546425819397,0.1720448136329651,0.14016520977020264,0.05232930928468704,0.2341676503419876,0.1512577086687088,0.1672893464565277,-0.11164234578609467,-0.3060392439365387,-0.17279142141342163,-0.07319518178701401,-0.0812225192785263,-0.436351478099823,-0.011856546625494957,0.04427522420883179,-0.02916623279452324,-0.01370203960686922,0.7833954691886902,-0.38171786069869995,-0.08450459688901901,0.15207982063293457,-0.08496787399053574,0.38563013076782227
gene expression,0.152898371219635,0.05790957063436508,0.295482337474823,0.002793998923152685,0.057632945477962494,0.09869197756052017,-0.06967431306838989,-0.04682382196187973,-0.15662947297096252,-0.27222973108291626,-0.2632363438606262,-0.4295504689216614,-0.10600602626800537,-0.15459056198596954,0.0886945128440857,-0.2255583256483078,-0.04447770491242409,0.32905369997024536,0.2309684306383133,-0.05712389573454857,-0.0331597663462162,0.04716267064213753,-0.026426060125231743,0.0837821215391159,0.05887308716773987,-0.5229049324989319,-0.24815717339515686,0.1382340043783188,-0.16566261649131775,0.2794187068939209,-0.24556179344654083,-0.13071803748607635,0.018891101703047752,-0.48505571484565735,-0.004135965369641781,0.10766442865133286,0.433346688747406,-0.006300176959484816,0.15898273885250092,-0.20330752432346344,-0.36203426122665405,0.050987906754016876,0.24939915537834167,-0.06079065427184105,0.2117815911769867,0.20404447615146637,-0.38832196593284607,-0.03474841266870499,0.16701829433441162,0.20465253293514252,0.2209698110818863,0.08479726314544678,-0.08841697871685028,-0.13132785260677338,-0.27399688959121704,-0.37803328037261963,0.25627484917640686,-0.33850598335266113,0.08937373757362366,0.15184776484966278,0.00827832706272602,-0.13873521983623505,-0.060928236693143845,0.3925486207008362
dinoflagellate gymnodinium catenatum,0.5378798246383667,-0.3457609713077545,0.13652783632278442,0.04861757159233093,0.07262896001338959,-0.16831518709659576,-0.12501269578933716,-0.08095447719097137,-0.24714697897434235,-0.13805125653743744,-0.2339247465133667,0.11336779594421387,-0.04493694379925728,-0.08975084125995636,-0.07985484600067139,0.2386726438999176,0.2945224344730377,0.3654245138168335,-0.22543330490589142,0.23934036493301392,0.18125373125076294,0.08762951195240021,-0.1788174957036972,0.21735259890556335,-0.08872699737548828,-0.41103971004486084,-0.15691255033016205,-0.2658507823944092,0.011973703280091286,-0.028435900807380676,0.0430619940161705,-0.04352014884352684,-0.20370665192604065,0.15298156440258026,-0.24914288520812988,-0.19029687345027924,0.13050489127635956,-0.05607251077890396,0.07730726897716522,0.22050230205059052,0.005220954772084951,-0.06397124379873276,0.1407804787158966,0.29455292224884033,0.08218955993652344,0.18850143253803253,0.06492768973112106,0.009900350123643875,-0.1929633766412735,-0.3229672312736511,-0.10836167633533478,-0.11272396147251129,0.10864733159542084,-0.48255860805511475,0.16009438037872314,-0.033817972987890244,0.029861852526664734,0.0730634480714798,0.5864831209182739,-0.4317622482776642,0.21979443728923798,0.16894280910491943,-0.15477652847766876,0.40439116954803467
toxic alexandrium,-0.24113301932811737,-0.6642481684684753,0.2667863070964813,-0.01912689208984375,-0.017024679109454155,0.36453115940093994,0.027397911995649338,-0.061662331223487854,-0.3877709209918976,-0.28411948680877686,-0.3277547359466553,-0.12939617037773132,-0.16826565563678741,-0.2095298171043396,-0.22094421088695526,0.04388594627380371,0.1274731159210205,0.5470927357673645,-0.10080531984567642,0.2115546315908432,-0.20289935171604156,-0.26510366797447205,0.027762001380324364,-0.21037611365318298,0.3246115446090698,-0.003135958220809698,0.440265029668808,0.34672173857688904,-0.0014360840432345867,-0.04813838750123978,-0.09817492961883545,-0.33802419900894165,0.12715944647789001,-0.1353912055492401,0.1538306623697281,0.21131877601146698,-0.019773995503783226,-0.20248550176620483,0.15571679174900055,0.36607012152671814,0.5517529249191284,0.29794594645500183,0.03054099716246128,0.26138561964035034,0.32581785321235657,0.21394899487495422,-0.17698048055171967,0.037314001470804214,-0.24534279108047485,-0.02696615271270275,-0.08474097400903702,0.20441626012325287,-0.18231123685836792,0.07796205580234528,-0.5201395750045776,-0.016118248924613,0.08283811062574387,0.030718941241502762,-0.1674163043498993,-0.07145804911851883,-0.037743017077445984,0.2479991912841797,0.08618627488613129,0.2348618507385254
phosphorus,-0.21446238458156586,-0.009000103920698166,0.1938694417476654,-0.15566357970237732,0.1746322512626648,-0.09343484789133072,-0.09529165178537369,-0.18832188844680786,-0.1878844052553177,-0.039606817066669464,-0.07794558256864548,0.28972598910331726,-0.2540392279624939,0.07275122404098511,-0.07505188882350922,-0.037600163370370865,-0.2096015363931656,0.29877719283103943,-0.16422609984874725,0.14578162133693695,0.18047788739204407,0.26106539368629456,-0.22008182108402252,-0.013128042221069336,0.0036224869545549154,-0.014735471457242966,-0.2036665380001068,0.06032659113407135,-0.19363148510456085,0.11869741976261139,-0.2527393102645874,-0.09267916530370712,-0.11094487458467484,0.21968048810958862,0.231853649020195,-0.12079844623804092,-0.05444929003715515,0.14615270495414734,0.333184152841568,-0.2760835587978363,0.008037609048187733,0.1055746003985405,0.09522626549005508,-0.03212219849228859,0.13942673802375793,0.09979359060525894,-0.22935475409030914,-0.04097213223576546,-0.043519943952560425,-0.2576054036617279,0.13568030297756195,0.050983529537916183,0.06331611424684525,-0.2064194232225418,-0.3522120714187622,-0.08977555483579636,0.23074132204055786,-0.36079785227775574,0.051633015275001526,-0.4001936912536621,-0.20687450468540192,-0.30059683322906494,0.26567384600639343,0.5339027643203735
salinity,-0.035626452416181564,-0.1685921549797058,0.2732188403606415,0.09958755224943161,0.0014445994747802615,-0.096940778195858,-0.05938984453678131,-0.1476292610168457,-0.043436288833618164,0.10965216159820557,-0.5054944753646851,0.2095094472169876,0.4736981987953186,0.05466047301888466,0.13083100318908691,-0.06626230478286743,-0.004278862848877907,0.19951559603214264,0.11031435430049896,0.26138198375701904,0.030261218547821045,-0.11130671203136444,0.17674186825752258,-0.4474981427192688,-0.2447187453508377,-0.16370566189289093,-0.046283137053251266,0.2423359453678131,-0.42313942313194275,-0.052607372403144836,-0.18327753245830536,0.1600205898284912,-0.09360431879758835,0.2703048586845398,0.011108096688985825,0.05025087296962738,0.313134104013443,0.028626877814531326,0.2987038791179657,-0.03169785067439079,-0.07883097231388092,0.04384554177522659,-0.22856810688972473,0.05624349042773247,0.17770667374134064,0.20295830070972443,0.11437065154314041,-0.2590336203575134,0.04588838294148445,-0.5639168620109558,-0.2136726975440979,-0.10614284127950668,0.22088539600372314,-0.15494166314601898,-0.1065797507762909,-0.06988484412431717,0.10899429768323898,-0.441170871257782,-0.15249672532081604,0.1301773190498352,0.16649748384952545,0.09556645900011063,0.08239458501338959,0.3077249228954315
toxic dinoflagellates,-0.07194474339485168,-0.30325570702552795,-0.020351843908429146,0.1473420262336731,0.4018809199333191,0.29037320613861084,-0.33445125818252563,-0.34901949763298035,-0.10686644166707993,0.23501791059970856,-0.3975178003311157,0.2708533704280853,0.06470104306936264,-0.21513736248016357,0.09556731581687927,0.012995812110602856,0.3151933252811432,0.3355855345726013,-0.014942223206162453,0.08373453468084335,-0.16372282803058624,-0.2727676033973694,0.2735253870487213,-0.24635200202465057,-0.07598517090082169,0.08707587420940399,-0.20083193480968475,-0.11000087857246399,-0.0462072491645813,0.1933111995458603,-0.6037439107894897,-0.28729861974716187,0.011320879682898521,0.21138881146907806,0.03046575002372265,-0.17275241017341614,0.3625880479812622,0.1171606108546257,-0.28402242064476013,0.15162549912929535,-0.28562816977500916,-0.025685584172606468,-0.0632806047797203,0.4137589931488037,0.032051630318164825,-0.09334211051464081,-0.06294627487659454,0.07445300370454788,-0.21092747151851654,0.055983107537031174,0.06096724048256874,0.25790369510650635,-0.26079556345939636,-0.12342754006385803,-0.18846465647220612,-0.2908373773097992,0.32471251487731934,0.01255473867058754,-0.031430475413799286,-0.23459778726100922,-0.1135089248418808,-0.031062373891472816,0.29456523060798645,0.12959127128124237
toxin-producing,-0.2832402288913727,-0.1842755377292633,0.037776924669742584,-0.1937071532011032,-0.10452678799629211,0.15043802559375763,0.03396360203623772,-0.28154417872428894,0.15218177437782288,0.18746353685855865,-0.44426408410072327,0.23738981783390045,0.3788049817085266,0.17389297485351562,-0.3713369369506836,0.09328989684581757,0.16171260178089142,0.3306024372577667,-0.36175617575645447,0.3289321959018707,0.02383146807551384,0.232787624001503,-0.26741668581962585,-0.16761834919452667,-0.18554331362247467,-0.3446873724460602,0.020888887345790863,0.08129533380270004,-0.12859080731868744,-0.19040599465370178,0.05851661413908005,-0.30045148730278015,-0.14800649881362915,-0.007987115532159805,-0.16109590232372284,-0.28130507469177246,0.13265322148799896,-0.004590379539877176,-0.08999062329530716,0.1815803050994873,-0.18848152458667755,-0.044829629361629486,-0.19701384007930756,0.2455306351184845,0.07470269501209259,-0.06871405243873596,-0.09519258886575699,-0.09477359801530838,-0.08829760551452637,-0.0068107168190181255,0.32313618063926697,0.2656571567058563,0.004683573264628649,0.04651768505573273,-0.33246201276779175,-0.15477408468723297,-0.40928590297698975,-0.24133864045143127,-0.19610697031021118,0.021987412124872208,-0.42448922991752625,-0.16560973227024078,-0.18713463842868805,0.5484814047813416
dinoflagellate alexandrium catenella,0.16204604506492615,0.02342991717159748,0.021061241626739502,0.018980061635375023,0.14927901327610016,-0.16236145794391632,-0.09659016132354736,0.34731197357177734,-0.2388981729745865,0.2761990427970886,-0.14372611045837402,-0.19130940735340118,-0.08619178086519241,0.01427429262548685,0.060676779597997665,-0.14795926213264465,-0.07508628815412521,0.3262574076652527,-0.07403529435396194,0.08196581155061722,0.3027612268924713,0.1602734476327896,-0.2790481448173523,-0.19476599991321564,-0.140044167637825,-0.43322664499282837,0.332125723361969,-0.22482997179031372,0.10914633423089981,0.031424734741449356,-0.2523936331272125,-0.1391601860523224,0.12139631062746048,-0.26485344767570496,0.17520296573638916,0.1883750855922699,0.32938095927238464,-0.42303889989852905,0.4030725657939911,0.34518691897392273,-0.21811668574810028,-0.3694330155849457,0.06046338006854057,0.05898946523666382,-0.23823434114456177,0.23883919417858124,-0.012261847034096718,0.04099724069237709,-0.13602842390537262,-0.11799205094575882,0.01246452983468771,0.08555210381746292,0.022928312420845032,-0.19390740990638733,-0.6731546521186829,0.00013730194768868387,0.022465314716100693,-0.15105387568473816,-0.3927637040615082,0.15644562244415283,0.01936149038374424,0.296787828207016,-0.05406060442328453,0.3704756796360016
dcstx,0.18040619790554047,-0.021354708820581436,0.04622950777411461,-0.1254507303237915,-0.08141980320215225,0.257727712392807,-0.080398328602314,0.3459315598011017,-0.09938505291938782,-0.08612675219774246,-0.02046065963804722,0.026901500299572945,0.1090320572257042,-0.1041746437549591,0.45168209075927734,0.1443013846874237,0.08697496354579926,0.5185767412185669,0.15072958171367645,0.7177257537841797,0.3221745789051056,-0.3059435188770294,-0.17145362496376038,0.12086565792560577,0.02050209417939186,-0.4293166399002075,0.01263282261788845,0.11341415345668793,0.06933356821537018,0.25906363129615784,-0.06915166229009628,-0.0022533826995640993,-0.1815394163131714,0.12581773102283478,-0.3221992254257202,0.06205498427152634,0.029940539970993996,-0.08900189399719238,0.0775267481803894,0.5217444896697998,-0.1876632422208786,-0.3423214256763458,-0.05268466845154762,-0.05426688864827156,0.3849261403083801,0.3828642964363098,0.07568233460187912,-0.0668146014213562,-0.10115234553813934,-0.40070146322250366,0.17423123121261597,-0.1072654202580452,0.06700854003429413,-0.2334199696779251,-0.2000732272863388,0.031207354739308357,-0.01536722481250763,0.04926679655909538,0.16276463866233826,-0.3255329430103302,0.037544045597314835,0.2728627026081085,-0.22998759150505066,0.24100016057491302
gene transfer,0.012448180466890335,-0.05864213407039642,0.440940260887146,-0.008924407884478569,-0.12668202817440033,-0.08008743822574615,-0.1124335452914238,-0.20313452184200287,-0.41476675868034363,0.08022239059209824,-0.29366037249565125,-0.1732911616563797,0.1663321554660797,-0.0785105749964714,-0.42798566818237305,0.13217471539974213,-0.23660872876644135,0.6578418612480164,0.08463229238986969,-0.36396780610084534,0.07294780761003494,-0.11231491714715958,-0.23327261209487915,-0.29075291752815247,0.25080788135528564,0.23396974802017212,-0.29764631390571594,-0.2671559751033783,0.0948169082403183,0.061384499073028564,-0.21595372259616852,-0.26707687973976135,0.26649346947669983,-0.3266502916812897,-0.1661658138036728,-0.42664143443107605,0.10154131799936295,-0.045643150806427,0.13088475167751312,0.1750592589378357,-0.09489716589450836,-0.21467864513397217,0.185359925031662,0.2772579789161682,0.05057895556092262,0.008047563023865223,0.06614962965250015,-0.2627148926258087,0.2365466058254242,-0.1924753338098526,0.3571144640445709,-0.6067506074905396,-0.3840140104293823,0.21132992208003998,-0.42638033628463745,0.16623952984809875,0.12253018468618393,-0.2532867193222046,-0.014151342213153839,-0.2251027375459671,-0.41262534260749817,0.33684417605400085,-0.3764428198337555,0.004454105161130428
horizontal gene transfer,-0.04937196522951126,0.19765257835388184,0.5862076878547668,0.2963697910308838,-0.011681378819048405,0.035683877766132355,-0.2149558663368225,-0.027741258963942528,-0.33297351002693176,0.09394878149032593,-0.22018928825855255,-0.25174349546432495,0.05908111110329628,-0.01124933548271656,-0.394347220659256,0.1853998452425003,-0.16937220096588135,0.5009630918502808,0.025651151314377785,-0.21887362003326416,0.11765347421169281,-0.10719111561775208,-0.17965112626552582,-0.44110119342803955,0.11891534924507141,0.09272318333387375,-0.20563960075378418,-0.3295688331127167,0.2141883671283722,0.338165283203125,-0.3428519368171692,-0.25584208965301514,0.11653255671262741,-0.18726976215839386,-0.05978216603398323,-0.16689173877239227,0.1370444893836975,-0.151728093624115,-0.23642447590827942,0.14443287253379822,0.0144076868891716,-0.11111075431108475,0.437178373336792,0.20355473458766937,0.17927594482898712,0.06161877512931824,-0.058354854583740234,-0.30439645051956177,0.21489031612873077,-0.1343582421541214,0.26372408866882324,-0.14474834501743317,-0.5104495286941528,-0.15390534698963165,-0.44025954604148865,0.39575818181037903,0.025797516107559204,-0.3220255672931671,-0.021587062627077103,-0.40447086095809937,-0.26683199405670166,0.42433205246925354,-0.20507127046585083,-0.0678308978676796
alexandrium ostenfeldii,-0.09067399799823761,-0.5506691932678223,0.16751515865325928,0.3740377724170685,-0.39292141795158386,0.13138899207115173,0.3100675940513611,-0.04655967280268669,0.35735732316970825,0.17110906541347504,-0.3750132620334625,0.17759914696216583,0.3988964557647705,-0.1776503026485443,-0.2589067816734314,0.04944545403122902,0.09536465257406235,0.12978367507457733,-0.12146908789873123,0.5639077425003052,0.0513298399746418,-0.04789760708808899,-0.2187119722366333,-0.02617397904396057,0.021024199202656746,-0.26721295714378357,0.06696338951587677,0.01793823577463627,0.011598129756748676,-0.20339979231357574,-0.14389173686504364,-0.5513966083526611,-0.09080181270837784,-0.0028938017785549164,0.03522975742816925,0.10117566585540771,-0.1942773014307022,-0.03157476335763931,0.06174593046307564,-0.0007056929171085358,-0.3685685396194458,-0.18858768045902252,0.5334072113037109,0.034446388483047485,-0.06241803243756294,-0.28700608015060425,-0.1629176139831543,0.01138664036989212,0.32092976570129395,-0.3005358576774597,0.16976703703403473,0.017162540927529335,0.11098701506853104,0.22301210463047028,-0.19519591331481934,-0.32366541028022766,0.13828356564044952,-0.42068102955818176,-0.0225874874740839,-0.19476714730262756,-0.09535635262727737,-0.02679377794265747,-0.1910499781370163,0.44834980368614197
producing dinoflagellate,-0.3918907344341278,0.10792150348424911,0.2677423357963562,-0.3519035577774048,-0.0854029655456543,-0.027352411299943924,-0.05235547572374344,0.23726558685302734,-0.1283807009458542,-0.4188774824142456,-0.2416834533214569,0.13425147533416748,-0.02446843311190605,0.08240322023630142,-0.11908528953790665,0.24929291009902954,-0.04584250971674919,0.49908775091171265,-0.24008792638778687,0.3233281075954437,-0.22019720077514648,0.276852548122406,-0.4585287272930145,0.025493619963526726,0.09940262883901596,-0.15814611315727234,-0.012019180692732334,-0.06290086358785629,-0.182455912232399,-0.14998187124729156,-0.6240407228469849,-0.05283696949481964,-0.07995855063199997,-0.26607075333595276,-0.07468262314796448,-0.07311203330755234,0.05962646007537842,-0.4088764488697052,-0.23866035044193268,0.23649773001670837,-0.21169404685497284,-0.2082088738679886,0.034612856805324554,0.09986364096403122,-0.14451844990253448,0.408565491437912,0.11375851929187775,-0.27830228209495544,0.34514158964157104,0.18919986486434937,0.3489912450313568,0.09486682713031769,-0.11136285960674286,-0.05718757212162018,-0.1760784536600113,-0.13432151079177856,-0.09007424116134644,0.16631083190441132,0.08106164634227753,0.04770972207188606,-0.035173531621694565,-0.0447283498942852,0.18262799084186554,0.4567370116710663
toxic cyanobacteria,-0.17168951034545898,-0.3416971266269684,0.20139670372009277,0.03157462179660797,0.01123103965073824,0.07386922836303711,-0.45596128702163696,-0.038605697453022,-0.1671787053346634,0.06271367520093918,-0.16269323229789734,-0.16982409358024597,-0.40628471970558167,-0.2025732696056366,0.23009899258613586,0.08702952414751053,-0.3032549023628235,0.16648617386817932,0.06924866884946823,0.09507536143064499,-0.16607587039470673,0.13433285057544708,0.0697518065571785,-0.11306114494800568,0.3969898521900177,-0.3176063895225525,-0.15167021751403809,0.04302555322647095,-0.14776620268821716,-0.27790510654449463,0.5273244380950928,-0.09908393025398254,-0.20073740184307098,-0.08066927641630173,0.4775683581829071,-0.059029579162597656,0.4454042613506317,-0.2548724412918091,-0.3556497097015381,0.021827859804034233,-0.0934530720114708,-0.31647831201553345,0.030163589864969254,-0.05453193932771683,0.008121865801513195,0.37887686491012573,0.0564269982278347,-0.25384318828582764,0.348251074552536,-0.21215692162513733,0.10150767117738724,-0.058524876832962036,-0.12296432256698608,-0.1427694708108902,-0.5283504128456116,-0.5988874435424805,0.09526620805263519,-0.11643610894680023,0.16509544849395752,-0.18263106048107147,-0.03425535559654236,0.2848818004131317,-0.04058041423559189,-0.023042364045977592
biosynthesis genes,0.07554853707551956,-0.13420239090919495,0.5944720506668091,0.11865651607513428,0.23777921497821808,-0.21802115440368652,-0.09470086544752121,0.48510995507240295,-0.43533042073249817,-0.05621158331632614,-0.19124045968055725,-0.2634609639644623,-0.02568127028644085,-0.2639930248260498,-0.17254164814949036,-0.23543861508369446,0.15129798650741577,0.2614924907684326,-0.03588143363595009,-0.1746019870042801,0.28211453557014465,-0.006226641591638327,-0.07604598999023438,-0.06414992362260818,-0.03825319930911064,-0.2540392577648163,-0.036510828882455826,-0.11531666666269302,0.07619190216064453,-0.29337501525878906,-0.663744330406189,-0.023649508133530617,0.41435468196868896,-0.2600086033344269,0.15093955397605896,-0.29059043526649475,0.23018285632133484,-0.2725067436695099,0.10456479340791702,-0.03189398720860481,-0.34725648164749146,-0.24600154161453247,-0.103434257209301,0.1230681762099266,0.06671535968780518,0.0630238950252533,-0.2996148467063904,0.065435029566288,-0.18119342625141144,0.055735163390636444,0.23207080364227295,0.1115870475769043,0.07387707382440567,0.22642509639263153,-0.3259985148906708,-0.28701528906822205,-0.18737103044986725,-0.13329258561134338,0.0317598395049572,-0.017371077090501785,0.013993251137435436,0.2565436363220215,-0.05441347137093544,0.18440186977386475
evolution,-0.1990155279636383,-0.22582845389842987,0.6549877524375916,0.07123546302318573,0.016588598489761353,0.2744477689266205,0.12754957377910614,0.071180060505867,-0.15526986122131348,-0.11389360576868057,-0.1948712170124054,-0.338652640581131,0.15101774036884308,-0.19640305638313293,-0.35222750902175903,-0.2413007766008377,0.10267022252082825,0.05601116642355919,-0.14480139315128326,-0.23996959626674652,0.27516788244247437,-0.07553094625473022,0.009232339449226856,-0.31907305121421814,0.17487260699272156,0.21961307525634766,-0.4260089099407196,-0.25395357608795166,-0.30790120363235474,0.221358060836792,0.15659840404987335,-0.19125372171401978,0.05124806985259056,0.26216721534729004,-0.09039721637964249,-0.1092875599861145,0.2516304552555084,-0.09105995297431946,0.08825381100177765,0.2440204620361328,-0.46281740069389343,-0.0744812935590744,0.019143961369991302,0.026706919074058533,0.10719209164381027,0.11975561082363129,0.08989259600639343,-0.7333735227584839,0.10548851639032364,0.18999075889587402,0.18989144265651703,-0.12177450954914093,-0.23186925053596497,0.04258004203438759,-0.3599734902381897,0.09232965856790543,0.10737095773220062,-0.005017469171434641,0.1337389349937439,-0.3273922801017761,-0.16208283603191376,0.41129958629608154,-0.26940229535102844,0.011505667120218277
dinoflagellate alexandrium minutum,-0.3228491544723511,-0.30794045329093933,0.5209173560142517,-0.24898934364318848,0.2734321057796478,0.1197744831442833,-0.22105544805526733,-0.3670124113559723,0.006392302922904491,0.07737136632204056,-0.2055627852678299,0.08790216594934464,-0.2274792194366455,-0.5009245276451111,0.3777919113636017,-0.16827784478664398,-0.015480333007872105,0.43364188075065613,-0.18057063221931458,-0.05945952609181404,0.13336063921451569,-0.03631892055273056,-0.17730757594108582,-0.006987953092902899,0.09544701129198074,-0.28146693110466003,-0.26247915625572205,-0.19255872070789337,-0.16646122932434082,0.31652238965034485,-0.12011583149433136,-0.037593383342027664,0.17274966835975647,-0.23790380358695984,-0.04404405876994133,0.5163121223449707,0.16622759401798248,-0.0928148627281189,0.44024232029914856,-0.004962801467627287,-0.10203523933887482,0.1307680457830429,-0.06943836063146591,0.07326535880565643,-0.13188186287879944,0.018133899196982384,0.1569840908050537,-0.008617940358817577,0.11306408792734146,-0.11577197909355164,0.05462171509861946,0.1888515055179596,0.1966325342655182,-0.06955759227275848,-0.11839757859706879,0.08153003454208374,-0.23354503512382507,-0.35196685791015625,0.09452404081821442,-0.15921300649642944,-0.2104102224111557,-0.0837731882929802,0.0860971212387085,0.5535548329353333
neostx,0.06036393344402313,-0.1962844878435135,-0.0523773729801178,-0.025784822180867195,0.07248964160680771,-0.09818106889724731,-0.08473848551511765,0.30572646856307983,0.03561021015048027,0.05810512229800224,-0.3001643419265747,0.01943720318377018,0.16553543508052826,0.058143120259046555,0.21202640235424042,0.002531948732212186,0.20711733400821686,0.5779781341552734,-0.0001459931954741478,0.15441164374351501,0.2519499361515045,0.27228260040283203,-0.18090060353279114,-0.08708987385034561,-0.18323002755641937,-0.0730804055929184,0.08823331445455551,0.0654795691370964,-0.14488600194454193,0.1245453953742981,-0.01251535676419735,-0.13766488432884216,-0.10105666518211365,-0.28580519556999207,0.005024045705795288,-0.2433159202337265,0.28638261556625366,-0.261435866355896,-0.026040010154247284,0.004708815831691027,0.15966494381427765,0.08500756323337555,-0.026754269376397133,0.11231520026922226,-0.07821467518806458,0.29965171217918396,-0.12710902094841003,0.02660723216831684,-0.2471446990966797,-0.4575916528701782,0.02095101960003376,-0.17567026615142822,-0.14716969430446625,0.010405122302472591,-0.335051566362381,0.0772915706038475,0.17366281151771545,-0.27431419491767883,-0.14594800770282745,0.32526761293411255,0.037690967321395874,0.3212739825248718,0.20885370671749115,0.38210776448249817
nutrient limitation,-0.13413453102111816,-0.09702716022729874,0.06969904899597168,-0.24724233150482178,0.007883851416409016,-0.48091059923171997,0.15694352984428406,-0.1592540740966797,-0.13183940947055817,0.37046733498573303,0.08305148780345917,0.009573820978403091,0.10044018179178238,-0.10928958654403687,-0.19039462506771088,-0.09135288745164871,-0.05295724421739578,0.40860822796821594,-0.33565065264701843,0.25080859661102295,0.2625311315059662,0.2660609781742096,0.03646770492196083,-0.0693008080124855,0.318189799785614,-0.19681380689144135,-0.23389093577861786,-0.06497669965028763,-0.17380885779857635,-0.10443779826164246,-0.1464906632900238,-0.3269061744213104,-0.1099155992269516,0.05316997319459915,0.03988483175635338,-0.14058275520801544,-0.1601538360118866,-0.019319526851177216,-0.03547653928399086,0.12197230756282806,-0.06016376242041588,0.13595031201839447,-0.24288497865200043,-0.594288170337677,0.0854429304599762,0.14025728404521942,-0.3340289294719696,0.0851636752486229,-0.09472507983446121,-0.18081505596637726,-0.06551141291856766,0.07239702343940735,-0.027997244149446487,-0.24769404530525208,-0.30580300092697144,0.12597517669200897,0.3025027811527252,-0.11639927327632904,0.08141503483057022,-0.6623011827468872,-0.18140438199043274,-0.27327778935432434,0.4089455008506775,0.36629098653793335
genes involved,-0.17703752219676971,-0.14400164783000946,0.3726995587348938,-0.026885610073804855,-0.015088124200701714,-0.05311201140284538,-0.40752846002578735,-0.08994383364915848,0.08404223620891571,-0.24262315034866333,-0.0687100738286972,-0.0553290955722332,-0.03832004964351654,-0.3706696927547455,0.044599324464797974,0.04854867607355118,-0.3284147381782532,0.3430503308773041,0.15566429495811462,0.15876998007297516,0.13178898394107819,-0.062115203589200974,-0.14485225081443787,-0.03526931256055832,0.15878716111183167,-0.18993672728538513,-0.2415970265865326,-0.14635297656059265,-0.056910786777734756,-0.09504414349794388,0.03262943774461746,-0.2692984640598297,-0.06002078205347061,-0.31936129927635193,-0.0003761167172342539,-0.06823483854532242,0.18805330991744995,0.24304568767547607,-0.07558024674654007,-0.13796664774417877,-0.42802953720092773,0.34104493260383606,-0.014750060625374317,0.1199507862329483,-0.045298002660274506,0.31810083985328674,-0.09098311513662338,-0.5207130908966064,-0.12309582531452179,0.4520915746688843,0.2770105302333832,0.16182635724544525,-0.25430601835250854,-0.04190189763903618,-0.6281830072402954,-0.448627233505249,0.2385648638010025,-0.1823490560054779,0.38905784487724304,-0.10964608192443848,0.1680891364812851,0.1620921939611435,-0.2321978658437729,-0.05801830440759659
biosynthesis gene,-0.22843116521835327,0.029863934963941574,0.30997392535209656,-0.16790010035037994,-0.10708563774824142,0.04626961052417755,-0.17029687762260437,0.012792974710464478,-0.5282248258590698,-0.07329250872135162,-0.366682231426239,-0.0594538077712059,-0.2892861068248749,-0.0435774140059948,0.1783258616924286,-0.04127703234553337,0.35129937529563904,0.4365791976451874,0.13505007326602936,-0.09988142549991608,-0.04104147106409073,-0.4255126714706421,-0.07794289290904999,-0.049629297107458115,-0.019452013075351715,-0.649146556854248,0.049414195120334625,-0.07052970677614212,0.028997698798775673,0.13725633919239044,0.15515196323394775,0.05271361395716667,-0.1656472384929657,-0.3644216060638428,0.196978360414505,-0.2085856795310974,0.1070648729801178,0.1176670640707016,0.07587087154388428,-0.23019064962863922,-0.19343291223049164,-0.2991759181022644,0.21663013100624084,0.024548737332224846,-0.011196655221283436,0.22037291526794434,-0.3889973759651184,-0.0951102003455162,0.1958756148815155,0.1905379742383957,0.22484031319618225,0.037895988672971725,-0.08047809451818466,0.16409339010715485,-0.2572689950466156,-0.062480926513671875,0.0507410503923893,-0.40614062547683716,-0.008870871737599373,-0.4673141837120056,-0.2994077801704407,-0.022480009123682976,0.28753525018692017,0.07299334555864334
dinoflagellate alexandrium tamarense,0.010305603966116905,-0.16694453358650208,0.008583979681134224,-0.3320769667625427,0.16525469720363617,0.26819318532943726,-0.17762424051761627,0.08069354295730591,-0.07745261490345001,0.43176451325416565,0.02780213952064514,0.14620564877986908,-0.35726064443588257,-0.14019639790058136,-0.0352221354842186,-0.06324854493141174,0.2783304750919342,-0.0989142581820488,-0.005055180285125971,0.14267069101333618,-0.17269161343574524,0.30800607800483704,-0.24051812291145325,-0.40218350291252136,0.5443612337112427,-0.33841338753700256,0.08734068274497986,0.0844414010643959,0.014960472472012043,0.10562974959611893,-0.44746214151382446,-0.0033363625407218933,-0.2581700384616852,-0.03964146599173546,-0.15156003832817078,-0.16935919225215912,0.2934267520904541,0.08059266954660416,0.04837802052497864,0.21004147827625275,-0.05770484358072281,0.306163489818573,-0.2740948498249054,0.2948455810546875,-0.4564114212989807,0.18488791584968567,0.10063862055540085,-0.0425683818757534,0.10486698150634766,-0.4883712828159332,0.16535930335521698,0.255057692527771,-0.14875811338424683,-0.365894615650177,-0.31574755907058716,0.06139315292239189,0.029947694391012192,-0.2750227451324463,-0.15126480162143707,0.05198865756392479,-0.38486790657043457,-0.16362953186035156,0.030278215184807777,0.33969300985336304
paralytic shellfish toxin profiles,0.23486793041229248,-0.11785248667001724,-0.2243884950876236,-0.02212543413043022,0.05880485847592354,-0.27610740065574646,-0.004028317518532276,0.034175727516412735,0.12519916892051697,0.1098400130867958,-0.5078035593032837,0.1606445014476776,0.4228188991546631,0.05226481333374977,0.41842350363731384,-0.30595457553863525,-0.008486486971378326,0.3242392838001251,-0.11201638728380203,0.25164371728897095,0.22182488441467285,-0.20525874197483063,0.10293572396039963,-0.37405169010162354,-0.07265985012054443,-0.18234549462795258,0.17790377140045166,0.14211368560791016,-0.2748429477214813,0.3185291886329651,-0.025753457099199295,0.08666809648275375,-0.0491657480597496,-0.006978146731853485,0.14294087886810303,-0.40311115980148315,0.12799875438213348,-0.44861385226249695,-0.23205356299877167,-0.21589326858520508,-0.10515687614679337,0.26636648178100586,-0.09531322121620178,0.35377100110054016,-0.01221512258052826,0.14211241900920868,-0.462541788816452,-0.1931115686893463,-0.23035657405853271,-0.32550302147865295,-0.12117841094732285,-0.24058380722999573,0.02739136666059494,-0.4660438597202301,-0.13200876116752625,0.05756930634379387,-0.4504692554473877,0.09972819685935974,0.1404319405555725,-0.16765831410884857,-0.23686891794204712,0.28137075901031494,0.34757307171821594,0.5317372679710388
shellfish toxin profiles,0.16135600209236145,-0.0884338766336441,-0.14838802814483643,-0.14973393082618713,-0.07278627157211304,-0.33220410346984863,0.2215971052646637,0.08397895842790604,0.4445710778236389,0.0026720508467406034,-0.3221440017223358,-0.02549763023853302,0.5302401185035706,-0.3498062193393707,0.2517678141593933,-0.2361627072095871,-0.028067845851182938,0.4005407691001892,0.0856192335486412,0.03525161370635033,0.10895010083913803,-0.06646525114774704,-0.11428681761026382,-0.5145732164382935,-0.15063650906085968,-0.17314249277114868,-0.08058949559926987,0.23204484581947327,-0.3465428352355957,0.26058346033096313,-0.19539886713027954,-0.16639268398284912,-0.12884342670440674,0.0011331194546073675,-0.1494799256324768,-0.13140219449996948,-0.0018515057163313031,-0.23781774938106537,-0.11137141287326813,-0.1862795650959015,0.0453869104385376,0.2298697829246521,-0.15752668678760529,0.41912952065467834,-0.0021854860242456198,0.28962913155555725,-0.24309071898460388,-0.42114540934562683,-0.20032860338687897,-0.41725313663482666,-0.07115937024354935,-0.29651573300361633,0.27805641293525696,-0.37654760479927063,-0.20488327741622925,-0.011508660390973091,-0.06652781367301941,0.143484428524971,0.3069409728050232,-0.015606563538312912,-0.04627379775047302,0.3615058660507202,0.23504380881786346,0.38938620686531067
toxin contents,-0.010911808349192142,-0.15648499131202698,0.3063993453979492,0.2763458490371704,0.11619848012924194,-0.28013166785240173,0.06798230111598969,0.010937913320958614,0.19018304347991943,0.08099255710840225,-0.14043395221233368,0.01993139088153839,0.17499110102653503,-0.11222301423549652,0.3370172083377838,-0.17660078406333923,0.039929669350385666,0.5365649461746216,-0.07999877631664276,0.13660673797130585,0.14096693694591522,0.10986988246440887,-0.1438712626695633,-0.3753945529460907,0.08936259895563126,-0.14401431381702423,-0.13622193038463593,0.04821929708123207,-0.07806677371263504,0.21682998538017273,-0.19719263911247253,-0.1417917013168335,-0.11982612311840057,0.025638660416007042,-0.07294736802577972,-0.4891705811023712,0.025425923988223076,-0.4087141454219818,-0.2611064314842224,-0.13990232348442078,0.013633199036121368,0.4381054937839508,-0.25810372829437256,0.22813065350055695,0.006346842274069786,0.22876854240894318,-0.121340312063694,-0.14512020349502563,0.011518669314682484,-0.10507143288850784,-0.3564845621585846,0.1416991800069809,0.07933084666728973,-0.08103813976049423,-0.05782606452703476,-0.045850273221731186,0.118280790746212,-0.31270524859428406,0.05703650414943695,0.013696683570742607,-0.22153893113136292,0.11262375861406326,0.2943316400051117,0.3087298274040222
freshwater cyanobacteria,0.03900367394089699,-0.2886744737625122,0.052564069628715515,0.25956201553344727,-0.0549442283809185,-0.16191965341567993,-0.27133840322494507,-0.29795268177986145,-0.21391437947750092,-0.1496943086385727,0.08294059336185455,0.12073833495378494,0.0367620475590229,0.07594402134418488,0.13036096096038818,-0.011811923235654831,0.3914874792098999,0.31431126594543457,-0.2814255952835083,-0.008027090691030025,-0.09015834331512451,0.0426369234919548,0.0290368665009737,-0.4564933478832245,0.6131181716918945,-0.1635836362838745,0.0800076574087143,0.22142931818962097,-0.1363096833229065,-0.19945701956748962,0.06899089366197586,0.19768916070461273,-0.09347791224718094,-0.018107328563928604,0.11726067960262299,0.19296251237392426,0.5063350796699524,-0.15478405356407166,0.035423774272203445,-0.14675594866275787,-0.6617215871810913,0.23781219124794006,0.19199132919311523,-0.017361605539917946,-0.08765886723995209,-0.03828410804271698,-0.15594159066677094,-0.15758530795574188,-0.1956687718629837,0.030649948865175247,0.39731764793395996,0.19567102193832397,-0.32148879766464233,-0.12544824182987213,-0.517337441444397,0.08518928289413452,0.05414644628763199,0.13053330779075623,-0.21949850022792816,-0.4774751663208008,-0.0767030194401741,0.3115708827972412,-0.47208723425865173,0.11018608510494232
environmental conditions,-0.23873019218444824,0.13315251469612122,0.13773111999034882,-0.21945060789585114,0.17793788015842438,-0.1318844109773636,-0.17464898526668549,-0.06006905436515808,0.27467551827430725,-0.09515446424484253,-0.21515168249607086,0.18806815147399902,0.0911429151892662,-0.08131222426891327,-0.10263495147228241,0.1258356124162674,-0.08900399506092072,0.2615281641483307,-0.015567288734018803,0.12617705762386322,0.4360954761505127,-0.11677470803260803,0.05922854691743851,-0.12870030105113983,-0.16711771488189697,-0.14561986923217773,-0.07859925925731659,-0.2916088104248047,-0.26940202713012695,0.32288751006126404,-0.2355397492647171,-0.24840231239795685,-0.12141690403223038,0.10647062212228775,0.5526187419891357,0.1266362965106964,0.08198442310094833,0.16922099888324738,0.05494406074285507,0.16299164295196533,-0.203883558511734,0.14580710232257843,0.09183192998170853,-0.0076985745690763,0.020252438262104988,0.08502131700515747,0.10555194318294525,-0.4015570282936096,0.14322611689567566,-0.2830154001712799,-0.12657317519187927,0.41996851563453674,-0.22295384109020233,-0.08768190443515778,-0.2865699827671051,-0.1883215606212616,0.12340600043535233,-0.14721420407295227,0.04401989281177521,-0.11120720952749252,0.05598258227109909,0.3991859257221222,0.12093524634838104,0.40953078866004944
marine dinoflagellate alexandrium,-0.03588533028960228,-0.26726898550987244,-0.08840912580490112,-0.002582316054031253,0.28818291425704956,0.19824795424938202,-0.18334618210792542,-0.264602392911911,-0.3620575964450836,-0.005720667541027069,-0.3300663232803345,-0.12914200127124786,-0.17027486860752106,-0.0281034167855978,-0.14609917998313904,0.12363819777965546,0.20944832265377045,0.22137536108493805,-0.15120138227939606,0.012858468107879162,0.1287362426519394,0.2632944881916046,0.0326300673186779,-0.10735207051038742,0.1891319453716278,-0.14541922509670258,-0.274654358625412,0.29559311270713806,-0.2496340572834015,-0.10906223952770233,-0.2916177809238434,-0.20361052453517914,-0.18433094024658203,-0.07148545235395432,0.07153087109327316,-0.04552413895726204,0.24915961921215057,0.09728072583675385,0.11421330273151398,-0.12445113062858582,-0.025184500962495804,0.05372701212763786,-0.3729444146156311,0.2854152023792267,-0.30497241020202637,0.05760842561721802,-0.006138348486274481,0.08929487317800522,-0.04688024893403053,-0.07417460530996323,0.09833326935768127,0.15417954325675964,-0.07681335508823395,-0.13014473021030426,-0.31431353092193604,-0.04478752985596657,-0.009189335629343987,-0.5856804847717285,-0.05310707166790962,-0.014322694391012192,-0.18688145279884338,-0.016978463158011436,0.2661508321762085,0.23517045378684998
cellular toxin,-0.034484390169382095,-0.17232218384742737,0.11204773187637329,-0.2938419580459595,-0.019339347258210182,0.008269211277365685,-0.07764741033315659,-0.3234391212463379,-0.3326995074748993,0.09277461469173431,-0.12116574496030807,-0.11358444392681122,-0.43438518047332764,0.22202230989933014,0.1695399284362793,-0.04378777742385864,-0.24105100333690643,0.42308270931243896,-0.1094055026769638,-0.08880113810300827,0.13465121388435364,0.2573789656162262,0.30265042185783386,-0.04374360293149948,0.16337217390537262,-0.0454021655023098,0.011197347193956375,0.4213830530643463,-0.38953205943107605,0.24595274031162262,-0.17793995141983032,0.010955888777971268,-0.32744723558425903,-0.0778902992606163,-0.037276219576597214,-0.09615042060613632,0.21266983449459076,0.09556125849485397,0.4023699462413788,-0.11260847002267838,0.2284960299730301,0.04179203510284424,0.04825197905302048,0.0894390195608139,-0.043471116572618484,-0.009773915633559227,-0.32394033670425415,-0.1262083351612091,0.2262415885925293,-0.5305083394050598,0.04693164676427841,0.20667825639247894,-0.0899362787604332,0.008655884303152561,-0.25770676136016846,-0.3313281536102295,0.19915159046649933,-0.25998347997665405,0.21536138653755188,-0.05968808755278587,0.004239968489855528,0.025151493027806282,0.14409306645393372,0.5799810290336609
core genes,-0.06111444905400276,0.20963355898857117,0.6824459433555603,-0.2639974057674408,0.03891731798648834,-0.03696877136826515,-0.36615219712257385,0.2940934896469116,0.08355574309825897,-0.004858749452978373,-0.45098719000816345,-0.48258787393569946,0.04843657836318016,0.10661733150482178,-0.01937348209321499,-0.18999776244163513,0.2091984897851944,0.5216427445411682,0.11154646426439285,0.2760549783706665,-0.05926736071705818,-0.20225469768047333,-0.10425841063261032,-0.008685067296028137,0.5396456718444824,0.0994730144739151,0.1288524866104126,-0.03492366895079613,-0.10106946527957916,-0.13256248831748962,-0.16669876873493195,-0.32566121220588684,-0.2908371388912201,0.08711731433868408,0.3970564901828766,-0.3627711832523346,0.5157245397567749,0.22059166431427002,0.24395844340324402,-0.04153153672814369,0.021870816126465797,-0.3975919485092163,-0.0020287088118493557,0.017083168029785156,-0.13263069093227386,-0.20847998559474945,0.23164421319961548,0.09378699958324432,-0.03178749606013298,0.0906519740819931,0.09837689250707626,-0.11099117249250412,-0.0436040461063385,-0.2802022099494934,-0.23262616991996765,-0.23435591161251068,-0.16736796498298645,-0.07028938084840775,0.23275430500507355,-0.06500068306922913,-0.10509198904037476,0.04161123186349869,-0.1674562394618988,-0.07757405191659927
gene copy number,0.05032862722873688,-0.3774605393409729,0.3100573718547821,0.3182066082954407,0.10775519907474518,0.21263547241687775,-0.06864175945520401,-0.14175109565258026,0.22690463066101074,0.11978360265493393,-0.3233320116996765,0.023628931492567062,0.028210995718836784,-0.07157782465219498,-0.3886253535747528,-0.48866528272628784,0.42526158690452576,0.30417001247406006,0.479992538690567,0.23419025540351868,-0.05875418335199356,-0.16078047454357147,0.3839820623397827,0.13220389187335968,0.33031436800956726,-0.06429354846477509,-0.343051940202713,0.1636776328086853,0.25924092531204224,-0.10403416305780411,-0.17462611198425293,0.04530072957277298,-0.12001217901706696,-0.08567383140325546,0.3716414272785187,0.19559885561466217,-0.04379802197217941,0.13212032616138458,0.02670503780245781,-0.03380947932600975,0.38409820199012756,-0.1829080581665039,-0.14755959808826447,-0.18010585010051727,-0.15069137513637543,0.17079563438892365,0.027797533199191093,-0.4868777394294739,0.051913678646087646,0.2983146607875824,0.26875048875808716,0.14317835867404938,0.03173215687274933,-0.33006522059440613,-0.37714359164237976,-0.0692085474729538,0.15707600116729736,-0.11120154708623886,0.07153267413377762,0.09589903801679611,-0.3477519750595093,0.2507006525993347,0.13861945271492004,0.8197391629219055
pst biosynthesis,-0.0756022036075592,-0.22489817440509796,0.7359949946403503,-0.008495952002704144,0.3093300461769104,-0.23870313167572021,-0.10758129507303238,-0.04652109742164612,0.024910496547818184,-0.13014353811740875,-0.27164992690086365,-0.474612832069397,-0.12870080769062042,-0.3477552831172943,0.49090293049812317,0.17060166597366333,0.23168665170669556,0.06203028932213783,-0.11185937374830246,0.13952620327472687,0.035023368895053864,-0.23239818215370178,-0.09323681145906448,-0.011208307929337025,-0.04814351350069046,-0.09528999030590057,-0.3323723077774048,0.05223638191819191,0.05668490752577782,0.050986651331186295,-0.0746292918920517,-0.01120880525559187,-0.1182757019996643,-0.39083972573280334,0.0730709433555603,-0.07047243416309357,0.13577276468276978,0.054625026881694794,0.11939579248428345,-0.3956436514854431,-0.38150903582572937,-0.0791030153632164,-0.03049211949110031,-0.02726040408015251,-0.050665877759456635,0.22477325797080994,-0.35838955640792847,-0.09499132633209229,-0.17732401192188263,-0.18272213637828827,0.24367208778858185,0.29725512862205505,-0.21564097702503204,-0.08510001003742218,-0.2535763680934906,-0.14258547127246857,0.18203315138816833,-0.15914002060890198,-0.32473328709602356,-0.08968918025493622,-0.33548036217689514,-0.2712484300136566,-0.21254862844944,0.1753751039505005
pst-producing,0.17233917117118835,0.08469346910715103,0.29246988892555237,-0.5480988025665283,-0.2800160050392151,-0.12739801406860352,-0.16145797073841095,0.20055808126926422,0.0976867526769638,-0.36331623792648315,-0.014416604302823544,-0.28493648767471313,0.29277822375297546,-0.19225533306598663,0.13977719843387604,-0.11782380193471909,0.10936492681503296,0.5850449800491333,-0.1967114806175232,0.5178312063217163,-0.06961068511009216,-0.030334705486893654,-0.21460025012493134,-0.3459583520889282,0.08743640035390854,-0.04226892814040184,-0.05152958631515503,0.04954889044165611,0.26345211267471313,-0.014350506477057934,-0.20639899373054504,-0.11175050586462021,-0.0522322840988636,0.08388293534517288,-0.19516649842262268,-0.15894097089767456,0.10099352151155472,0.46171215176582336,-0.14925284683704376,0.06393198668956757,-0.4425404667854309,-0.4326794743537903,0.1071026399731636,0.21760235726833344,0.02815285138785839,-0.16411036252975464,0.29115691781044006,-0.07541196793317795,-0.06100483611226082,-0.04040009528398514,-0.1021791622042656,-0.0021599624305963516,-0.057369425892829895,-0.28756868839263916,-0.5167806148529053,-0.026964686810970306,-0.19418536126613617,0.17495547235012054,0.14578096568584442,0.048569221049547195,0.12679706513881683,-0.03430841863155365,-0.020005976781249046,0.39946305751800537
sulfocarbamoyl toxins,0.5074440240859985,-0.1592182070016861,0.033413950353860855,0.17833176255226135,-0.18529552221298218,0.15117982029914856,0.08416350185871124,-0.23057042062282562,-0.043338216841220856,-0.10826374590396881,-0.2224593311548233,-0.09214888513088226,0.46392321586608887,0.051801204681396484,0.10331998020410538,-0.18584254384040833,-0.22953414916992188,0.274156779050827,-0.03625503182411194,0.43391332030296326,0.34654322266578674,-0.1146254688501358,-0.29887089133262634,0.032712627202272415,0.24884460866451263,-0.47272390127182007,-0.06846626847982407,-0.13330987095832825,0.06218840181827545,0.031961485743522644,0.012750968337059021,0.010362591594457626,0.13260389864444733,0.1746017187833786,-0.187176913022995,-0.3407110869884491,0.1708393543958664,0.2979039251804352,-0.08071597665548325,0.3223508894443512,-0.1475929468870163,0.02485223114490509,-0.20117779076099396,-0.059898391366004944,0.03168465569615364,0.3646138608455658,0.2213616967201233,-0.021671928465366364,-0.19866028428077698,-0.5740252733230591,0.20539499819278717,0.13048288226127625,-0.5830455422401428,-0.17986297607421875,0.17420949041843414,-0.3693566620349884,0.24059772491455078,0.21913191676139832,0.6053326725959778,-0.02372286282479763,-0.33285391330718994,0.14174751937389374,0.17105281352996826,0.28978055715560913
saxitoxin biosynthesis gene,-0.07054834067821503,0.055354148149490356,0.47698020935058594,-0.2626214325428009,-0.12712529301643372,-0.15854938328266144,-0.46230000257492065,-0.31448596715927124,-0.2774207293987274,0.004972103051841259,-0.38295644521713257,0.31463056802749634,0.13515964150428772,-0.006983858998864889,-0.2477835863828659,-0.3596125543117523,0.3982436954975128,0.36389854550361633,0.4372594952583313,-0.24988387525081635,-0.07831621915102005,-0.263347327709198,-0.2982398569583893,-0.05383293703198433,0.16825896501541138,-0.4828057587146759,0.27883583307266235,0.10283831506967545,0.3904317319393158,-0.16748075187206268,0.14048774540424347,-0.06008384749293327,-0.1568232923746109,-0.22571967542171478,0.291549414396286,-0.45986372232437134,0.40737104415893555,0.03189517557621002,0.23959983885288239,-0.10685653239488602,-0.32095614075660706,0.23619765043258667,0.3320326805114746,-0.17772828042507172,-0.20836736261844635,0.1606910079717636,-0.37646424770355225,-0.3513656258583069,0.05476042255759239,-0.030122533440589905,0.07938999682664871,0.20629893243312836,-0.30188170075416565,0.22554795444011688,-0.026100125163793564,-0.23144401609897614,0.15764282643795013,-0.006976445205509663,0.035373006016016006,-0.33643218874931335,-0.1257908046245575,-0.08063922077417374,-0.3603413701057434,0.1412486582994461
sxt gene,0.08943769335746765,-0.24966636300086975,0.5068442225456238,-0.2058747112751007,-0.0660988837480545,0.14257816970348358,-0.08921024948358536,0.12251335382461548,-0.008126654662191868,-0.22697070240974426,0.02458607591688633,-0.2648554742336273,0.2860333025455475,-0.4073536694049835,-0.322163462638855,-0.45050865411758423,0.3467545807361603,0.4403247535228729,-0.1166047602891922,0.15779346227645874,-0.2472972422838211,-0.5525178909301758,0.3117750287055969,0.0895928367972374,0.29081931710243225,-0.13024380803108215,0.18092156946659088,-0.31415677070617676,-0.12974795699119568,-0.5510700941085815,-0.12057793885469437,-0.3285764157772064,-0.3056279122829437,-0.5114250183105469,0.30366408824920654,-0.013851731084287167,0.018143488094210625,0.3066171705722809,0.05789126455783844,0.03712661191821098,0.019517073407769203,0.5525667667388916,0.07760103791952133,-0.03029174543917179,0.31578218936920166,-0.010987019166350365,0.07811826467514038,0.17369170486927032,0.22856786847114563,0.10436370223760605,-0.08638421446084976,-0.06989502161741257,-0.19876143336296082,-0.44853079319000244,-0.32673147320747375,-0.28202661871910095,0.05835329741239548,-0.02576344646513462,-0.05891970545053482,-0.1423342078924179,-0.10407999157905579,0.359132319688797,-0.1403774917125702,0.30078595876693726
phylogeny,-0.3721635043621063,-0.32895249128341675,0.37005364894866943,0.08790901303291321,0.06583044677972794,0.021595846861600876,-0.15573135018348694,0.09457290172576904,-0.12159650772809982,0.2533200979232788,-0.21027085185050964,-0.0177864171564579,0.34665969014167786,0.04599707946181297,-0.3395386338233948,0.06934549659490585,0.4376571774482727,0.13557620346546173,-0.40829476714134216,-0.036908041685819626,-0.24585378170013428,0.40763232111930847,0.03643114119768143,-0.30618715286254883,0.1473873257637024,-0.253314733505249,0.09867746382951736,0.05226786062121391,0.012559927068650723,0.33087897300720215,0.06070808693766594,-0.4143337607383728,-0.16934546828269958,-0.13236473500728607,-0.1255136877298355,0.035409677773714066,0.2564150393009186,0.31859487295150757,0.045496221631765366,0.012892515398561954,-0.14176446199417114,-0.5132024884223938,-0.19253399968147278,-0.04476984217762947,-0.009638487361371517,0.0009445444447919726,-0.302870512008667,-0.3887222707271576,0.10935340076684952,-0.4186832308769226,0.29731473326683044,-0.2947949171066284,-0.4068804979324341,0.03862813115119934,0.05658029764890671,-0.16990384459495544,-0.09892808645963669,-0.08585728704929352,0.20547382533550262,-0.181028813123703,0.0618162639439106,0.1495504081249237,-0.3445912301540375,0.1498684585094452
stx-producing,-0.10392699390649796,-0.2828325033187866,0.23891699314117432,0.09933079779148102,-0.11616028845310211,0.07294633239507675,-0.05214511230587959,-0.12430424988269806,0.19263748824596405,0.07622426003217697,-0.17557087540626526,-0.40908876061439514,-0.034825265407562256,0.046339552849531174,-0.49275657534599304,0.03560628369450569,-0.27215465903282166,0.18507631123065948,-0.252167284488678,0.11359444260597229,0.1398869752883911,-0.3641219735145569,-0.1051640436053276,0.06834600120782852,0.30469760298728943,-0.17023080587387085,0.020297501236200333,-0.08470243215560913,-0.10227468609809875,-0.27318671345710754,0.2048068344593048,0.2744987905025482,-0.2376333624124527,0.08644705265760422,0.12087464332580566,0.03462794050574303,0.7152950763702393,-0.128382608294487,-0.31977835297584534,-0.11479844897985458,-0.10891174525022507,0.18983307480812073,-0.11260022222995758,0.1509425789117813,0.1747596710920334,0.3677818775177002,-0.08386640250682831,-0.13764235377311707,-0.008837797679007053,0.0710110291838646,0.1964307576417923,-0.19392310082912445,0.01434247475117445,-0.1260686218738556,-0.7695998549461365,-0.05838079750537872,-0.06214812397956848,-0.06182100996375084,-0.15222658216953278,-0.37382665276527405,0.09712119400501251,-0.022381218150258064,-0.11252248287200928,0.24709752202033997
sxtb,-0.39749547839164734,-0.26244381070137024,0.22301337122917175,0.13193373382091522,-0.006197321694344282,0.11118844151496887,-0.1485234797000885,0.005350342020392418,-0.08356238156557083,-0.14531561732292175,-0.21229450404644012,-0.2452787309885025,-0.28808334469795227,-0.23622028529644012,0.2298947423696518,-0.19064418971538544,-0.1928630918264389,0.008835836313664913,-0.02855481021106243,0.36468711495399475,-0.2710469365119934,0.1414378136396408,0.20291367173194885,-0.05469515547156334,0.5482872724533081,-0.31347402930259705,-0.3903263211250305,0.005431925877928734,0.22276408970355988,-0.1992567628622055,0.3750786781311035,-0.043125566095113754,-0.06040243059396744,0.042147036641836166,0.3857668936252594,-0.44252997636795044,0.3796337842941284,-0.2769121825695038,-0.2104286253452301,-0.08608265221118927,-0.10897504538297653,-0.12367711961269379,0.23008739948272705,0.05814354121685028,0.04956692457199097,0.4594087600708008,0.16187797486782074,-0.08768361061811447,0.31295961141586304,-0.21555092930793762,0.1670762002468109,-0.14252832531929016,0.0407298244535923,0.1793454885482788,-0.6213889122009277,-0.4321106970310211,0.07002544403076172,-0.27462828159332275,0.352603554725647,-0.44896167516708374,0.17589321732521057,0.0732513889670372,-0.12838736176490784,0.08570579439401627
poisoning toxins,0.3569428324699402,-0.4122493863105774,0.1707443743944168,0.18576578795909882,-0.38189080357551575,0.08920378983020782,-0.18922126293182373,0.19364874064922333,-0.003341036383062601,-0.09675344079732895,-0.71219402551651,-0.005001187790185213,0.3053774833679199,-0.5030602812767029,0.00499551510438323,-0.0431814081966877,0.062380850315093994,0.18111379444599152,-0.1985022872686386,0.5185703039169312,-0.14662820100784302,-0.3259127736091614,-0.08757109940052032,-0.10167393088340759,0.34478020668029785,-0.25241973996162415,-0.0017603811575099826,-0.19509072601795197,-0.19050154089927673,-0.24145635962486267,-0.4390372037887573,0.15548454225063324,-0.3460424542427063,0.14914171397686005,0.11264076083898544,0.43431881070137024,-0.1455724686384201,-0.05729672685265541,0.16875776648521423,0.14952638745307922,-0.01957072876393795,-0.19230978190898895,0.3973635137081146,-0.20779983699321747,-0.5685513615608215,-0.15577168762683868,-0.31791573762893677,-0.043166015297174454,0.07860991358757019,-0.11390408128499985,-0.1612836718559265,-0.23388752341270447,0.06765009462833405,-0.21695467829704285,-0.15937557816505432,-0.268995463848114,0.10969498008489609,-0.340503454208374,0.13777416944503784,-0.05113164335489273,-0.32537636160850525,-0.2552000880241394,-0.26997312903404236,0.11105634272098541
shellfish poisoning toxins,0.14864905178546906,-0.3643750250339508,0.23256610333919525,0.13283637166023254,-0.38321352005004883,0.45852360129356384,0.135740727186203,0.22749389708042145,-0.024899326264858246,-0.25841739773750305,-0.4535990357398987,-0.045156195759773254,0.0832393541932106,-0.3169058561325073,-0.06726088374853134,-0.10728633403778076,0.23112337291240692,0.0704062283039093,-0.23875652253627777,0.3364419937133789,-0.17643822729587555,-0.3850598931312561,-0.006282818503677845,-0.37736669182777405,0.2131035476922989,-0.08747810125350952,-0.06473138183355331,0.06919750571250916,0.0629783421754837,-0.23010751605033875,-0.5114147663116455,0.12524978816509247,0.10394992679357529,0.1944686323404312,-0.053021177649497986,0.36568284034729004,-0.07767405360937119,-0.22741322219371796,-0.1292167603969574,0.04844723269343376,-0.3575715720653534,0.09033921360969543,0.4620436728000641,-0.33701205253601074,-0.3122803866863251,0.1454302817583084,0.1256791204214096,0.02962186560034752,0.4098374843597412,-0.3758908808231354,0.08955462276935577,-0.07455893605947495,0.16003672778606415,-0.16796308755874634,0.012859620153903961,-0.2486005574464798,0.3367951512336731,-0.10773997753858566,0.2530486583709717,-0.33912935853004456,-0.3609875440597534,-0.016518916934728622,-0.060359593480825424,0.4333688020706177
